elements: [Sb, Te]
E0: [0, 0]
deltaSplineBins: 0.001
embeddings:
  0: {ndensity: 4, FS_parameters: [1, 1, 1, 0.5, 1, 0.90327430251632412, 1, 0.94847568343744082], npoti: FinnisSinclairShiftedScaled, rho_core_cutoff: 5, drho_core_cutoff: 5}
  1: {ndensity: 4, FS_parameters: [1, 1, 1, 0.5, 1, 0.90327430251632412, 1, 0.94847568343744082], npoti: FinnisSinclairShiftedScaled, rho_core_cutoff: 5, drho_core_cutoff: 5}
bonds:
  [0, 0]: {nradmax: 12, lmax: 5, nradbasemax: 14, radbasename: SBessel, radparameters: [3.9719992996197315], radcoefficients: [[[1.5489081031357692, -0.58380880783514311, 0.10193274691315694, 0.28921719718063721, -0.28846307455488746, 0.19516304880569513, -0.14913691605226864, 0.09876494839227222, -0.0058481312822615478, -0.0084094615956077576, 0.017564444823710074, 0.0074816041516738083, -0.0085378356877105661, 0.00022363721430956738], [1.163609550113925, -0.56970210142646116, 0.10075868397533669, 0.055967358620099314, -0.012269519775873388, 0.041148479075734913, -0.1475058648392199, 0.1701639733434111, -0.1125174633835815, 0.080340344629195592, -0.0045870760418443525, 0.014454886487395884, -0.0011050635294452243, -0.0015987579616695083], [1.2629291503321969, -0.72719988427145921, 0.060024421261113396, 0.23019400297379478, -0.077183399264270383, -0.016642127575556036, -0.051437518058478862, 0.12701809988601773, -0.098293457077429452, 0.0089000873161373638, 0.050958400557002556, -0.044268058287008881, 0.024802021454346207, -0.0059362052858742504], [0.8759741655778871, -0.47510131668838351, 0.12351200563311167, -0.15076272964336815, 0.12786756246189329, -0.02189850179048446, -0.25393938749544481, 0.40948093762665783, -0.29233459387844662, 0.17907277768389299, -0.057708084483616702, 0.0074541738321897786, -0.0046462370813514153, -0.011149793947550064], [0.87148992967518812, -1.0410867830385235, -0.36375940651412242, 0.012455488397457762, -0.31838706556568991, -0.063058147422487318, 0.11983758238088997, 0.052547084884476583, -0.072871321219561747, 0.14242654135442878, -0.22068314091897856, 0.16385239171991395, -0.13409482953259821, 0.050487196576414421], [0.88310106970234881, -0.76490345380740909, -0.45193773551855948, 0.06724660545660259, -0.18558634697137932, -0.13011757667387591, 0.10472130656184586, 0.037200727894857628, -0.030287097782280222, 0.00089025906312443495, -0.047057719054860891, 0.024666919247837961, 0.00032100987325699908, 0.001792785015276711]], [[-0.61221132592109673, 0.96727793831231346, -0.24688832221226439, -0.2370167451964616, 0.2534631056031259, -0.12188498096995611, -0.01006236200000904, 0.10622490752621098, -0.18885989574357329, 0.25263388010838755, -0.21661874816990856, 0.14946626130876939, -0.063946401673366182, 0.016998356381786778], [-0.77477347526194307, 0.9022906959119682, -0.54993755253934407, 0.0097358055522637557, 0.27261227890840095, -0.22506916113396008, 0.083084051784855881, -0.088950302433273759, 0.093399768954346193, -0.045078303233106021, 0.0095557787465903373, 0.04770110061634681, -0.028701393946812214, 0.016833462602975961], [-0.3060771457776954, 0.92245709924539343, -0.46972462695180561, 0.37257298547513568, 0.070302688469441557, -0.24142099884640364, 0.1154465669751636, -0.23503321427911336, 0.27805839888026307, -0.15420348436768255, 0.15367613517163967, -0.044584026971537849, 0.040635738047230877, -0.023688063024235501], [-0.20496866030212313, 1.000185076862363, -0.29625818555098038, 0.14300647253188675, 0.17306326309425255, -0.013395222952199456, -0.14939710417802918, -0.21215252524372724, 0.21277809899098743, -0.16233669194543091, 0.15724212970291768, -0.093592416134944664, 0.059903268162201997, -0.046500119713259354], [0.097489695524727332, 0.609211819216115, -0.3138162098895283, 0.46127959526792262, -0.15323690424284472, -0.083299373395985712, 0.31342807101497661, -0.11556831093143112, -0.029245731968899458, -0.23613359971391193, 0.30902467164641717, -0.37606468925608805, 0.25504157370642466, -0.11934476899989307], [0.11755020549869041, 0.81222684407040979, -0.47001437197752099, -0.28411928855083879, 0.079155243698507544, 0.50755258209902221, 0.44592699939863772, -0.04718293000104342, -0.13189051829101175, 0.008278358282983787, 0.033659357999803283, -0.018729973665719657, -0.039891045926496227, -0.34439299927991424]], [[0.77747991760225366, -0.099880193518175203, 0.64153005097230609, -0.049331285838027789, 0.01416635951290914, 0.094376148559389583, -0.12370388291042916, -0.020785981610519495, 0.086017477738979456, -0.014058904809971849, -0.030375785469824303, 0.032195904965788155, -0.0039657573143529511, -0.023204898616451714], [0.19508251990397207, -0.056121205053711619, 0.65726237709496249, -0.34427823010424163, 0.34517112718236881, -0.066070885410734193, -0.12475007009768446, 0.22912679087549342, -0.37650429439399502, 0.32396948188757485, -0.19272707131993785, 0.10287630176415322, -0.018749322135780452, -0.0040182923280561661], [0.047962940970224889, 0.048263271142464134, 0.63138277628993678, -0.50559112652755356, 0.48734754261653135, -0.18546179061503737, -0.30647776912101732, 0.39009730722898273, -0.36353430586024932, 0.39361614933099703, -0.21720457451709671, 0.15237093096843571, -0.040964595056848005, -0.0043515758927293643], [-0.027648515431347571, 0.0050051538678566026, 0.66023716960202705, -0.29317290379407451, 0.39441340453090823, -0.33653598059534262, -0.34315017463334391, 0.28065661951262311, -0.15657174257658818, 0.14046887367271849, -0.038859928193538305, 0.055739020073201972, -0.04494980075810321, 0.011594115771449184], [-0.2702647468976091, -0.23743663271519194, 0.87687128038793161, 0.25311730951951616, 0.51342575780357014, -0.43168679367264506, -0.067344749733099271, 0.52898207954295628, -0.54607148593523813, 0.053659836516939285, 0.26386115514259967, -0.27374818455020938, 0.16509024965213273, -0.051125497377165298], [2.2931396481744508e-05, -0.00010293111862541347, 0.99939899337645055, -0.00022873910181332949, 0.00014870228283042706, 0.00011842526469479168, 0.00013043240167840995, 0.00023755276662734253, 0.00051433784191111463, -0.00021045392663625147, -0.0004865116066646891, -0.00055145896828981791, -0.00016105867434127174, -0.0002023391965808282]], [[0.56241416531095534, -0.3952956762616463, -0.33205137420398162, 0.78804484994453317, -0.60444391217601534, 0.3137911652114978, -0.063749272798084192, -0.077505446390041824, 0.20485013778550862, -0.25996630538847276, 0.23383914789444063, -0.16554911944927181, 0.077596543342090693, -0.027793640008426514], [0.1112993344143767, -0.21895090010646107, -0.22641652470193963, 0.91991693105324368, -0.60397628588921859, -0.27456083245337742, 0.14311386785293589, -0.059959407118172423, 0.024149020852287754, -0.11297301490160484, 0.1349108531622136, -0.083889772953140151, 0.043881046868945776, -0.024186444770407871], [0.4939874234018598, 0.073370795630324351, -0.20777246066126681, 0.85048270291414307, -0.38818116670155767, 0.21977297133624094, 0.0959461719705339, -0.21781045824659548, 0.15892094082559671, -0.31706554187429931, 0.18017437744680972, -0.052773614480064346, 0.028911334022434898, 0.032168045848398254], [0.29106137249739578, 0.1053708851864784, -0.20331131413387432, 0.83608722207995156, -0.36452458915063773, -0.33191685513693758, -0.097184057357911663, 0.10673896313103144, 0.092809984952813618, -0.12257275557371762, 0.21633439859387368, -0.076144538777206727, -0.00083842543590167994, 0.013165040724229252], [-0.11186092699265089, -0.21279042535391826, -0.10394516622686062, 1.2730155253682442, 0.20850946029627423, -0.2959339487257609, -0.3299755097212167, 0.18852902869023203, 0.10727787165331193, -0.17926659670154771, 0.42893449770698711, 0.020664916397811525, -0.076467252089684121, 0.096416936398406303], [4.0034888732130106e-06, 5.6219124431595221e-05, -0.00015978459634812502, 0.9991436175940539, -0.00032481347152468271, 0.00018806358164103983, 0.00011105708438893031, 0.00016748249033879113, 0.00022605349961089404, 0.00020987612959231857, 0.00040286106492131346, 0.00096883449370943544, -0.00011374380035889477, -0.0007536693138509667]], [[-0.10571145009724146, 0.25202141454881755, 0.3340336261095016, -0.23345477106309573, 0.39151407556977447, -0.1344218112274532, 0.21498063072009918, -0.16411561339757122, 0.04126821590649396, 0.0066389704425512935, -0.047207809472090585, -0.0079392949267702521, 0.026067818837577045, -0.024538621797525129], [-0.063117480273898935, -0.14274427726714367, 0.18213133189804445, 0.13975882038046752, 0.87565761514052498, 0.089673913013753867, -0.013044006676715042, 0.0083094561650089507, -0.062227280476157283, -0.30725436320508104, 0.57770580732016319, -0.30859276290551579, 0.17127384469850951, 0.1035613336518811], [0.29472730731918073, 0.67812904672149976, 0.082746471885291023, -0.62935946205679005, 0.87883556622933179, -0.018972957775150817, -0.512621620979821, 0.12708179429885652, 0.30561404062300729, -0.34119538768230451, 0.14855703672100481, 0.079387178211760487, 0.0014956808313200047, 0.021947734936911999], [0.02840171029974415, 0.26652333670916906, 0.5279400584797006, 0.094248590339450031, 0.72908801615750574, 0.43477655906935703, 0.31790646089263647, -0.638557717315553, -0.13676240852870614, 0.087639554906693576, -0.32320036844432004, 0.301063348154951, -0.17151754418367099, 0.024961955088037155], [6.2827239225057415e-06, 1.4203487243573816e-05, 9.3753136670372646e-05, -0.00024329092643972296, 0.99883689179624113, -0.00043427182380387425, 0.00023015854042318114, 0.00012885439043543859, 0.0002538529246415609, 0.00022538088072185909, 0.00021545079541509361, 0.00027155166132096991, 0.00030645925117972847, 0.00061513995074183639], [6.282723922442242e-06, 1.4203487243049208e-05, 9.3753136667309084e-05, -0.00024329092643893992, 0.99883689179625956, -0.00043427182380602591, 0.00023015854042515116, 0.00012885439043264888, 0.00025385292463493128, 0.00022538088071934905, 0.00021545079542456425, 0.00027155166132658256, 0.0003064592511824554, 0.00061513995075982591]], [[0.95290691525610516, 0.53455760010894837, -0.30001056954860478, -0.066698889432580052, -0.19220024331457813, 0.48074803979300801, 0.070438311362326367, -0.016673462642476843, -0.29450146942842309, 0.26194364506646434, -0.25394600331549855, 0.10147182537833606, -0.0034399649444283409, 0.0078324392170042757], [-0.33049921838931051, -0.22364230054782874, -0.056917347369742903, 0.13467323748304216, 0.34361873081965127, 0.94806195851976871, 0.11912748729401383, -0.012084870680109466, -0.43165653565635304, 0.3576491939146253, -0.1871058843603319, 0.15259478361797502, -0.088241933727643496, 0.23083575654512239], [-0.13965996058203686, -0.081586064821360965, -0.018340677192728746, -0.14610045498702717, -0.029540948416165121, 0.75035961337010348, -0.33254323801355395, -0.082631364018757314, -0.34354073243206984, -0.20843629977068678, 0.040847003109349155, 0.13001938464701326, -0.02857631059812191, 0.10174975244012695], [0.21029806622366146, 0.37820515250186548, 0.19231623395078631, 0.0069113941254368904, -0.1248091103589505, 0.97354121332409649, 0.44923515488731364, 0.18024896425262621, -0.16260516286545273, 0.19075459550449367, -0.045419569895891354, -0.14885963370145469, 0.23884002572958035, -0.085392659077055802], [8.5707526091611756e-06, 2.3391254775362808e-05, 1.9705708018721805e-05, 0.0001295776629132171, -0.00029964370845368183, 0.9984786263543971, -0.00064515646482677649, 0.00026734607603198427, 0.00015185513490883362, 0.00024853344751556708, 0.0002470357373450542, 0.00026664504638445604, 0.00038219882498234957, 0.00035479326471119329], [8.5707526090220369e-06, 2.3391254775362276e-05, 1.9705708017776615e-05, 0.00012957766291006904, -0.00029964370845181191, 0.99847862635438633, -0.0006451564648228108, 0.00026734607603711173, 0.00015185513491071718, 0.00024853344751234858, 0.00024703573733885468, 0.00026664504638773955, 0.00038219882497888592, 0.00035479326470304188]], [[0.073125914101906983, 0.23928825439346296, 0.25175414314285111, 0.11674732673858033, 0.0049066739216439862, 0.11029179406215331, 1.2819301063154465, 0.095302141037539354, -0.1704744899458267, 0.077861906285953478, 0.25188981118574078, -0.22019874250336235, 0.21229220157105017, -0.054671494118738846], [0.17788955179983493, -0.093343888277366782, -0.12663359236323626, 0.26811756424627592, 0.11710359806423723, -0.10441741800974073, 0.87337158530857162, 0.15823743048305861, 0.027404529104502504, -0.25519141922242905, 0.39710313836170175, -0.42055691288815844, 0.077909530996592105, 0.13883429744098844], [0.32004942851724655, 0.15245999489620646, -0.13852097563676177, -0.03749595304794516, 0.0058388799337634172, 0.074958188513091328, 0.83196028429641622, -0.29787118889716502, -0.098777656055478849, -0.11601739542025895, 0.37649368722358528, 0.13341795540336523, -0.25883446763923645, 0.12559890311701574], [5.3036675381747119e-06, 4.8931478147404099e-06, 2.7806611402314649e-05, 3.5595462771706461e-05, 0.00018131787556035719, -0.00046321972363049901, 0.99806482856952283, -0.0007075680018440941, 0.00035188285979908266, 0.00021447813319162306, 0.00040635492977525488, 0.00033470795570865041, 0.00037284099532960085, 0.00039286562292070905], [5.3036675380241145e-06, 4.8931478148443189e-06, 2.7806611402435659e-05, 3.5595462771514293e-05, 0.0001813178755634357, -0.00046321972363237165, 0.99806482856951384, -0.00070756800184823543, 0.00035188285979367644, 0.00021447813318037164, 0.00040635492977843902, 0.00033470795570827088, 0.0003728409953368611, 0.00039286562292108055], [5.3036675380817077e-06, 4.8931478146985665e-06, 2.7806611402232083e-05, 3.5595462771286976e-05, 0.00018131787556417855, -0.00046321972362404714, 0.99806482856951051, -0.00070756800182455342, 0.00035188285979417848, 0.00021447813318257588, 0.0004063549297724404, 0.00033470795570978172, 0.00037284099533544919, 0.00039286562290170239]], [[0.38758683837710434, 0.31414646477546282, 0.036781838099541303, 0.10737769117117714, 0.17926012341079098, -0.072612887883033189, -0.011867731171390422, 0.98398423709881144, -0.23363265766167041, 0.2274025563320006, 0.15623638840906434, 0.00035075717445237013, 0.041325163487142734, -0.059534416834758283], [-0.21085340961687382, -0.095112315106090042, -0.10930747925120625, -0.18056188030698148, 0.09230370029558925, -0.18331682241432659, -0.11892218483522744, 1.1474833082447169, -0.22313402181835898, 0.11896159529468138, 0.22165642244366046, -0.14276218812265262, -0.10548454558348366, 0.14613295471693311], [-0.17661631844453557, -0.051106246969235956, 0.23199405773248477, 0.08326530861030583, -0.14664965591650758, -0.078217291775703288, 0.067832276849859277, 0.91471042099849276, -0.22894210909787613, -0.21180162418170187, -0.41839383795789947, -0.023823346418778955, -0.0055430065744626516, -0.043067233657074148], [1.0197649086064579e-06, 1.2947093517232168e-05, 1.2969601068407197e-05, 5.6346956021822321e-05, 7.8217227771077701e-05, 0.00023870098978401921, -0.00058634549216807154, 0.99760145187283367, -0.00091819482850350473, 0.00033816938507152169, 7.9916220539730384e-05, 0.0003116892916926334, 0.00018643311123211757, 0.00012628900386411391], [1.0197649085931271e-06, 1.2947093517459389e-05, 1.2969601068360815e-05, 5.6346956022543091e-05, 7.821722777086368e-05, 0.00023870098977780033, -0.00058634549215280326, 0.99760145187281579, -0.00091819482848436314, 0.00033816938507111766, 7.9916220536625242e-05, 0.00031168929168967364, 0.00018643311123015837, 0.00012628900386489383], [1.0197649086213128e-06, 1.2947093517311093e-05, 1.2969601068552043e-05, 5.6346956024336355e-05, 7.8217227772665068e-05, 0.00023870098977874012, -0.00058634549215790834, 0.99760145187276317, -0.00091819482847538335, 0.00033816938507083018, 7.9916220538150091e-05, 0.0003116892916879052, 0.0001864331112295964, 0.00012628900386250867]], [[-0.069190531328932742, -0.10321843226712334, 0.1249745485546276, 0.15345153233659758, -0.086642947237306325, 0.056565225760283909, 0.14380120930113865, -0.051769338144327069, 0.89576120988045038, -0.26565010247348247, -0.099192063716570134, 0.38839104102248606, -0.21459874576700463, -0.061245154380601637], [0.018220211563508528, -0.088052928366153776, -0.21143813419715513, -0.012490508157169965, 0.11054177008521575, 0.0080774695486017633, 0.067718840631354943, 0.075336365400832966, 0.8268161686548412, -0.058769597856820066, 0.34326977142681642, 0.054597303513225899, -0.064327193527872945, 0.025509049021720714], [2.2406654577583252e-06, 5.7941890443621337e-06, 2.2856018007455389e-05, 3.6274976578683879e-05, 0.00011505473702515874, 9.1140440491092141e-05, 0.00023387202057669021, -0.00080236636704086146, 0.99708480921358089, -0.0010291049786028822, 0.00051990278583880552, 0.00012097484564790567, 0.00015738934992356649, 0.00013925004098667442], [2.2406654576891714e-06, 5.794189044326981e-06, 2.2856018007896121e-05, 3.6274976577926909e-05, 0.00011505473702338548, 9.1140440489868063e-05, 0.0002338720205866832, -0.00080236636706535142, 0.99708480921364773, -0.0010291049786424484, 0.00051990278583067216, 0.00012097484565035632, 0.00015738934992190075, 0.00013925004098271399], [2.2406654576665175e-06, 5.7941890443450592e-06, 2.285601800744449e-05, 3.627497657850979e-05, 0.00011505473702390088, 9.1140440489162965e-05, 0.00023387202057210057, -0.00080236636707283219, 0.99708480921361242, -0.0010291049786211035, 0.00051990278583278885, 0.00012097484564965661, 0.00015738934992317661, 0.00013925004098719679], [2.2406654577073004e-06, 5.7941890444157721e-06, 2.2856018007716652e-05, 3.627497657805393e-05, 0.00011505473702241704, 9.1140440488767584e-05, 0.0002338720205780833, -0.00080236636705945086, 0.99708480921362375, -0.0010291049786348035, 0.00051990278583831406, 0.00012097484564916975, 0.00015738934992123811, 0.00013925004098818073]], [[0.059419139202184348, -0.039931356594492283, -0.11612292970930066, 0.06175691046862325, 0.061668856037587996, -0.042358821992959518, -0.01852788851577946, -0.18893641683811482, -0.29596568516352734, 0.6818188003428971, -0.32344422547196838, -0.030934387758833729, 0.27399658429448481, -0.17365547966638231], [0.022771559491578285, 0.052031628048545546, 0.072858966847810847, 0.030295664187579223, -0.067529316042791498, -0.072965783722051897, -0.036726659405639121, -0.038297316078121833, 0.035816250083131544, 1.0243972822162488, -0.087731064833140138, -0.0013894198702334559, 0.031887953267800258, -0.18398260942130248], [1.9888616852338522e-06, 3.9527683780574508e-06, 7.0093927245893609e-06, 4.1815948055088934e-05, 3.8110006127785019e-05, 8.5343766853521655e-05, 0.00011506929782351112, 0.00033895772158551066, -0.00093040044931897272, 0.99651319115134285, -0.0013298105733878039, 0.00043177839366345168, 0.00013381859585727185, 0.0005807753630009384], [1.988861685214099e-06, 3.9527683781076722e-06, 7.0093927247876784e-06, 4.1815948054021741e-05, 3.8110006127438393e-05, 8.5343766854306224e-05, 0.00011506929782258409, 0.00033895772158768406, -0.00093040044931378709, 0.99651319115140369, -0.0013298105733517511, 0.00043177839365728219, 0.00013381859586047022, 0.00058077536300553151], [1.9888616852216897e-06, 3.9527683780533969e-06, 7.0093927246775167e-06, 4.1815948054637662e-05, 3.811000612833202e-05, 8.5343766854146887e-05, 0.00011506929781906876, 0.00033895772158090947, -0.00093040044930890178, 0.99651319115133075, -0.0013298105733861737, 0.00043177839367549396, 0.00013381859585973185, 0.00058077536301666453], [1.9888616852268595e-06, 3.9527683780484511e-06, 7.0093927248462779e-06, 4.181594805450335e-05, 3.8110006127744138e-05, 8.5343766856532714e-05, 0.00011506929781877381, 0.00033895772158638654, -0.00093040044932148937, 0.99651319115128567, -0.0013298105733658633, 0.00043177839367280964, 0.00013381859585462837, 0.00058077536301228718]], [[-0.095595533787167702, -0.10219425785978906, -0.016318151635050824, -0.03301125484463574, -0.037114952754484953, 0.014496006414192573, 0.0089154981887680212, 0.018679398648912843, 0.0028335130795896233, -0.073871837567882917, 0.73633608676204221, -0.28281777010596765, 0.13000856985212053, 0.18944753369078648], [-3.725004210133781e-06, -1.1269724971484758e-05, 2.2213129853263967e-05, 2.7260707386438003e-05, 3.2134157308005368e-05, 5.2346383543732076e-05, 0.00016483473611927156, 9.2563837640784129e-05, 0.00029811699599284155, -0.0011888976586228986, 0.9958866264833004, -0.0014850538838438979, 0.0006791072530641691, 0.00025315407899762713], [-3.7250042101239431e-06, -1.1269724971489047e-05, 2.2213129853806919e-05, 2.7260707385924996e-05, 3.2134157307701195e-05, 5.234638354219774e-05, 0.00016483473612095332, 9.2563837640055504e-05, 0.00029811699599389539, -0.0011888976586596673, 0.99588662648328818, -0.0014850538838550556, 0.00067910725307573623, 0.00025315407899349226], [-3.725004210071466e-06, -1.1269724971435526e-05, 2.2213129852705681e-05, 2.72607073858935e-05, 3.213415730724518e-05, 5.2346383544531804e-05, 0.00016483473612431804, 9.2563837643185948e-05, 0.0002981169959939972, -0.0011888976586727654, 0.99588662648326798, -0.0014850538838278085, 0.00067910725305589631, 0.00025315407900133202], [-3.7250042100642857e-06, -1.1269724971494756e-05, 2.2213129853510237e-05, 2.7260707386176016e-05, 3.2134157307801247e-05, 5.2346383542716613e-05, 0.00016483473612379025, 9.2563837642517077e-05, 0.00029811699598645972, -0.0011888976586449406, 0.99588662648334803, -0.0014850538838509072, 0.00067910725305530628, 0.00025315407900148115], [-3.7250042100892228e-06, -1.1269724971627298e-05, 2.2213129853133003e-05, 2.7260707387094627e-05, 3.213415730819942e-05, 5.2346383544446396e-05, 0.00016483473612289356, 9.2563837641721598e-05, 0.00029811699599406572, -0.0011888976586369063, 0.99588662648342241, -0.0014850538838438588, 0.00067910725304877483, 0.00025315407900135142]], [[-0.039879707147140113, -0.022140373242301638, -0.0016960496302402767, -0.0073557703747809825, -0.018846047956524198, -0.019933512266614266, 0.07835055653820612, 0.17544148238379481, 0.10413412190641542, 0.0037492182539660677, -0.068125050659240793, 0.82510049030811461, -0.048411974917884876, 0.038194490582048234], [1.8822726092974445e-06, 7.0374674536314397e-06, 6.1581927683376966e-06, 1.3816494978318096e-05, 5.9568103216938966e-05, 0.00012952323936950063, 5.4074364503382187e-05, 7.4886053899989236e-05, 3.5385808266897206e-05, 0.00031356196112371552, -0.001440830791060528, 0.9952214281520364, -0.0016873715863203588, 0.00081802496911567376], [1.8822726093052707e-06, 7.0374674534629818e-06, 6.1581927682586811e-06, 1.3816494978405287e-05, 5.9568103217365579e-05, 0.00012952323936921275, 5.4074364504373995e-05, 7.4886053896565339e-05, 3.5385808266703629e-05, 0.0003135619611295843, -0.001440830791028691, 0.99522142815207426, -0.001687371586287478, 0.00081802496911977834], [1.8822726092799002e-06, 7.0374674536333557e-06, 6.1581927682096896e-06, 1.3816494978401678e-05, 5.9568103217589542e-05, 0.00012952323936834734, 5.4074364503093938e-05, 7.488605389930501e-05, 3.538580826719215e-05, 0.00031356196113291839, -0.0014408307909932292, 0.99522142815209746, -0.0016873715862660602, 0.00081802496912633245], [1.8822726092409993e-06, 7.0374674536985874e-06, 6.1581927682848646e-06, 1.3816494978618742e-05, 5.9568103216883733e-05, 0.00012952323936645733, 5.4074364504431214e-05, 7.4886053899566289e-05, 3.5385808266679912e-05, 0.00031356196112644353, -0.0014408307910577739, 0.99522142815209425, -0.0016873715862663252, 0.00081802496910633434], [1.8822726092445592e-06, 7.0374674535302294e-06, 6.158192768278655e-06, 1.3816494978088652e-05, 5.9568103216817556e-05, 0.00012952323936931155, 5.4074364503144313e-05, 7.4886053898076067e-05, 3.5385808267222833e-05, 0.00031356196113319475, -0.0014408307910343679, 0.99522142815203574, -0.0016873715862458776, 0.00081802496912442284]]], prehc: 10000, lambdahc: 1, rcut: 7.9944393631770359, dcut: 0.9853839756447148, rcut_in: 1.5900000000000014, dcut_in: 0.10000000000000001, inner_cutoff_type: distance}
  [0, 1]: {nradmax: 9, lmax: 4, nradbasemax: 11, radbasename: SBessel, radparameters: [3.9719992996197315], radcoefficients: [[[1.8411553860755399, -1.6924922374503679, 1.0459053476534161, -0.34474132368333998, 0.038590015463270594, 0.10525263659607043, -0.15169984919777993, 0.17316339308020812, -0.10293136605058345, 0.05376978356691399, -0.019010949701222659], [1.9428203516681513, -1.0903991630280443, 0.12863604615979818, 0.21644606113592213, -0.20513449974729656, 0.19670452191946736, -0.30996065523899008, 0.32399419101174276, -0.18291369013508865, 0.097458021318855045, -0.0089053091693232656], [1.4272896026497603, -0.79426918179225559, 0.082950702022798223, 0.17129124686478248, 0.068536168354523669, -0.20545226794462049, 0.18620788740696728, -0.052528103599354434, -0.018363208306155069, 0.03019057222496032, -0.02261759165858352], [1.1787648084694733, -0.53933524974229463, -0.32879698623853415, 0.061776246713370453, 0.35108216829629524, -0.34985636510637774, -0.16973444216433736, 0.68914994867344925, -0.50365908571950202, 0.34849302261637438, -0.14268155851071287], [0.75283690220037114, -0.82345213862527311, -0.99418914981876738, -0.050627704219428624, 0.12611656832142348, -0.17833650445006549, 0.25455202889425038, 0.26948601249284732, -0.19638673276994587, 0.10548866895700956, -0.086093099458692174]], [[0.60312521107996941, 0.4448180019432379, -0.84826009203314146, 0.80563856522206423, -0.46328440459187203, 0.14210900618652184, -0.040181544471971829, 0.039854503321294657, 0.0027171049594281404, 0.020597059807480323, -0.014342103580789037], [-0.95869500698054866, 1.0495216851640572, -0.4889904379707104, -0.26703786571203725, 0.42833202770644435, -0.15094014603902398, -0.14448376401693802, 0.1759813134712444, -0.029708819258723356, -0.0099898949819139573, 0.041331477686079636], [0.012591553745668659, 0.68328330019553851, -1.1301273651723078, 0.83590919905460992, -0.071863611370200697, -0.41505249382114423, 0.68626725044205161, -0.52530283880218931, 0.20946323426153718, -0.078961117051705609, -0.0083775868601661529], [0.15389786260424912, 0.72524578190754296, -1.269306021182625, -0.26928605827601804, 0.51221840717882816, -0.43364414009873181, -0.19711894841692459, 0.66931891203944671, -0.32787390681839756, 0.18676026024735551, -0.024389976339585253], [-0.00011722450352584923, 0.99920826276393582, -0.0002981341824092312, 0.00015340434239700465, 0.00024695970300115853, 0.00035900377166689617, -0.00049194420843670151, -0.00038504866370711225, -0.00068721640717458402, -0.00038735728686791545, 0.00063650825643130613]], [[1.9003655408090638, 0.15334243747333964, 0.0004887178236951177, 0.53195294139204818, 0.23143740242843081, -0.59190103605859412, 0.73665981996612073, -0.39882406907998991, 0.41154523313306118, -0.098979572361971413, 0.015444057134241925], [-0.084806707977461149, -0.36437431321877545, 0.79269357964067588, -0.11404417095497557, 0.070630925514337417, -0.11669495502282616, 0.16018903106560989, 0.046040413463589405, -0.12191668748724163, 0.061282942086196453, -0.046372983746335132], [0.053224012943869879, -1.1315561436906711, 0.68665629003035056, 0.24336649185219067, -0.23877264804910589, 0.19020468449406722, 0.54220974272638311, -0.40016536185174295, -0.084770580274146121, 0.075083359890685777, -0.15197646999769568], [-0.078433036746148502, 0.69889317465232492, 0.80534100972112599, -0.70476942365106632, 0.90987625705126518, -0.33925445733746301, -0.75484970854822697, 0.4245076500582407, -0.41335339754545714, 0.40492699924738845, -0.052404950027873036], [4.5862792963625605e-05, -0.00020586223725400834, 0.99879798675292586, -0.00045747820361963123, 0.00029740456566013318, 0.00023685052938964468, 0.00026086480335856855, 0.00047510553324306892, 0.0010286756838175392, -0.00042090785327629965, -0.00097302321333240886]], [[2.4608659281285821, 0.19032402547991537, -1.1742036657381685, 1.3282829785961621, -0.52256540926785267, -0.19719191438853761, 0.41103819447319229, -0.25566349060586008, 0.22614433606038262, -0.048925604519808194, -0.0039484783680525503], [0.18219368565496039, -0.094966648121437264, 0.29812932181513863, 1.0448196720556093, -0.90111172978794729, 0.34243174903982448, 0.31473182809209888, -0.66326383840157177, 0.40942429909367051, -0.1989744861418993, 0.012908425777992267], [0.16613375401882882, -0.60667660194714723, -0.32394702049361762, 1.0171943072798197, -0.55751264653194799, 0.18628935784353307, 0.49618124819594944, -0.17287711345001169, -0.30568977431559174, 0.22732523465477991, -0.21876003905449112], [8.0069777465780146e-06, 0.00011243824886185564, -0.00031956919269498309, 0.9982872351880957, -0.00064962694304760826, 0.0003761271632788102, 0.00022211416878413604, 0.00033496498068003001, 0.00045210699921952252, 0.00041975225920702381, 0.00080572212982209376], [8.006977746394532e-06, 0.00011243824886542968, -0.00031956919269548865, 0.99828723518816809, -0.00064962694304735228, 0.00037612716327985543, 0.00022211416878050125, 0.00033496498067054882, 0.00045210699920430244, 0.00041975225918079392, 0.00080572212984903596]], [[-0.52227869921589509, -0.063885841218816797, 0.4059410822646774, 0.04678836915940348, 0.59847225148049044, -0.50293139337998005, 0.14601261316592906, 0.73413285961701202, -0.60093850299964058, 0.43494947265181494, -0.14952242183440909], [0.19725061701613827, 0.76262093297915978, 0.68724838241644004, -0.50770085666201048, 0.51043876914356401, 0.18038049124523109, -0.66153286327975136, -0.44225272511003155, 0.32918848009237145, -0.24445382088774373, 0.17322705338490499], [0.25237560710538676, 0.67114530988399479, 0.43619167632915545, 0.20991386650824506, 1.1898534222242212, -0.040705476917143719, 0.041299973338813162, 0.14211648212936337, 0.17428902727743145, 0.44457005282723705, -0.20626920396200188], [1.2565447845032012e-05, 2.8406974487355612e-05, 0.00018750627333453241, -0.00048658185286505726, 0.99767378359247172, -0.00086854364761952858, 0.00046031708085311637, 0.00025770878086218334, 0.0005077058492735972, 0.00045076176145062677, 0.00043090159082666464], [1.2565447844770954e-05, 2.8406974486860369e-05, 0.0001875062733372434, -0.00048658185287142348, 0.99767378359250292, -0.00086854364762930223, 0.0004603170808525489, 0.00025770878086443804, 0.00050770584926494104, 0.00045076176144788146, 0.00043090159084375969]], [[-0.061416185265383776, 0.045760438615330176, 0.82614285187935854, 0.58664585839272876, -0.54783370646851637, 0.66560230980016066, 0.21934414517984896, -0.3897272284893657, 0.29587746814353955, -0.15865397249533641, 0.036359487766540521], [0.1178505206134117, 0.42708114890891835, 0.16157808428758771, -0.091415276244643587, 0.12633516568716407, 0.44538299214250049, -0.38239753723256559, 0.07621893529546464, -0.4572263168365765, -0.13458659500416387, 0.23044326659234554], [1.7141505218216177e-05, 4.6782509549498726e-05, 3.9411416035904497e-05, 0.00025915532582007779, -0.00059928741690025737, 0.99695725270879132, -0.0012903129296502319, 0.00053469215207706245, 0.00030371026982087962, 0.00049706689502898073, 0.00049407147468810599], [1.7141505218168493e-05, 4.6782509550391851e-05, 3.941141603761467e-05, 0.00025915532582307762, -0.00059928741690359964, 0.99695725270877555, -0.0012903129296156174, 0.00053469215208269694, 0.00030371026982060738, 0.00049706689502779255, 0.00049407147469386365], [1.7141505218373661e-05, 4.6782509550589616e-05, 3.9411416035587273e-05, 0.00025915532582452058, -0.00059928741690641748, 0.99695725270883551, -0.001290312929616516, 0.00053469215208933854, 0.00030371026981884669, 0.00049706689501113107, 0.00049407147468459025]], [[0.78826005893023776, 0.28071087714084153, 0.04145797513305071, 0.59895353519559413, -0.15846002352596622, -0.34468004588761031, 1.1315402764110776, -0.33953076433487867, -0.024743094122494782, 0.21252382203848474, -0.32515885091699276], [-0.039979160324441355, -0.76896835435791855, -0.38285617689147278, 0.30211185871636442, -0.31166502385715322, -0.12986079971325171, 0.96048637569711048, -0.16533637136410573, -0.10369937280551203, -0.071945370382282284, 0.0021703735592061547], [1.0607335076127198e-05, 9.7862956293205274e-06, 5.56132228041126e-05, 7.1190925542030022e-05, 0.00036263575113070683, -0.00092643944725986926, 0.99612965713900681, -0.0014151360037263092, 0.00070376571959353262, 0.00042895626637506749, 0.00081270985954666301], [1.0607335076153327e-05, 9.7862956296262097e-06, 5.5613222804443865e-05, 7.1190925543493803e-05, 0.00036263575112204573, -0.00092643944723784586, 0.99612965713895363, -0.0014151360036717797, 0.00070376571959068291, 0.0004289562663766083, 0.0008127098595379804], [1.060733507627074e-05, 9.7862956296268365e-06, 5.5613222805052671e-05, 7.1190925542010574e-05, 0.00036263575112893616, -0.00092643944725486903, 0.99612965713903001, -0.0014151360037142026, 0.00070376571959230303, 0.00042895626637499604, 0.00081270985952989431]], [[-0.28106398712658986, 0.19385206436569516, 0.27727533773975194, -0.27920948250046562, 0.21891777216741967, -0.031641618773228887, -0.34713450434304965, 0.97028457306508709, -0.81968085832088766, 0.5895134140620828, -0.36042220320509855], [2.1589001454117404e-06, 2.573073995505133e-05, 2.5164409277045453e-05, 0.00011601580577315285, 0.00014956270688588444, 0.0004866392436575378, -0.0011802109619484162, 0.99520290947735768, -0.0018244495097458297, 0.00065300378972551608, 0.00018708250664921483], [2.15890014541254e-06, 2.5730739955009896e-05, 2.516440927774207e-05, 0.0001160158057709252, 0.00014956270688380762, 0.00048663924366043501, -0.0011802109619021217, 0.99520290947719936, -0.0018244495097666969, 0.00065300378975155613, 0.00018708250665109785], [2.1589001452925226e-06, 2.5730739954458261e-05, 2.5164409277530119e-05, 0.0001160158057720999, 0.00014956270688189579, 0.00048663924365459609, -0.0011802109619221653, 0.99520290947726919, -0.0018244495098091321, 0.00065300378973992296, 0.00018708250664433863], [2.1589001453752565e-06, 2.5730739955236681e-05, 2.5164409276936698e-05, 0.00011601580577107929, 0.000149562706880136, 0.00048663924365293011, -0.0011802109619559525, 0.99520290947729251, -0.001824449509771247, 0.00065300378973747505, 0.00018708250664408648]], [[-0.025649512857969282, -0.14591615073126951, -0.34264916988220379, 0.31180843083150428, 0.80716974528461716, 0.064072399404010827, -0.31711006498489464, -0.055037116340679239, 0.94489002798137978, 0.012189443955882092, -0.04556812328692509], [4.4813309153645488e-06, 1.1588378088864406e-05, 4.5712036014521001e-05, 7.2549953157290562e-05, 0.00023010947404824189, 0.00018228088098083467, 0.00046774404114904036, -0.0016047327341473421, 0.99416961842725671, -0.0020582099572650009, 0.0010398055716666725], [4.4813309154991161e-06, 1.1588378088471816e-05, 4.5712036014761593e-05, 7.2549953155906686e-05, 0.00023010947404977406, 0.00018228088097487112, 0.00046774404115877059, -0.001604732734174669, 0.99416961842737428, -0.0020582099572363276, 0.0010398055716522075], [4.4813309154786492e-06, 1.1588378088678631e-05, 4.5712036015171048e-05, 7.2549953158959718e-05, 0.0002301094740521058, 0.00018228088097922826, 0.00046774404116010037, -0.0016047327341446693, 0.99416961842716001, -0.0020582099572354498, 0.0010398055716894976], [4.4813309152652401e-06, 1.158837808866314e-05, 4.5712036016410868e-05, 7.2549953158841744e-05, 0.00023010947405079107, 0.00018228088097819821, 0.00046774404115739262, -0.0016047327340974677, 0.99416961842719986, -0.0020582099572774341, 0.0010398055716687588]]], prehc: 10000, lambdahc: 1, rcut: 7.9944393631770359, dcut: 0.9853839756447148, rcut_in: 1.5900000000000014, dcut_in: 0.10000000000000001, inner_cutoff_type: distance}
  [1, 0]: {nradmax: 9, lmax: 4, nradbasemax: 11, radbasename: SBessel, radparameters: [3.9719992996197315], radcoefficients: [[[1.8411553860755399, -1.6924922374503679, 1.0459053476534161, -0.34474132368333998, 0.038590015463270594, 0.10525263659607043, -0.15169984919777993, 0.17316339308020812, -0.10293136605058345, 0.05376978356691399, -0.019010949701222659], [1.9428203516681513, -1.0903991630280443, 0.12863604615979818, 0.21644606113592213, -0.20513449974729656, 0.19670452191946736, -0.30996065523899008, 0.32399419101174276, -0.18291369013508865, 0.097458021318855045, -0.0089053091693232656], [1.4272896026497603, -0.79426918179225559, 0.082950702022798223, 0.17129124686478248, 0.068536168354523669, -0.20545226794462049, 0.18620788740696728, -0.052528103599354434, -0.018363208306155069, 0.03019057222496032, -0.02261759165858352], [1.1787648084694733, -0.53933524974229463, -0.32879698623853415, 0.061776246713370453, 0.35108216829629524, -0.34985636510637774, -0.16973444216433736, 0.68914994867344925, -0.50365908571950202, 0.34849302261637438, -0.14268155851071287], [0.75283690220037114, -0.82345213862527311, -0.99418914981876738, -0.050627704219428624, 0.12611656832142348, -0.17833650445006549, 0.25455202889425038, 0.26948601249284732, -0.19638673276994587, 0.10548866895700956, -0.086093099458692174]], [[0.60312521107996941, 0.4448180019432379, -0.84826009203314146, 0.80563856522206423, -0.46328440459187203, 0.14210900618652184, -0.040181544471971829, 0.039854503321294657, 0.0027171049594281404, 0.020597059807480323, -0.014342103580789037], [-0.95869500698054866, 1.0495216851640572, -0.4889904379707104, -0.26703786571203725, 0.42833202770644435, -0.15094014603902398, -0.14448376401693802, 0.1759813134712444, -0.029708819258723356, -0.0099898949819139573, 0.041331477686079636], [0.012591553745668659, 0.68328330019553851, -1.1301273651723078, 0.83590919905460992, -0.071863611370200697, -0.41505249382114423, 0.68626725044205161, -0.52530283880218931, 0.20946323426153718, -0.078961117051705609, -0.0083775868601661529], [0.15389786260424912, 0.72524578190754296, -1.269306021182625, -0.26928605827601804, 0.51221840717882816, -0.43364414009873181, -0.19711894841692459, 0.66931891203944671, -0.32787390681839756, 0.18676026024735551, -0.024389976339585253], [-0.00011722450352584923, 0.99920826276393582, -0.0002981341824092312, 0.00015340434239700465, 0.00024695970300115853, 0.00035900377166689617, -0.00049194420843670151, -0.00038504866370711225, -0.00068721640717458402, -0.00038735728686791545, 0.00063650825643130613]], [[1.9003655408090638, 0.15334243747333964, 0.0004887178236951177, 0.53195294139204818, 0.23143740242843081, -0.59190103605859412, 0.73665981996612073, -0.39882406907998991, 0.41154523313306118, -0.098979572361971413, 0.015444057134241925], [-0.084806707977461149, -0.36437431321877545, 0.79269357964067588, -0.11404417095497557, 0.070630925514337417, -0.11669495502282616, 0.16018903106560989, 0.046040413463589405, -0.12191668748724163, 0.061282942086196453, -0.046372983746335132], [0.053224012943869879, -1.1315561436906711, 0.68665629003035056, 0.24336649185219067, -0.23877264804910589, 0.19020468449406722, 0.54220974272638311, -0.40016536185174295, -0.084770580274146121, 0.075083359890685777, -0.15197646999769568], [-0.078433036746148502, 0.69889317465232492, 0.80534100972112599, -0.70476942365106632, 0.90987625705126518, -0.33925445733746301, -0.75484970854822697, 0.4245076500582407, -0.41335339754545714, 0.40492699924738845, -0.052404950027873036], [4.5862792963625605e-05, -0.00020586223725400834, 0.99879798675292586, -0.00045747820361963123, 0.00029740456566013318, 0.00023685052938964468, 0.00026086480335856855, 0.00047510553324306892, 0.0010286756838175392, -0.00042090785327629965, -0.00097302321333240886]], [[2.4608659281285821, 0.19032402547991537, -1.1742036657381685, 1.3282829785961621, -0.52256540926785267, -0.19719191438853761, 0.41103819447319229, -0.25566349060586008, 0.22614433606038262, -0.048925604519808194, -0.0039484783680525503], [0.18219368565496039, -0.094966648121437264, 0.29812932181513863, 1.0448196720556093, -0.90111172978794729, 0.34243174903982448, 0.31473182809209888, -0.66326383840157177, 0.40942429909367051, -0.1989744861418993, 0.012908425777992267], [0.16613375401882882, -0.60667660194714723, -0.32394702049361762, 1.0171943072798197, -0.55751264653194799, 0.18628935784353307, 0.49618124819594944, -0.17287711345001169, -0.30568977431559174, 0.22732523465477991, -0.21876003905449112], [8.0069777465780146e-06, 0.00011243824886185564, -0.00031956919269498309, 0.9982872351880957, -0.00064962694304760826, 0.0003761271632788102, 0.00022211416878413604, 0.00033496498068003001, 0.00045210699921952252, 0.00041975225920702381, 0.00080572212982209376], [8.006977746394532e-06, 0.00011243824886542968, -0.00031956919269548865, 0.99828723518816809, -0.00064962694304735228, 0.00037612716327985543, 0.00022211416878050125, 0.00033496498067054882, 0.00045210699920430244, 0.00041975225918079392, 0.00080572212984903596]], [[-0.52227869921589509, -0.063885841218816797, 0.4059410822646774, 0.04678836915940348, 0.59847225148049044, -0.50293139337998005, 0.14601261316592906, 0.73413285961701202, -0.60093850299964058, 0.43494947265181494, -0.14952242183440909], [0.19725061701613827, 0.76262093297915978, 0.68724838241644004, -0.50770085666201048, 0.51043876914356401, 0.18038049124523109, -0.66153286327975136, -0.44225272511003155, 0.32918848009237145, -0.24445382088774373, 0.17322705338490499], [0.25237560710538676, 0.67114530988399479, 0.43619167632915545, 0.20991386650824506, 1.1898534222242212, -0.040705476917143719, 0.041299973338813162, 0.14211648212936337, 0.17428902727743145, 0.44457005282723705, -0.20626920396200188], [1.2565447845032012e-05, 2.8406974487355612e-05, 0.00018750627333453241, -0.00048658185286505726, 0.99767378359247172, -0.00086854364761952858, 0.00046031708085311637, 0.00025770878086218334, 0.0005077058492735972, 0.00045076176145062677, 0.00043090159082666464], [1.2565447844770954e-05, 2.8406974486860369e-05, 0.0001875062733372434, -0.00048658185287142348, 0.99767378359250292, -0.00086854364762930223, 0.0004603170808525489, 0.00025770878086443804, 0.00050770584926494104, 0.00045076176144788146, 0.00043090159084375969]], [[-0.061416185265383776, 0.045760438615330176, 0.82614285187935854, 0.58664585839272876, -0.54783370646851637, 0.66560230980016066, 0.21934414517984896, -0.3897272284893657, 0.29587746814353955, -0.15865397249533641, 0.036359487766540521], [0.1178505206134117, 0.42708114890891835, 0.16157808428758771, -0.091415276244643587, 0.12633516568716407, 0.44538299214250049, -0.38239753723256559, 0.07621893529546464, -0.4572263168365765, -0.13458659500416387, 0.23044326659234554], [1.7141505218216177e-05, 4.6782509549498726e-05, 3.9411416035904497e-05, 0.00025915532582007779, -0.00059928741690025737, 0.99695725270879132, -0.0012903129296502319, 0.00053469215207706245, 0.00030371026982087962, 0.00049706689502898073, 0.00049407147468810599], [1.7141505218168493e-05, 4.6782509550391851e-05, 3.941141603761467e-05, 0.00025915532582307762, -0.00059928741690359964, 0.99695725270877555, -0.0012903129296156174, 0.00053469215208269694, 0.00030371026982060738, 0.00049706689502779255, 0.00049407147469386365], [1.7141505218373661e-05, 4.6782509550589616e-05, 3.9411416035587273e-05, 0.00025915532582452058, -0.00059928741690641748, 0.99695725270883551, -0.001290312929616516, 0.00053469215208933854, 0.00030371026981884669, 0.00049706689501113107, 0.00049407147468459025]], [[0.78826005893023776, 0.28071087714084153, 0.04145797513305071, 0.59895353519559413, -0.15846002352596622, -0.34468004588761031, 1.1315402764110776, -0.33953076433487867, -0.024743094122494782, 0.21252382203848474, -0.32515885091699276], [-0.039979160324441355, -0.76896835435791855, -0.38285617689147278, 0.30211185871636442, -0.31166502385715322, -0.12986079971325171, 0.96048637569711048, -0.16533637136410573, -0.10369937280551203, -0.071945370382282284, 0.0021703735592061547], [1.0607335076127198e-05, 9.7862956293205274e-06, 5.56132228041126e-05, 7.1190925542030022e-05, 0.00036263575113070683, -0.00092643944725986926, 0.99612965713900681, -0.0014151360037263092, 0.00070376571959353262, 0.00042895626637506749, 0.00081270985954666301], [1.0607335076153327e-05, 9.7862956296262097e-06, 5.5613222804443865e-05, 7.1190925543493803e-05, 0.00036263575112204573, -0.00092643944723784586, 0.99612965713895363, -0.0014151360036717797, 0.00070376571959068291, 0.0004289562663766083, 0.0008127098595379804], [1.060733507627074e-05, 9.7862956296268365e-06, 5.5613222805052671e-05, 7.1190925542010574e-05, 0.00036263575112893616, -0.00092643944725486903, 0.99612965713903001, -0.0014151360037142026, 0.00070376571959230303, 0.00042895626637499604, 0.00081270985952989431]], [[-0.28106398712658986, 0.19385206436569516, 0.27727533773975194, -0.27920948250046562, 0.21891777216741967, -0.031641618773228887, -0.34713450434304965, 0.97028457306508709, -0.81968085832088766, 0.5895134140620828, -0.36042220320509855], [2.1589001454117404e-06, 2.573073995505133e-05, 2.5164409277045453e-05, 0.00011601580577315285, 0.00014956270688588444, 0.0004866392436575378, -0.0011802109619484162, 0.99520290947735768, -0.0018244495097458297, 0.00065300378972551608, 0.00018708250664921483], [2.15890014541254e-06, 2.5730739955009896e-05, 2.516440927774207e-05, 0.0001160158057709252, 0.00014956270688380762, 0.00048663924366043501, -0.0011802109619021217, 0.99520290947719936, -0.0018244495097666969, 0.00065300378975155613, 0.00018708250665109785], [2.1589001452925226e-06, 2.5730739954458261e-05, 2.5164409277530119e-05, 0.0001160158057720999, 0.00014956270688189579, 0.00048663924365459609, -0.0011802109619221653, 0.99520290947726919, -0.0018244495098091321, 0.00065300378973992296, 0.00018708250664433863], [2.1589001453752565e-06, 2.5730739955236681e-05, 2.5164409276936698e-05, 0.00011601580577107929, 0.000149562706880136, 0.00048663924365293011, -0.0011802109619559525, 0.99520290947729251, -0.001824449509771247, 0.00065300378973747505, 0.00018708250664408648]], [[-0.025649512857969282, -0.14591615073126951, -0.34264916988220379, 0.31180843083150428, 0.80716974528461716, 0.064072399404010827, -0.31711006498489464, -0.055037116340679239, 0.94489002798137978, 0.012189443955882092, -0.04556812328692509], [4.4813309153645488e-06, 1.1588378088864406e-05, 4.5712036014521001e-05, 7.2549953157290562e-05, 0.00023010947404824189, 0.00018228088098083467, 0.00046774404114904036, -0.0016047327341473421, 0.99416961842725671, -0.0020582099572650009, 0.0010398055716666725], [4.4813309154991161e-06, 1.1588378088471816e-05, 4.5712036014761593e-05, 7.2549953155906686e-05, 0.00023010947404977406, 0.00018228088097487112, 0.00046774404115877059, -0.001604732734174669, 0.99416961842737428, -0.0020582099572363276, 0.0010398055716522075], [4.4813309154786492e-06, 1.1588378088678631e-05, 4.5712036015171048e-05, 7.2549953158959718e-05, 0.0002301094740521058, 0.00018228088097922826, 0.00046774404116010037, -0.0016047327341446693, 0.99416961842716001, -0.0020582099572354498, 0.0010398055716894976], [4.4813309152652401e-06, 1.158837808866314e-05, 4.5712036016410868e-05, 7.2549953158841744e-05, 0.00023010947405079107, 0.00018228088097819821, 0.00046774404115739262, -0.0016047327340974677, 0.99416961842719986, -0.0020582099572774341, 0.0010398055716687588]]], prehc: 10000, lambdahc: 1, rcut: 7.9944393631770359, dcut: 0.9853839756447148, rcut_in: 1.5900000000000014, dcut_in: 0.10000000000000001, inner_cutoff_type: distance}
  [1, 1]: {nradmax: 12, lmax: 5, nradbasemax: 14, radbasename: SBessel, radparameters: [3.9719992996197315], radcoefficients: [[[0.90700487117475181, -0.48633994793343377, 0.26581826387829238, 0.00065045424059507096, -0.16766274435896772, 0.12401884579225203, -0.086477691559979974, 0.13023493793038923, -0.10489745879873362, 0.061205275058665985, -0.013248300281558018, -0.0038069792451415744, 0.004195463377785898, -0.0035522405810644833], [1.4118514579965136, -0.9839961576027636, 0.13785264103387712, 0.31760480938084901, -0.36321321426915437, 0.1995538537525457, -0.12810612358774329, 0.16890628265804022, -0.16560665226068802, 0.16316933066371955, -0.11959564585277319, 0.070784018714056471, -0.04281304234576562, 0.012194172263074822], [0.98625386577185037, -0.83838474865445134, 0.4515674993250921, 0.01686482884916965, -0.14979200435848045, 0.19193665070876065, -0.36556125334822454, 0.45377294473987051, -0.42459278099123299, 0.34029315100998325, -0.20409168344333745, 0.085959655862407808, -0.033330479631434366, -0.0015064213664632469], [1.5948281691909927, -0.52610990147961711, -0.44721755670294949, 0.23833491991093164, 0.25173837294289791, -0.2351914309272308, -0.022649737089482362, 0.52375058830321763, -0.54252540748875322, 0.36061359973768325, -0.24081110496370522, 0.03099640729611924, -0.039772167926937399, 0.046127135259718906], [0.71819098755379063, -0.77182943975859741, -0.64265231671999601, -0.23148200404602459, 0.1638300336325007, 0.28628629323964522, 0.54515757314451385, 0.45745738866435126, -0.18543633036824497, 0.079575140481287235, -0.13540397524657682, 0.0027543044812907928, -0.031769270154355017, 0.059523400154496392], [1.2138550074051131, -0.40464016193316776, -0.26905387654163759, 0.29612943091624183, 0.057976183754603054, 0.081985643765573768, 0.15342216520328494, -0.064714988281413935, -0.035565111636926876, -0.06221477454483313, -0.091632764981544754, 0.070187533245307188, -0.048628370543045557, 0.012491547628947721]], [[-0.51253506211417221, 0.7770288217514163, -0.081222975646543821, -0.17047112445872628, 0.04444520438962251, 0.014232262279086548, -0.094490396767070675, 0.1681834832214216, -0.16396550904013227, 0.10830250929405896, -0.030714239280970369, 0.0036602395742287943, 0.012667317229308458, -0.0087428096453893763], [-1.1159879332315714, 0.92286139240561105, -0.38402772023062204, -0.025905164212946946, 0.13234443187660075, -0.25443473251807203, 0.38467050177883089, -0.36238403871715552, 0.22594066202291441, -0.22531051219783665, 0.13265832315530027, -0.12020817416288315, 0.078113712214994718, -0.026280229268158824], [-0.63615002444834101, 0.7380613352348957, -0.47913786191418267, 0.35264369247915728, -0.056040530607513156, -0.21533042962331567, 0.49409437097590381, -0.5864616714251506, 0.31385944282066969, -0.19117516041072413, 0.056480338716194615, -0.016551521379736145, 0.014051718589654661, -0.00070228784306324617], [0.18459938230289208, 0.62555023481291006, -0.57944262742119557, 0.45933400299711985, 0.10412593422125939, -0.13892852859522523, -0.00043362770939395342, -0.30455208016893343, 0.24155113176494916, -0.31212778244148609, 0.31016054066717386, -0.24796294456921128, 0.12651233095242248, -0.034551612020066194], [0.62779429001887554, 0.9348637116113937, -0.49105659600436763, 0.51327545428694099, 0.13920406326802906, -0.30961745945567481, 0.03891763276761466, -0.53709462554469889, -0.11896538796328145, 0.13744734587248403, -0.25868461121862707, 0.33669126404164262, -0.14795413091851667, -0.036428536039123056], [-0.33716654824742986, 1.0340864343921934, 0.41996779648659721, 0.6015932490703102, 0.70668621111528707, 0.089592839352348241, -0.32679128530898643, -0.10885964914866066, -0.16233265154956747, -0.18528511555338795, -0.044928648189537533, 0.088435540183386244, 0.051574848100332485, -0.073428551828074798]], [[0.70921003344297562, -0.14334845532856108, 0.43715549507241053, -0.1704184806362527, -0.033910636051062169, -0.069083800075503854, -0.0095886327701014285, 0.089689772777141408, -0.1750305851850569, 0.12218624747961279, 0.0074763474659266648, -0.043619975945558824, 0.066733726582157413, -0.025021596037969059], [-0.61580898854626354, -0.26716376758273253, 0.92473425465275505, -0.49365523355215746, 0.052329101513058827, 0.10589197634475792, -0.041717469767360418, -0.036714658230571427, -0.2528241256193825, 0.20037012734828705, -0.24596802396375927, 0.098892772015917271, -0.014853871907444392, -0.0046016589031511543], [-0.46109340548667715, -0.45706768454043117, 1.1184843596646616, -0.44622055726160181, -0.20733954814662478, 0.38561164415504873, 0.16140081562670963, 0.26649069703742201, -0.30181014605627438, 0.071635786867032702, -0.038363192082358423, -0.32351244266260587, 0.18796304018244439, -0.094017321587508557], [-0.63532217478579445, -0.043677541343819466, 0.90982992282228636, -0.73461292231899089, 0.31636004718565763, -0.08862826701848775, -0.74198576406475081, 0.40304318318531301, -0.064683309207985207, 0.065032927662233272, 0.29942426905322295, -0.13763104329566314, 0.15605928090335142, -0.10639964341275553], [-0.44843368346103774, 0.091021259381335776, 1.1549213955652888, -0.19870377712060491, 0.49039499989632312, -0.094822610867027327, -0.72562062671479599, 0.2144863544847814, -0.090074935956198601, -0.14048635495261869, 0.27260900917779907, -0.23498122519247328, 0.046568861357860147, -0.068066371041537968], [2.2931396481901226e-05, -0.00010293111862653457, 0.99939899337646132, -0.00022873910181421707, 0.00014870228282996909, 0.0001184252646963778, 0.00013043240167864186, 0.00023755276662290576, 0.00051433784191992366, -0.00021045392664039537, -0.00048651160667507836, -0.00055145896827869128, -0.0001610586743378707, -0.00020233919658550021]], [[0.96804557234723387, -0.35683998732637584, -0.47170814881366746, 1.0074500078355817, -0.70353324578957965, 0.022586187600886203, 0.1970584665993623, -0.065312484158920034, 0.20631757718191571, -0.19547714806607741, 0.13066799325885081, -0.19670905961872992, 0.038825387682167777, -0.025265312402937834], [0.058620329618319963, -0.19721034172414173, -0.068461570153622364, 0.98207557139705737, -0.33432020318261563, -0.077167280812923317, 0.0029655625522943862, 0.067432656455794701, 0.13352191400425559, -0.1300052463733426, 0.23406605489063359, -0.24252910348505061, 0.022376737515579781, -0.018907851532490232], [0.73183581006213627, -0.020349338648761869, -0.53579609753117274, 1.1155825893936593, -0.3015812847152432, -0.13006844356444919, 0.58285679015029246, -0.20234715795018313, -0.17404604521724137, 0.29259725105806661, -0.24845463726681263, 0.028269935051552512, 0.013639440621721524, -0.049622528805599649], [0.062906337393052875, -0.25634152099342838, 0.19599808544188652, 1.2989210634296524, -0.7370107228135766, -0.026119209562973061, 0.74609315738632731, -0.15375038254571471, 0.18399892481545851, 0.36292508914201316, -0.30662922008125537, 0.13150556165375957, 0.065339392935278601, 0.034960789068882392], [0.081336051303906101, -0.090576221789731584, -0.071884543320393735, 1.1263635740824267, -0.091148049241458917, -0.19080920896785855, -0.17903975751147919, -0.17868933573919119, 0.14199060944645342, 0.047312176523179948, -0.047156599111727884, -0.017879162986548468, -0.14126491492554627, -0.063723534053956934], [4.0034888732598253e-06, 5.6219124432305095e-05, -0.00015978459635218636, 0.99914361759406589, -0.00032481347152902272, 0.00018806358164123626, 0.00011105708439072491, 0.0001674824903356097, 0.00022605349961246201, 0.00020987612959616925, 0.00040286106492372039, 0.00096883449370621395, -0.00011374380035853041, -0.00075366931382189967]], [[1.0350330186662582, 0.46138425518574794, -0.61466624085511401, -0.14209783648031538, 0.82468566235040308, -0.54395739334880688, 0.14145809825490266, -0.12344986935499888, -0.24643360704391601, 0.3903434175058223, -0.26682184430078582, 0.3749259640063311, -0.12288251437672348, 0.079663789362817108], [0.29834277276176857, 0.23420152317315163, -0.23356149114197217, -0.37572199685430252, 0.5433834813633035, -0.27042817070785202, -0.041882510288749702, -0.040258760940816415, 0.19661825800777902, -0.30177020266710963, 0.33345205348279927, -0.15175538778929332, 0.097107444755107158, -0.021780599075714255], [0.33973128237633593, 0.35828113698790565, -0.049244448593531755, -0.26699126053380406, 0.94000078677863741, -0.02172337208873968, -0.46954522874166904, -0.18104121068633894, 0.13456507536287718, -0.18665620896871554, 0.32693153756230753, 0.090589836087684714, 0.0013314178573731726, -0.035345186323026849], [0.21553844937266103, 0.28143422040147098, -0.012530468206530849, 0.08270754621985292, 1.2039590452798523, -0.19827641245387029, -0.10891007544118979, 0.39255850060399172, 0.055669729957991652, -0.38311349189092081, 0.21302141529700752, -0.097466254880510361, -0.059775024101211341, 0.11961307240224177], [6.2827239226411397e-06, 1.4203487243294712e-05, 9.3753136668601154e-05, -0.00024329092644020413, 0.99883689179625001, -0.00043427182382284205, 0.00023015854042876782, 0.00012885439043395884, 0.00025385292463654051, 0.00022538088072665032, 0.00021545079542130793, 0.00027155166132587566, 0.00030645925118632014, 0.00061513995073515879], [6.2827239224139164e-06, 1.4203487243771283e-05, 9.3753136668733739e-05, -0.00024329092643358529, 0.99883689179624491, -0.00043427182380179297, 0.00023015854042551855, 0.00012885439043234501, 0.0002538529246389418, 0.00022538088072167814, 0.00021545079542254213, 0.00027155166132871236, 0.00030645925118631819, 0.00061513995074273531]], [[0.50598856848056151, -0.32208136638944773, -0.16531045207466594, 0.27667758982288376, -0.33103476895039952, 0.61946069783917235, -0.4262034882078346, -0.1489919810798308, 0.18573406799070927, -0.15998923449094893, 0.14461791756248363, 0.075040355150972932, 0.01249100576159912, 0.02070109386150322], [0.39118326986074514, 0.6135284940227661, 0.36785845222475833, -0.31010590564533314, -0.56434259150351029, 0.70043317574751696, -0.098473269230524393, -0.43163060064093373, -0.66477463429774986, 0.055490727573804924, -0.10008834385494855, 0.072991505317696423, 0.26466899167076408, -0.035639649751707525], [0.067586486484110489, 0.26422838989167624, 0.13391375476125789, -0.075365371969675091, 0.34964816675189792, 1.1033367571118844, 0.038397983046275085, 0.17287611830070224, -0.57214803368530176, 0.074271352403736973, 0.084037585899618794, -0.36652936663549535, 0.30613035648267856, -0.13041806531284689], [-0.34394424387987838, -0.10674902800342109, 0.41964655928034367, 0.18441631236564382, -0.19106852769228561, 0.96583922772210518, 0.20017653683186115, 0.18217938390230032, -0.2195795400729158, -0.5715908469898211, -0.25165742309561479, 0.26838728487841951, -0.21517104854541225, 0.1109713851992752], [8.5707526091404606e-06, 2.3391254775773795e-05, 1.970570801848921e-05, 0.00012957766291218144, -0.00029964370845296154, 0.99847862635439122, -0.00064515646480740559, 0.00026734607603356081, 0.00015185513490886932, 0.00024853344752316951, 0.0002470357373457701, 0.00026664504638849827, 0.0003821988249849864, 0.00035479326470750646], [8.570752609108602e-06, 2.3391254775121752e-05, 1.9705708017860454e-05, 0.00012957766291296589, -0.00029964370845299781, 0.99847862635440465, -0.00064515646482665647, 0.00026734607604023803, 0.00015185513490775297, 0.00024853344751196948, 0.00024703573734433646, 0.0002666450463867893, 0.00038219882497615438, 0.00035479326470644188]], [[-0.10688716327455465, -0.42947564161255536, -0.30064214806638512, 0.18480076501978693, 0.20041059297543873, -0.08107622542901062, 0.47799321027539859, -0.55798808523391741, 0.093803217322780963, 0.10433657213913533, -0.21346825951824488, 0.26716403191275229, -0.065833492360233906, 0.034467996391922898], [-0.263037347220552, -0.35042826582898107, -0.11516364505414069, 0.056865842953805298, -0.2920997686380879, -0.25219704777679031, 1.0964362430843122, 0.23730053377817378, 0.11601603698663315, -0.39779178813160343, 0.037723132536973708, -0.20302378171034832, 0.0393634714154312, 0.12660613464845305], [-0.073742934199532068, -0.19518684384738944, -0.24162776039066095, -0.080942323754079754, -0.16046474259548893, -0.011317752051744654, 1.0705650244883698, -0.31048963415055136, -0.24820446969087973, -0.11857882803243465, -0.098129017843195818, -0.31968813157757181, 0.19304274436689339, -0.0094920644957632219], [5.3036675381849025e-06, 4.8931478148329466e-06, 2.7806611401889492e-05, 3.5595462771136672e-05, 0.00018131787556478377, -0.00046321972362825249, 0.99806482856955003, -0.00070756800185248485, 0.00035188285979373499, 0.00021447813318979355, 0.00040635492976929134, 0.0003347079557046754, 0.00037284099533731267, 0.00039286562292210517], [5.3036675381066841e-06, 4.8931478148557115e-06, 2.7806611402103917e-05, 3.5595462771796931e-05, 0.0001813178755603396, -0.00046321972362341153, 0.9980648285695386, -0.00070756800185884901, 0.00035188285979707634, 0.00021447813318999803, 0.00040635492976601406, 0.00033470795571392662, 0.00037284099533598858, 0.00039286562291810452], [5.3036675380593079e-06, 4.8931478146621255e-06, 2.780661140248928e-05, 3.5595462771128005e-05, 0.0001813178755597073, -0.00046321972362482771, 0.99806482856947576, -0.00070756800184044826, 0.00035188285979961668, 0.00021447813319429025, 0.00040635492977969344, 0.00033470795571427812, 0.00037284099533366031, 0.00039286562291299858]], [[0.47302980230592723, 0.23059504965767233, -0.17271718051105747, 0.12266375631745013, 0.37241929992642697, 0.068638574387151152, -0.2037171962175669, 0.7675341299539431, -0.17178109844445028, 0.039459471197538794, 0.038208225409521533, -0.12812764612207231, -0.14432500594466571, 0.021302439325771975], [-0.004735579249833575, -0.039998351844024269, -0.15744950780235914, -0.2867540608244396, -0.13208448764440711, -0.1066358380871074, 0.12552311712395278, 1.224913610806613, -0.41005038036515473, -0.12646025733239011, 0.15736634376209607, -0.25401321448062192, 0.0075402802221609302, 0.096058540513937488], [0.11368748825516191, 0.12762750963629133, 0.11867063475675518, -0.049833607852692294, -0.15230453261585106, 0.042714262474665615, 0.094158529407241481, 0.98116632469086296, -0.19182527288295678, -0.37927384439153755, -0.1031591337816595, 0.29941203198915667, -0.075560840699701023, -0.19799517800748637], [1.0197649086196581e-06, 1.2947093517102133e-05, 1.2969601068441239e-05, 5.6346956023244448e-05, 7.8217227770953723e-05, 0.00023870098977332805, -0.00058634549216134797, 0.99760145187281457, -0.00091819482850821863, 0.00033816938507136052, 7.9916220538238765e-05, 0.00031168929168383082, 0.00018643311123085955, 0.00012628900386319264], [1.0197649085816846e-06, 1.29470935171231e-05, 1.2969601068415163e-05, 5.6346956023777259e-05, 7.8217227769910734e-05, 0.00023870098977954937, -0.0005863454921772054, 0.99760145187283711, -0.00091819482849809576, 0.0003381693850666134, 7.9916220536235051e-05, 0.00031168929168984077, 0.0001864331112242174, 0.00012628900386163367], [1.019764908570235e-06, 1.294709351725313e-05, 1.2969601068619511e-05, 5.6346956024382718e-05, 7.821722777175339e-05, 0.00023870098977630793, -0.00058634549216125343, 0.9976014518728048, -0.00091819482848682428, 0.00033816938507224729, 7.9916220537700649e-05, 0.00031168929168917355, 0.0001864331112317319, 0.0001262890038641025]], [[0.10482057103708665, 0.076541445596010907, 0.099350917529709842, 0.18784842153457834, 0.14834746992343689, 0.16971945032595151, 0.078257428752802505, -0.28575411888742691, 0.68023118185915588, 0.036945589937827303, 0.26211525939116675, 0.14016070941242731, -0.2392057723364531, -0.016908374836616936], [-0.19019170189592841, -0.1426996647383155, 0.06600119600652013, 0.012186317423945849, -0.18320017354636933, -0.14171579172422272, 0.070918852828832951, 0.035102910776456893, 0.89666848481597072, 0.16703310310045152, 0.31375996777023035, -0.14739586117355305, -0.38112243469349177, -0.16032037197504959], [2.2406654575849529e-06, 5.7941890443666374e-06, 2.2856018007254019e-05, 3.6274976578546808e-05, 0.00011505473702659576, 9.1140440489984398e-05, 0.00023387202057278112, -0.00080236636706024439, 0.99708480921365361, -0.0010291049786429532, 0.00051990278584408982, 0.00012097484565024175, 0.00015738934992408111, 0.00013925004098647991], [2.2406654577032732e-06, 5.7941890443686423e-06, 2.2856018007400031e-05, 3.6274976577582499e-05, 0.00011505473702570976, 9.1140440487008832e-05, 0.00023387202057715284, -0.00080236636706700558, 0.99708480921355103, -0.0010291049786186857, 0.00051990278584435664, 0.00012097484565107512, 0.00015738934992267812, 0.00013925004099154251], [2.2406654576728787e-06, 5.7941890444782899e-06, 2.2856018007933184e-05, 3.6274976579355352e-05, 0.00011505473702358828, 9.1140440489712615e-05, 0.00023387202057985608, -0.00080236636706068544, 0.99708480921363707, -0.0010291049786317959, 0.00051990278583597565, 0.00012097484565015179, 0.0001573893499171904, 0.00013925004098658072], [2.2406654577067968e-06, 5.7941890441696785e-06, 2.285601800781548e-05, 3.627497657913633e-05, 0.00011505473702342317, 9.1140440489822065e-05, 0.00023387202057968947, -0.00080236636704329647, 0.99708480921359344, -0.0010291049786321236, 0.00051990278582344737, 0.0001209748456496153, 0.00015738934992195881, 0.00013925004098900188]], [[0.012597136332341561, 0.17733490889727602, 0.25768250983592667, 0.066923482334320675, 0.0069323752771572496, 0.16158397950759876, 0.0094864332042999717, -0.16257428755148592, 0.022766995377141469, 0.90979480359663045, -0.15083640393912606, 0.30504545097044927, -0.20004065374836133, -0.051368238055137135], [-0.021249673158108891, 0.023756364197278983, 0.066190191073561805, 0.23942961545048252, 0.29565681261241489, 0.043056924638015942, -0.070463977660763052, -0.068775348428363012, -0.09312191227924986, 1.0195657816113115, 0.084532232737948687, -0.0077475841460689435, 0.065560745306776511, 0.095963507646003116], [1.988861685232328e-06, 3.9527683780484494e-06, 7.009392724608575e-06, 4.1815948054266513e-05, 3.8110006127163114e-05, 8.5343766856165319e-05, 0.00011506929781943547, 0.00033895772157475847, -0.00093040044932233938, 0.99651319115136006, -0.0013298105733581243, 0.00043177839367604306, 0.00013381859586096345, 0.00058077536301082535], [1.9888616852218108e-06, 3.9527683780033186e-06, 7.0093927246558386e-06, 4.1815948054693837e-05, 3.8110006127148037e-05, 8.5343766853351123e-05, 0.00011506929782176868, 0.00033895772157998199, -0.0009304004493209104, 0.99651319115139803, -0.0013298105733310309, 0.00043177839367331152, 0.0001338185958585997, 0.00058077536301172274], [1.9888616852635898e-06, 3.9527683780359446e-06, 7.0093927245494428e-06, 4.1815948054977804e-05, 3.8110006127934754e-05, 8.534376685609364e-05, 0.00011506929782222233, 0.00033895772157267393, -0.00093040044927109261, 0.99651319115139003, -0.0013298105733967969, 0.00043177839366079673, 0.00013381859585971339, 0.00058077536299572761], [1.9888616852501724e-06, 3.9527683781022402e-06, 7.0093927246174604e-06, 4.1815948054696833e-05, 3.8110006127475778e-05, 8.5343766856187125e-05, 0.00011506929781958043, 0.00033895772157948304, -0.00093040044934335632, 0.99651319115129144, -0.0013298105733885166, 0.00043177839366921936, 0.000133818595859475, 0.000580775362996818]], [[0.074185700602782387, 0.074146754060183048, 0.044080870935163732, 0.018159232572086417, 0.022467825231497266, -0.0689427035481045, -0.35612832245810216, -0.35706811952172962, 0.066301523250491115, 0.12637860670593359, 0.73043097073884544, -0.10659770515647085, 0.19353389702286544, -0.17005175673623013], [-3.7250042100535873e-06, -1.1269724971288947e-05, 2.2213129853403132e-05, 2.7260707386538214e-05, 3.2134157306968667e-05, 5.2346383542086318e-05, 0.00016483473612098956, 9.2563837642062281e-05, 0.00029811699599640315, -0.0011888976586438026, 0.99588662648332926, -0.0014850538838387598, 0.00067910725305018549, 0.0002531540790007633], [-3.7250042101062714e-06, -1.1269724971489095e-05, 2.2213129853033375e-05, 2.7260707386493731e-05, 3.2134157307581377e-05, 5.2346383543924021e-05, 0.00016483473612169177, 9.2563837642023955e-05, 0.00029811699599986051, -0.0011888976586481718, 0.99588662648340109, -0.0014850538838796108, 0.00067910725305941303, 0.00025315407900340967], [-3.7250042101305029e-06, -1.1269724971246289e-05, 2.221312985399413e-05, 2.7260707386769705e-05, 3.2134157307771295e-05, 5.2346383544018922e-05, 0.00016483473612415855, 9.2563837645595195e-05, 0.00029811699599414812, -0.001188897658643176, 0.99588662648337267, -0.0014850538838176365, 0.0006791072530611639, 0.00025315407899845991], [-3.7250042100740041e-06, -1.1269724971451615e-05, 2.2213129853212508e-05, 2.7260707386041124e-05, 3.2134157307998951e-05, 5.2346383542655626e-05, 0.00016483473612133583, 9.2563837640784983e-05, 0.00029811699598842868, -0.0011888976586750043, 0.99588662648319148, -0.0014850538838122175, 0.00067910725305609667, 0.00025315407899248037], [-3.7250042101130015e-06, -1.1269724971271402e-05, 2.2213129852965487e-05, 2.7260707385975608e-05, 3.2134157307328744e-05, 5.2346383542691107e-05, 0.00016483473612581716, 9.2563837645623357e-05, 0.00029811699599886559, -0.0011888976585822766, 0.99588662648330739, -0.001485053883836181, 0.00067910725305573216, 0.00025315407900823871]], [[-0.00059125882272731238, 0.0043988847857622066, -0.0020263170726036624, -0.01730864878021271, -0.04668775488704794, -0.037110023734522116, 0.011527083846995297, -0.027125623618939457, -0.02001709139713867, 0.14974816287408035, 0.13386506660861769, 0.85601267869833053, -0.14134475727977613, 0.067440228622958912], [1.8822726092561313e-06, 7.03746745343113e-06, 6.1581927683711722e-06, 1.3816494978258077e-05, 5.9568103216698551e-05, 0.0001295232393670998, 5.407436450418716e-05, 7.4886053898401707e-05, 3.5385808265793326e-05, 0.00031356196112576444, -0.0014408307910039986, 0.9952214281521915, -0.001687371586298788, 0.00081802496913495543], [1.8822726092585844e-06, 7.0374674534414341e-06, 6.1581927683584751e-06, 1.381649497857771e-05, 5.9568103217370668e-05, 0.00012952323936620553, 5.40743645041843e-05, 7.4886053897929184e-05, 3.5385808266258401e-05, 0.0003135619611316129, -0.0014408307909964415, 0.99522142815208481, -0.0016873715862435875, 0.00081802496912843645], [1.8822726093128419e-06, 7.0374674535240012e-06, 6.1581927680243401e-06, 1.3816494978240361e-05, 5.956810321660701e-05, 0.00012952323936838637, 5.4074364503696911e-05, 7.4886053898607285e-05, 3.5385808266857918e-05, 0.00031356196112879853, -0.0014408307910368618, 0.9952214281521603, -0.0016873715862745903, 0.0008180249691204397], [1.8822726092637356e-06, 7.0374674535860303e-06, 6.1581927681425326e-06, 1.3816494978483107e-05, 5.9568103215994362e-05, 0.00012952323936679823, 5.4074364503899141e-05, 7.4886053899177914e-05, 3.5385808266539508e-05, 0.00031356196112603912, -0.0014408307910383344, 0.99522142815198256, -0.0016873715862898743, 0.00081802496913132281], [1.8822726092859717e-06, 7.0374674534609294e-06, 6.1581927681337471e-06, 1.3816494978494881e-05, 5.9568103216637483e-05, 0.00012952323936990493, 5.4074364504325789e-05, 7.4886053897061104e-05, 3.5385808266354997e-05, 0.00031356196113099252, -0.0014408307910580332, 0.99522142815209158, -0.0016873715862859718, 0.00081802496913638842]]], prehc: 10000, lambdahc: 1, rcut: 7.9944393631770359, dcut: 0.9853839756447148, rcut_in: 1.5900000000000014, dcut_in: 0.10000000000000001, inner_cutoff_type: distance}
functions:
  0:
    - {mu0: 0, rank: 1, ndensity: 4, num_ms_combs: 1, mus: [0], ns: [1], ls: [0], ms_combs: [0], ctildes: [-1.4153411356654326, -1.58322068824609, -1.8774181509323584, -1.7983871135814173]}
    - {mu0: 0, rank: 1, ndensity: 4, num_ms_combs: 1, mus: [0], ns: [2], ls: [0], ms_combs: [0], ctildes: [-0.29449716725193847, -1.086173405117199, -0.50685323812024352, -0.58094298281613654]}
    - {mu0: 0, rank: 1, ndensity: 4, num_ms_combs: 1, mus: [0], ns: [3], ls: [0], ms_combs: [0], ctildes: [0.98749031676063415, 1.1324724354272027, 1.2367131176801338, 1.0035552907890504]}
    - {mu0: 0, rank: 1, ndensity: 4, num_ms_combs: 1, mus: [0], ns: [4], ls: [0], ms_combs: [0], ctildes: [-0.79198745320870823, 0.33208320456858098, -0.41462002457861208, -0.72172454183316304]}
    - {mu0: 0, rank: 1, ndensity: 4, num_ms_combs: 1, mus: [0], ns: [5], ls: [0], ms_combs: [0], ctildes: [-0.035538561776612847, -0.51033269361755063, 0.040413446113033186, 0.038951018929510216]}
    - {mu0: 0, rank: 1, ndensity: 4, num_ms_combs: 1, mus: [0], ns: [6], ls: [0], ms_combs: [0], ctildes: [0.7146952286971382, -0.056139362050709192, 0.38060455300888557, 0.64482833377368287]}
    - {mu0: 0, rank: 1, ndensity: 4, num_ms_combs: 1, mus: [0], ns: [7], ls: [0], ms_combs: [0], ctildes: [-0.32320100757618309, -0.066484566666513173, -0.45562880034163894, -0.60093022075886593]}
    - {mu0: 0, rank: 1, ndensity: 4, num_ms_combs: 1, mus: [0], ns: [8], ls: [0], ms_combs: [0], ctildes: [0.21168269078798443, 0.27954704778626643, 0.44146652868166908, 0.20703819905326171]}
    - {mu0: 0, rank: 1, ndensity: 4, num_ms_combs: 1, mus: [0], ns: [9], ls: [0], ms_combs: [0], ctildes: [-0.38488161140514393, -0.12897443289683153, -0.080854475597079908, -0.099621435046301582]}
    - {mu0: 0, rank: 1, ndensity: 4, num_ms_combs: 1, mus: [0], ns: [10], ls: [0], ms_combs: [0], ctildes: [-0.11491582926629937, 0.0038859666657219852, 0.24202229993201091, 0.085758326520417552]}
    - {mu0: 0, rank: 1, ndensity: 4, num_ms_combs: 1, mus: [0], ns: [11], ls: [0], ms_combs: [0], ctildes: [-0.19851512314131964, 0.1392521518710291, 0.055079747186784218, 0.2119257035971788]}
    - {mu0: 0, rank: 1, ndensity: 4, num_ms_combs: 1, mus: [0], ns: [12], ls: [0], ms_combs: [0], ctildes: [-0.081989904686194132, -0.0044608216894175606, -0.2808417196854946, 0.077264237005926661]}
    - {mu0: 0, rank: 1, ndensity: 4, num_ms_combs: 1, mus: [0], ns: [13], ls: [0], ms_combs: [0], ctildes: [0.082960806345246774, 0.01367017667860863, 0.35413263151882796, -0.20403252171757294]}
    - {mu0: 0, rank: 1, ndensity: 4, num_ms_combs: 1, mus: [0], ns: [14], ls: [0], ms_combs: [0], ctildes: [-0.075182193679332016, 0.0024590321205034374, -0.15261831330781886, 0.16711858998164933]}
    - {mu0: 0, rank: 1, ndensity: 4, num_ms_combs: 1, mus: [1], ns: [1], ls: [0], ms_combs: [0], ctildes: [-0.97871268950583223, -2.0455043176272674, -1.703993422509511, -1.586102836355441]}
    - {mu0: 0, rank: 1, ndensity: 4, num_ms_combs: 1, mus: [1], ns: [2], ls: [0], ms_combs: [0], ctildes: [0.25199777028039411, -0.59512622679841964, -0.62559934456287447, -0.45483768330874225]}
    - {mu0: 0, rank: 1, ndensity: 4, num_ms_combs: 1, mus: [1], ns: [3], ls: [0], ms_combs: [0], ctildes: [0.92040805303916229, 2.0730265127143692, 1.1405855197313406, 0.87064151820289781]}
    - {mu0: 0, rank: 1, ndensity: 4, num_ms_combs: 1, mus: [1], ns: [4], ls: [0], ms_combs: [0], ctildes: [-1.0334614058164415, 0.30330607269970689, -0.20014576986509303, -0.87789148730585587]}
    - {mu0: 0, rank: 1, ndensity: 4, num_ms_combs: 1, mus: [1], ns: [5], ls: [0], ms_combs: [0], ctildes: [0.25037679023806481, -0.7055494201680198, 0.32805508178597209, -0.17157256477926874]}
    - {mu0: 0, rank: 1, ndensity: 4, num_ms_combs: 1, mus: [1], ns: [6], ls: [0], ms_combs: [0], ctildes: [0.88457409829272859, 0.13782704823917086, 0.5759639621602628, 0.55036455565019138]}
    - {mu0: 0, rank: 1, ndensity: 4, num_ms_combs: 1, mus: [1], ns: [7], ls: [0], ms_combs: [0], ctildes: [-0.67255020463738691, 0.031877692177341654, -1.1159383973665684, -0.59331267716071023]}
    - {mu0: 0, rank: 1, ndensity: 4, num_ms_combs: 1, mus: [1], ns: [8], ls: [0], ms_combs: [0], ctildes: [0.54365908489889136, 0.38718919587276179, -0.10623665122539211, 0.38700682276907694]}
    - {mu0: 0, rank: 1, ndensity: 4, num_ms_combs: 1, mus: [1], ns: [9], ls: [0], ms_combs: [0], ctildes: [-0.09947864020594066, -0.0072992539273209782, -0.21266439192929498, -0.2196425791523294]}
    - {mu0: 0, rank: 1, ndensity: 4, num_ms_combs: 1, mus: [1], ns: [10], ls: [0], ms_combs: [0], ctildes: [-0.032578099267257556, 0.23359113148862484, -0.024133026829228708, -0.25704496443674085]}
    - {mu0: 0, rank: 1, ndensity: 4, num_ms_combs: 1, mus: [1], ns: [11], ls: [0], ms_combs: [0], ctildes: [0.0679636453069246, -0.18983621030509074, 0.38754866184546144, 0.10849114778001659]}
    - {mu0: 0, rank: 2, ndensity: 4, num_ms_combs: 1, mus: [0, 0], ns: [1, 1], ls: [0, 0], ms_combs: [0, 0], ctildes: [0.59996401480418815, 1.0658268449239399, 0.47561375484124374, 0.53303467142522909]}
    - {mu0: 0, rank: 2, ndensity: 4, num_ms_combs: 2, mus: [0, 0], ns: [1, 1], ls: [1, 1], ms_combs: [0, 0, 1, -1], ctildes: [-0.11797275795700946, -0.17057235988077041, -0.18973139374838593, -0.19010346055832247, 0.23594551591401888, 0.34114471976154076, 0.37946278749677181, 0.38020692111664489]}
    - {mu0: 0, rank: 2, ndensity: 4, num_ms_combs: 3, mus: [0, 0], ns: [1, 1], ls: [2, 2], ms_combs: [0, 0, 1, -1, 2, -2], ctildes: [0.096046043476504792, -0.080528393656060029, 0.10731610534906454, -0.066916870288611902, -0.19209208695300961, 0.16105678731212009, -0.2146322106981291, 0.1338337405772238, 0.19209208695300964, -0.16105678731212011, 0.21463221069812916, -0.13383374057722383]}
    - {mu0: 0, rank: 2, ndensity: 4, num_ms_combs: 4, mus: [0, 0], ns: [1, 1], ls: [3, 3], ms_combs: [0, 0, 1, -1, 2, -2, 3, -3], ctildes: [0.07449007314451711, -0.23129478766752568, -0.12821216699988119, -0.026182463750896712, -0.14898014628903422, 0.46258957533505135, 0.25642433399976239, 0.052364927501793425, 0.14898014628903419, -0.46258957533505124, -0.25642433399976239, -0.052364927501793418, -0.14898014628903419, 0.46258957533505124, 0.25642433399976239, 0.052364927501793418]}
    - {mu0: 0, rank: 2, ndensity: 4, num_ms_combs: 5, mus: [0, 0], ns: [1, 1], ls: [4, 4], ms_combs: [0, 0, 1, -1, 2, -2, 3, -3, 4, -4], ctildes: [0.090022848797275651, -0.12184802083846248, -0.14951430139964036, 0.038908805322195941, -0.18004569759455125, 0.24369604167692488, 0.29902860279928062, -0.077817610644391855, 0.18004569759455125, -0.24369604167692488, -0.29902860279928062, 0.077817610644391855, -0.18004569759455125, 0.24369604167692488, 0.29902860279928062, -0.077817610644391855, 0.18004569759455127, -0.24369604167692493, -0.29902860279928067, 0.077817610644391869]}
    - {mu0: 0, rank: 2, ndensity: 4, num_ms_combs: 6, mus: [0, 0], ns: [1, 1], ls: [5, 5], ms_combs: [0, 0, 1, -1, 2, -2, 3, -3, 4, -4, 5, -5], ctildes: [-0.0086900429550956712, -0.079882844856170115, -0.075254663478683675, 0.07981365775464265, 0.017380085910191342, 0.15976568971234023, 0.15050932695736735, -0.1596273155092853, -0.017380085910191346, -0.15976568971234026, -0.15050932695736738, 0.15962731550928533, 0.017380085910191349, 0.15976568971234029, 0.15050932695736741, -0.15962731550928536, -0.017380085910191346, -0.15976568971234026, -0.15050932695736738, 0.15962731550928533, 0.017380085910191325, 0.15976568971234006, 0.15050932695736721, -0.15962731550928513]}
    - {mu0: 0, rank: 2, ndensity: 4, num_ms_combs: 1, mus: [0, 0], ns: [1, 2], ls: [0, 0], ms_combs: [0, 0], ctildes: [0.090113406388747097, 0.30673989590117201, 0.32701826289551494, 0.33220736753727081]}
    - {mu0: 0, rank: 2, ndensity: 4, num_ms_combs: 2, mus: [0, 0], ns: [1, 2], ls: [1, 1], ms_combs: [0, 0, 1, -1], ctildes: [-0.036197417579939377, -0.085371673263397105, 0.0034252324527369975, -0.023766462954744653, 0.07239483515987874, 0.17074334652679418, -0.0068504649054739941, 0.0475329259094893]}
    - {mu0: 0, rank: 2, ndensity: 4, num_ms_combs: 3, mus: [0, 0], ns: [1, 2], ls: [2, 2], ms_combs: [0, 0, 1, -1, 2, -2], ctildes: [-0.13839768204582295, -0.073094230678509703, -0.037205138863159265, -0.13463061033841509, 0.27679536409164596, 0.14618846135701941, 0.074410277726318544, 0.26926122067683017, -0.27679536409164601, -0.14618846135701946, -0.074410277726318558, -0.26926122067683028]}
    - {mu0: 0, rank: 2, ndensity: 4, num_ms_combs: 4, mus: [0, 0], ns: [1, 2], ls: [3, 3], ms_combs: [0, 0, 1, -1, 2, -2, 3, -3], ctildes: [-0.10220679144130833, 0.036781737267374659, 0.031823778457411869, -0.024424248538187702, 0.20441358288261666, -0.073563474534749318, -0.063647556914823739, 0.048848497076375404, -0.20441358288261663, 0.073563474534749318, 0.063647556914823739, -0.048848497076375397, 0.20441358288261663, -0.073563474534749318, -0.063647556914823739, 0.048848497076375397]}
    - {mu0: 0, rank: 2, ndensity: 4, num_ms_combs: 5, mus: [0, 0], ns: [1, 2], ls: [4, 4], ms_combs: [0, 0, 1, -1, 2, -2, 3, -3, 4, -4], ctildes: [-0.037083833440035276, -0.068574191151594202, -0.018820600378660925, 0.0076832910381195284, 0.074167666880070524, 0.13714838230318838, 0.037641200757321837, -0.015366582076239052, -0.074167666880070524, -0.13714838230318838, -0.037641200757321837, 0.015366582076239052, 0.074167666880070524, 0.13714838230318838, 0.037641200757321837, -0.015366582076239052, -0.074167666880070537, -0.13714838230318838, -0.037641200757321844, 0.015366582076239055]}
    - {mu0: 0, rank: 2, ndensity: 4, num_ms_combs: 6, mus: [0, 0], ns: [1, 2], ls: [5, 5], ms_combs: [0, 0, 1, -1, 2, -2, 3, -3, 4, -4, 5, -5], ctildes: [-0.0086052659330232862, -0.041374165594487859, -0.029704698971897182, 0.048039675911389267, 0.017210531866046572, 0.082748331188975718, 0.059409397943794365, -0.096079351822778533, -0.017210531866046572, -0.082748331188975732, -0.059409397943794372, 0.096079351822778547, 0.017210531866046576, 0.082748331188975746, 0.059409397943794386, -0.096079351822778561, -0.017210531866046572, -0.082748331188975732, -0.059409397943794372, 0.096079351822778547, 0.017210531866046555, 0.082748331188975635, 0.059409397943794309, -0.096079351822778436]}
    - {mu0: 0, rank: 2, ndensity: 4, num_ms_combs: 1, mus: [0, 0], ns: [1, 3], ls: [0, 0], ms_combs: [0, 0], ctildes: [0.43247764240280384, 0.6103540943134248, 0.52202091469988521, 0.55112728855423576]}
    - {mu0: 0, rank: 2, ndensity: 4, num_ms_combs: 2, mus: [0, 0], ns: [1, 3], ls: [1, 1], ms_combs: [0, 0, 1, -1], ctildes: [0.15733145909370985, 0.16998784195178898, 0.16421831316731983, 0.18829428797918732, -0.31466291818741959, -0.33997568390357791, -0.3284366263346396, -0.37658857595837453]}
    - {mu0: 0, rank: 2, ndensity: 4, num_ms_combs: 3, mus: [0, 0], ns: [1, 3], ls: [2, 2], ms_combs: [0, 0, 1, -1, 2, -2], ctildes: [0.012624699868205903, 0.096436009315256296, 0.10504812994092674, 0.10604799363183591, -0.025249399736411809, -0.19287201863051259, -0.21009625988185351, -0.21209598726367185, 0.025249399736411816, 0.19287201863051265, 0.21009625988185357, 0.2120959872636719]}
    - {mu0: 0, rank: 2, ndensity: 4, num_ms_combs: 4, mus: [0, 0], ns: [1, 3], ls: [3, 3], ms_combs: [0, 0, 1, -1, 2, -2, 3, -3], ctildes: [0.0066237989879628133, 0.17956253082541074, 0.086919717578681166, 0.059342340034998921, -0.013247597975925627, -0.35912506165082148, -0.17383943515736233, -0.11868468006999784, 0.013247597975925625, 0.35912506165082142, 0.1738394351573623, 0.11868468006999783, -0.013247597975925625, -0.35912506165082142, -0.1738394351573623, -0.11868468006999783]}
    - {mu0: 0, rank: 2, ndensity: 4, num_ms_combs: 5, mus: [0, 0], ns: [1, 3], ls: [4, 4], ms_combs: [0, 0, 1, -1, 2, -2, 3, -3, 4, -4], ctildes: [-0.08107377351451453, 0.10110700288847105, 0.14033365632946984, -0.026861754133209841, 0.162147547029029, -0.20221400577694204, -0.28066731265893957, 0.053723508266419667, -0.162147547029029, 0.20221400577694204, 0.28066731265893957, -0.053723508266419667, 0.162147547029029, -0.20221400577694204, -0.28066731265893957, 0.053723508266419667, -0.16214754702902903, 0.20221400577694207, 0.28066731265893963, -0.053723508266419674]}
    - {mu0: 0, rank: 2, ndensity: 4, num_ms_combs: 1, mus: [0, 0], ns: [1, 4], ls: [0, 0], ms_combs: [0, 0], ctildes: [-0.037921037157685127, 0.11543589257670932, -0.13140501967130019, -0.11083385047483001]}
    - {mu0: 0, rank: 2, ndensity: 4, num_ms_combs: 2, mus: [0, 0], ns: [1, 4], ls: [1, 1], ms_combs: [0, 0, 1, -1], ctildes: [-0.12950365380854573, -0.042211274849107472, -0.20971963637687366, -0.17896212589741139, 0.2590073076170914, 0.08442254969821493, 0.41943927275374721, 0.35792425179482273]}
    - {mu0: 0, rank: 2, ndensity: 4, num_ms_combs: 3, mus: [0, 0], ns: [1, 4], ls: [2, 2], ms_combs: [0, 0, 1, -1, 2, -2], ctildes: [0.045970746099428153, -0.0084400314037760462, 0.024252094799518304, -0.068100472980073365, -0.09194149219885632, 0.016880062807552096, -0.048504189599036615, 0.13620094596014673, 0.091941492198856334, -0.016880062807552099, 0.048504189599036629, -0.13620094596014679]}
    - {mu0: 0, rank: 2, ndensity: 4, num_ms_combs: 4, mus: [0, 0], ns: [1, 4], ls: [3, 3], ms_combs: [0, 0, 1, -1, 2, -2, 3, -3], ctildes: [0.052456702567321441, 0.039312327686725115, -0.10535065135045268, -0.00978329956895602, -0.10491340513464288, -0.078624655373450231, 0.21070130270090537, 0.01956659913791204, 0.10491340513464287, 0.078624655373450217, -0.21070130270090534, -0.019566599137912036, -0.10491340513464287, -0.078624655373450217, 0.21070130270090534, 0.019566599137912036]}
    - {mu0: 0, rank: 2, ndensity: 4, num_ms_combs: 5, mus: [0, 0], ns: [1, 4], ls: [4, 4], ms_combs: [0, 0, 1, -1, 2, -2, 3, -3, 4, -4], ctildes: [0.064999524506052661, -0.063404953644690801, 0.057741646044015195, -0.13636893308574988, -0.12999904901210527, 0.12680990728938157, -0.11548329208803035, 0.27273786617149964, 0.12999904901210527, -0.12680990728938157, 0.11548329208803035, -0.27273786617149964, -0.12999904901210527, 0.12680990728938157, -0.11548329208803035, 0.27273786617149964, 0.12999904901210529, -0.12680990728938157, 0.11548329208803038, -0.2727378661714997]}
    - {mu0: 0, rank: 2, ndensity: 4, num_ms_combs: 1, mus: [0, 0], ns: [1, 5], ls: [0, 0], ms_combs: [0, 0], ctildes: [-0.3454402526054367, 0.072971229096726556, -0.26146118924712064, -0.21908928715021972]}
    - {mu0: 0, rank: 2, ndensity: 4, num_ms_combs: 2, mus: [0, 0], ns: [1, 5], ls: [1, 1], ms_combs: [0, 0, 1, -1], ctildes: [0.22775330241921202, -0.23138436545761262, 0.032219437244152514, 0.070552519118721499, -0.45550660483842398, 0.46276873091522513, -0.064438874488305015, -0.14110503823744297]}
    - {mu0: 0, rank: 2, ndensity: 4, num_ms_combs: 3, mus: [0, 0], ns: [1, 5], ls: [2, 2], ms_combs: [0, 0, 1, -1, 2, -2], ctildes: [-0.12743686623859277, 0.027324964970921659, 0.10210688033953512, 0.044955027336046588, 0.25487373247718559, -0.054649929941843325, -0.20421376067907027, -0.08991005467209319, -0.25487373247718564, 0.054649929941843339, 0.20421376067907029, 0.089910054672093204]}
    - {mu0: 0, rank: 2, ndensity: 4, num_ms_combs: 4, mus: [0, 0], ns: [1, 5], ls: [3, 3], ms_combs: [0, 0, 1, -1, 2, -2, 3, -3], ctildes: [-0.11749149840259454, 0.089336955285219427, 0.080803262038035839, 0.053325202708631253, 0.23498299680518908, -0.17867391057043885, -0.16160652407607168, -0.10665040541726251, -0.23498299680518905, 0.17867391057043883, 0.16160652407607165, 0.10665040541726249, 0.23498299680518905, -0.17867391057043883, -0.16160652407607165, -0.10665040541726249]}
    - {mu0: 0, rank: 2, ndensity: 4, num_ms_combs: 1, mus: [0, 0], ns: [1, 6], ls: [0, 0], ms_combs: [0, 0], ctildes: [0.31298397686753354, 0.95123361356228564, 0.023877994961645863, 0.30552730923569832]}
    - {mu0: 0, rank: 2, ndensity: 4, num_ms_combs: 2, mus: [0, 0], ns: [1, 6], ls: [1, 1], ms_combs: [0, 0, 1, -1], ctildes: [-0.052145923577115172, -0.11820899093018701, -0.10254909288619425, -0.022755887207525784, 0.10429184715423033, 0.23641798186037397, 0.20509818577238847, 0.04551177441505156]}
    - {mu0: 0, rank: 2, ndensity: 4, num_ms_combs: 3, mus: [0, 0], ns: [1, 6], ls: [2, 2], ms_combs: [0, 0, 1, -1, 2, -2], ctildes: [-0.12383873219016572, -0.010120723942213958, 0.013936026937567757, 0.024020136313481117, 0.24767746438033147, 0.020241447884427916, -0.027872053875135517, -0.048040272626962241, -0.24767746438033153, -0.020241447884427922, 0.027872053875135524, 0.048040272626962255]}
    - {mu0: 0, rank: 2, ndensity: 4, num_ms_combs: 4, mus: [0, 0], ns: [1, 6], ls: [3, 3], ms_combs: [0, 0, 1, -1, 2, -2, 3, -3], ctildes: [0.040000511217520865, 0.10377939850026091, -0.10054478211802428, 0.029496346395881331, -0.08000102243504173, -0.20755879700052182, 0.20108956423604857, -0.058992692791762662, 0.080001022435041716, 0.20755879700052179, -0.20108956423604854, 0.058992692791762655, -0.080001022435041716, -0.20755879700052179, 0.20108956423604854, -0.058992692791762655]}
    - {mu0: 0, rank: 2, ndensity: 4, num_ms_combs: 1, mus: [0, 0], ns: [1, 7], ls: [0, 0], ms_combs: [0, 0], ctildes: [0.15046332740770527, -0.15726379318124956, -0.012076221388533766, -0.029122414703917233]}
    - {mu0: 0, rank: 2, ndensity: 4, num_ms_combs: 2, mus: [0, 0], ns: [1, 7], ls: [1, 1], ms_combs: [0, 0, 1, -1], ctildes: [-0.033243110745251915, -0.20200920965310257, -0.16281880193004106, 0.011477310036806061, 0.066486221490503816, 0.40401841930620502, 0.32563760386008206, -0.022954620073612118]}
    - {mu0: 0, rank: 2, ndensity: 4, num_ms_combs: 3, mus: [0, 0], ns: [1, 7], ls: [2, 2], ms_combs: [0, 0, 1, -1, 2, -2], ctildes: [-0.028592920977159229, -0.089355187202056596, 0.22315217318537056, -0.1391905133913299, 0.057185841954318466, 0.17871037440411319, -0.44630434637074118, 0.27838102678265986, -0.05718584195431848, -0.17871037440411325, 0.44630434637074129, -0.27838102678265991]}
    - {mu0: 0, rank: 2, ndensity: 4, num_ms_combs: 1, mus: [0, 0], ns: [1, 8], ls: [0, 0], ms_combs: [0, 0], ctildes: [-0.21437603477806108, -0.33070471590225309, 0.43846621651706763, 0.16810071495432294]}
    - {mu0: 0, rank: 2, ndensity: 4, num_ms_combs: 2, mus: [0, 0], ns: [1, 8], ls: [1, 1], ms_combs: [0, 0, 1, -1], ctildes: [0.095517336760070987, -0.065001993900797889, 0.052735695603190413, 0.15516509873133763, -0.19103467352014195, 0.13000398780159575, -0.10547139120638081, -0.31033019746267521]}
    - {mu0: 0, rank: 2, ndensity: 4, num_ms_combs: 3, mus: [0, 0], ns: [1, 8], ls: [2, 2], ms_combs: [0, 0, 1, -1, 2, -2], ctildes: [0.17721917606773005, 0.033855969727850072, -0.13512408285328156, -0.12322748343057355, -0.35443835213546016, -0.067711939455700143, 0.27024816570656318, 0.24645496686114712, 0.35443835213546027, 0.067711939455700157, -0.27024816570656324, -0.24645496686114721]}
    - {mu0: 0, rank: 2, ndensity: 4, num_ms_combs: 1, mus: [0, 0], ns: [1, 9], ls: [0, 0], ms_combs: [0, 0], ctildes: [-0.21893910931655611, -0.17614091565206735, 0.24390480672253764, 0.13317918914232654]}
    - {mu0: 0, rank: 2, ndensity: 4, num_ms_combs: 2, mus: [0, 0], ns: [1, 9], ls: [1, 1], ms_combs: [0, 0, 1, -1], ctildes: [-0.098393789729550665, -0.11765049304736643, -0.040165682037638283, 0.075494120953831803, 0.1967875794591013, 0.23530098609473282, 0.080331364075276551, -0.15098824190766358]}
    - {mu0: 0, rank: 2, ndensity: 4, num_ms_combs: 1, mus: [0, 0], ns: [1, 10], ls: [0, 0], ms_combs: [0, 0], ctildes: [0.21270932335260262, 0.21179685315453212, -0.1427806552797273, -0.11711773367412681]}
    - {mu0: 0, rank: 2, ndensity: 4, num_ms_combs: 2, mus: [0, 0], ns: [1, 10], ls: [1, 1], ms_combs: [0, 0, 1, -1], ctildes: [-0.021243671203447355, 0.11551869441443802, -0.13286233158981475, 0.11810607508865074, 0.042487342406894703, -0.23103738882887598, 0.26572466317962945, -0.23621215017730146]}
    - {mu0: 0, rank: 2, ndensity: 4, num_ms_combs: 1, mus: [0, 0], ns: [1, 11], ls: [0, 0], ms_combs: [0, 0], ctildes: [0.057708187435253182, -0.067234099769598765, 0.00011260377072024372, -0.11595845987917829]}
    - {mu0: 0, rank: 2, ndensity: 4, num_ms_combs: 1, mus: [0, 0], ns: [1, 12], ls: [0, 0], ms_combs: [0, 0], ctildes: [0.066011444448959289, -0.023743718461160135, 0.083021099642740709, -0.17249856066444277]}
    - {mu0: 0, rank: 2, ndensity: 4, num_ms_combs: 1, mus: [0, 0], ns: [2, 2], ls: [0, 0], ms_combs: [0, 0], ctildes: [-0.02531678969339117, 0.30242913780682484, 0.028650947356601265, 0.12765791391365292]}
    - {mu0: 0, rank: 2, ndensity: 4, num_ms_combs: 2, mus: [0, 0], ns: [2, 2], ls: [1, 1], ms_combs: [0, 0, 1, -1], ctildes: [0.10650737363978355, -0.10652193086420038, -0.006053086250121905, 0.064792610183917645, -0.21301474727956704, 0.21304386172840073, 0.012106172500243808, -0.12958522036783526]}
    - {mu0: 0, rank: 2, ndensity: 4, num_ms_combs: 3, mus: [0, 0], ns: [2, 2], ls: [2, 2], ms_combs: [0, 0, 1, -1, 2, -2], ctildes: [0.18168903947918791, -0.079095933950306771, 0.060554840995325591, 0.071513342203478061, -0.36337807895837587, 0.15819186790061354, -0.1211096819906512, -0.14302668440695615, 0.36337807895837593, -0.1581918679006136, 0.12110968199065122, 0.14302668440695618]}
    - {mu0: 0, rank: 2, ndensity: 4, num_ms_combs: 4, mus: [0, 0], ns: [2, 2], ls: [3, 3], ms_combs: [0, 0, 1, -1, 2, -2, 3, -3], ctildes: [-0.045968176419320085, 0.29270594058627752, 0.03493956239432764, 0.031951570637707011, 0.09193635283864017, -0.58541188117255505, -0.069879124788655281, -0.063903141275414022, -0.091936352838640156, 0.58541188117255494, 0.069879124788655267, 0.063903141275414022, 0.091936352838640156, -0.58541188117255494, -0.069879124788655267, -0.063903141275414022]}
    - {mu0: 0, rank: 2, ndensity: 4, num_ms_combs: 5, mus: [0, 0], ns: [2, 2], ls: [4, 4], ms_combs: [0, 0, 1, -1, 2, -2, 3, -3, 4, -4], ctildes: [0.022997710009462071, -0.13315209679863846, -0.001543717140081958, 0.010535108525852172, -0.045995420018924128, 0.26630419359727686, 0.0030874342801639151, -0.021070217051704337, 0.045995420018924128, -0.26630419359727686, -0.0030874342801639151, 0.021070217051704337, -0.045995420018924128, 0.26630419359727686, 0.0030874342801639151, -0.021070217051704337, 0.045995420018924135, -0.26630419359727686, -0.0030874342801639155, 0.021070217051704341]}
    - {mu0: 0, rank: 2, ndensity: 4, num_ms_combs: 1, mus: [0, 0], ns: [2, 3], ls: [0, 0], ms_combs: [0, 0], ctildes: [-0.010904608255557117, 0.1079113919798935, 0.12849110655640286, 0.074203814633367018]}
    - {mu0: 0, rank: 2, ndensity: 4, num_ms_combs: 2, mus: [0, 0], ns: [2, 3], ls: [1, 1], ms_combs: [0, 0, 1, -1], ctildes: [-0.13934784386310689, 0.029328678029174403, -0.064047065556395069, -0.1241083209365222, 0.27869568772621373, -0.058657356058348799, 0.12809413111279011, 0.24821664187304435]}
    - {mu0: 0, rank: 2, ndensity: 4, num_ms_combs: 3, mus: [0, 0], ns: [2, 3], ls: [2, 2], ms_combs: [0, 0, 1, -1, 2, -2], ctildes: [0.035268449367781583, -0.026567196361073509, -0.11476905979590309, -0.063905293838887545, -0.07053689873556318, 0.053134392722147025, 0.2295381195918062, 0.12781058767777512, 0.070536898735563194, -0.053134392722147032, -0.22953811959180626, -0.12781058767777514]}
    - {mu0: 0, rank: 2, ndensity: 4, num_ms_combs: 4, mus: [0, 0], ns: [2, 3], ls: [3, 3], ms_combs: [0, 0, 1, -1, 2, -2, 3, -3], ctildes: [-0.099018836405799879, 0.034764958998817451, -0.0044225875755260959, -0.027388578579098363, 0.19803767281159976, -0.069529917997634902, 0.0088451751510521918, 0.054777157158196726, -0.19803767281159973, 0.069529917997634888, -0.0088451751510521901, -0.05477715715819672, 0.19803767281159973, -0.069529917997634888, 0.0088451751510521901, 0.05477715715819672]}
    - {mu0: 0, rank: 2, ndensity: 4, num_ms_combs: 5, mus: [0, 0], ns: [2, 3], ls: [4, 4], ms_combs: [0, 0, 1, -1, 2, -2, 3, -3, 4, -4], ctildes: [-0.062415772509119845, 0.024869954795904807, -0.01548448699004212, 0.073856006722022791, 0.12483154501823965, -0.0497399095918096, 0.030968973980084229, -0.14771201344404553, -0.12483154501823965, 0.0497399095918096, -0.030968973980084229, 0.14771201344404553, 0.12483154501823965, -0.0497399095918096, 0.030968973980084229, -0.14771201344404553, -0.12483154501823968, 0.049739909591809607, -0.030968973980084236, 0.14771201344404555]}
    - {mu0: 0, rank: 2, ndensity: 4, num_ms_combs: 1, mus: [0, 0], ns: [2, 4], ls: [0, 0], ms_combs: [0, 0], ctildes: [0.10263113971044402, -0.19689964888836592, 0.09761901497308044, 0.1312524527933627]}
    - {mu0: 0, rank: 2, ndensity: 4, num_ms_combs: 2, mus: [0, 0], ns: [2, 4], ls: [1, 1], ms_combs: [0, 0, 1, -1], ctildes: [0.0016832137312790254, 0.15747706797258695, 0.10303120518325953, 0.09673715482450905, -0.0033664274625580504, -0.31495413594517385, -0.20606241036651901, -0.19347430964901807]}
    - {mu0: 0, rank: 2, ndensity: 4, num_ms_combs: 3, mus: [0, 0], ns: [2, 4], ls: [2, 2], ms_combs: [0, 0, 1, -1, 2, -2], ctildes: [0.12697574928143973, 0.18072857118989577, 0.11088315189597599, 0.10051311428679507, -0.25395149856287952, -0.3614571423797916, -0.221766303791952, -0.20102622857359018, 0.25395149856287957, 0.36145714237979171, 0.22176630379195206, 0.20102622857359023]}
    - {mu0: 0, rank: 2, ndensity: 4, num_ms_combs: 4, mus: [0, 0], ns: [2, 4], ls: [3, 3], ms_combs: [0, 0, 1, -1, 2, -2, 3, -3], ctildes: [-0.070982273651387651, 0.11265009615155777, 0.13748427887011358, 0.053314892870847515, 0.1419645473027753, -0.22530019230311554, -0.27496855774022716, -0.10662978574169503, -0.14196454730277527, 0.22530019230311549, 0.2749685577402271, 0.10662978574169502, 0.14196454730277527, -0.22530019230311549, -0.2749685577402271, -0.10662978574169502]}
    - {mu0: 0, rank: 2, ndensity: 4, num_ms_combs: 1, mus: [0, 0], ns: [2, 5], ls: [0, 0], ms_combs: [0, 0], ctildes: [-0.058318250058808564, 0.073210596550899454, -0.053244957746518801, -0.031695557514313376]}
    - {mu0: 0, rank: 2, ndensity: 4, num_ms_combs: 2, mus: [0, 0], ns: [2, 5], ls: [1, 1], ms_combs: [0, 0, 1, -1], ctildes: [-0.00093838614503834964, 0.0029628448851480968, -0.0025341322134384073, 0.03166519600300547, 0.0018767722900766991, -0.0059256897702961928, 0.0050682644268768137, -0.063330392006010927]}
    - {mu0: 0, rank: 2, ndensity: 4, num_ms_combs: 3, mus: [0, 0], ns: [2, 5], ls: [2, 2], ms_combs: [0, 0, 1, -1, 2, -2], ctildes: [0.050986503368784943, -0.062421519252235706, -0.016445625907949887, -0.036915536172391621, -0.1019730067375699, 0.12484303850447143, 0.032891251815899782, 0.073831072344783241, 0.10197300673756993, -0.12484303850447145, -0.032891251815899789, -0.073831072344783269]}
    - {mu0: 0, rank: 2, ndensity: 4, num_ms_combs: 4, mus: [0, 0], ns: [2, 5], ls: [3, 3], ms_combs: [0, 0, 1, -1, 2, -2, 3, -3], ctildes: [0.1325182779246388, -0.1359481732697958, -0.064618345212082595, -0.082778891721416586, -0.2650365558492776, 0.2718963465395916, 0.12923669042416519, 0.16555778344283317, 0.26503655584927754, -0.27189634653959155, -0.12923669042416516, -0.16555778344283315, -0.26503655584927754, 0.27189634653959155, 0.12923669042416516, 0.16555778344283315]}
    - {mu0: 0, rank: 2, ndensity: 4, num_ms_combs: 1, mus: [0, 0], ns: [2, 6], ls: [0, 0], ms_combs: [0, 0], ctildes: [-0.12501115269392662, 0.077856528918172518, 0.013126606985253975, 0.01925325338942797]}
    - {mu0: 0, rank: 2, ndensity: 4, num_ms_combs: 2, mus: [0, 0], ns: [2, 6], ls: [1, 1], ms_combs: [0, 0, 1, -1], ctildes: [-0.074951815911150355, 0.10736142603535774, 0.031542720602049698, -0.034070711636173957, 0.14990363182230068, -0.21472285207071543, -0.063085441204099382, 0.068141423272347901]}
    - {mu0: 0, rank: 2, ndensity: 4, num_ms_combs: 3, mus: [0, 0], ns: [2, 6], ls: [2, 2], ms_combs: [0, 0, 1, -1, 2, -2], ctildes: [0.074358399005239384, 0.055833879079490438, -0.10088630011986187, 0.0057354464545054792, -0.14871679801047877, -0.11166775815898089, 0.20177260023972377, -0.01147089290901096, 0.14871679801047882, 0.11166775815898092, -0.20177260023972382, 0.011470892909010964]}
    - {mu0: 0, rank: 2, ndensity: 4, num_ms_combs: 1, mus: [0, 0], ns: [2, 7], ls: [0, 0], ms_combs: [0, 0], ctildes: [-0.22237128036095652, 0.15786247945039331, 0.14886448450690093, 0.24883817425690419]}
    - {mu0: 0, rank: 2, ndensity: 4, num_ms_combs: 2, mus: [0, 0], ns: [2, 7], ls: [1, 1], ms_combs: [0, 0, 1, -1], ctildes: [0.12109080797861017, 0.18588993867776796, 0.077674716284281436, 0.15721175335588664, -0.24218161595722029, -0.37177987735553586, -0.15534943256856285, -0.31442350671177322]}
    - {mu0: 0, rank: 2, ndensity: 4, num_ms_combs: 3, mus: [0, 0], ns: [2, 7], ls: [2, 2], ms_combs: [0, 0, 1, -1, 2, -2], ctildes: [0.037593105465485548, -0.027651148774649175, -0.0046683045512905781, -0.016236007984604409, -0.075186210930971109, 0.055302297549298357, 0.009336609102581158, 0.032472015969208824, 0.075186210930971123, -0.055302297549298371, -0.0093366091025811598, -0.032472015969208831]}
    - {mu0: 0, rank: 2, ndensity: 4, num_ms_combs: 1, mus: [0, 0], ns: [2, 8], ls: [0, 0], ms_combs: [0, 0], ctildes: [-0.5709601449070536, 0.049642061423183184, -0.091670909263646322, 0.0041319649679848148]}
    - {mu0: 0, rank: 2, ndensity: 4, num_ms_combs: 2, mus: [0, 0], ns: [2, 8], ls: [1, 1], ms_combs: [0, 0, 1, -1], ctildes: [-0.061360402639288804, -0.17877310376940092, -0.20367129599592473, -0.027620302703852902, 0.12272080527857758, 0.35754620753880173, 0.40734259199184941, 0.055240605407705791]}
    - {mu0: 0, rank: 2, ndensity: 4, num_ms_combs: 1, mus: [0, 0], ns: [2, 9], ls: [0, 0], ms_combs: [0, 0], ctildes: [-0.021602384406656211, 0.04912821248666116, 0.12711265916942144, 0.045364291858752029]}
    - {mu0: 0, rank: 2, ndensity: 4, num_ms_combs: 2, mus: [0, 0], ns: [2, 9], ls: [1, 1], ms_combs: [0, 0, 1, -1], ctildes: [-0.081637298265444233, 0.095743934158794577, 0.017341873697091857, 0.18948590199639331, 0.16327459653088844, -0.19148786831758913, -0.034683747394183707, -0.37897180399278657]}
