elements: [Sb, Te]
E0: [0, 0]
deltaSplineBins: 0.001
embeddings:
  0: {ndensity: 4, FS_parameters: [1, 1, 1, 0.5, 1, 0.2962232726207143, 1, 0.57709205341123615], npoti: FinnisSinclairShiftedScaled, rho_core_cutoff: 5, drho_core_cutoff: 5}
  1: {ndensity: 4, FS_parameters: [1, 1, 1, 0.5, 1, 0.2962232726207143, 1, 0.57709205341123615], npoti: FinnisSinclairShiftedScaled, rho_core_cutoff: 5, drho_core_cutoff: 5}
bonds:
  [0, 0]: {nradmax: 12, lmax: 5, nradbasemax: 14, radbasename: SBessel, radparameters: [10], radcoefficients: [[[1.9770170141187087, -1.0869094834436444, 0.25194927365036462, 0.3948232396348178, -0.49854724588117078, 0.49843986075298741, -0.52382813161051245, 0.42660474008241034, -0.23424321966217798, 0.063165926535625264, 0.029460924604950912, -0.021171826640932971, 0.0052052091569087808, -0.0058616652167394496], [1.7504577556704897, -0.57510251797454404, -0.31928640091065008, 0.43528222400667499, -0.15987283535479027, 0.0078559874831341768, -0.088221437167708208, 0.10828578761776056, -0.063590410054374769, 0.038964868667762852, 0.043485425769048694, 0.00039870400860178752, 0.0035573553530354636, -0.0023986632703994377], [1.6371475411032883, -0.82303692316439647, -0.26353645389790969, 0.63764686912427482, -0.25264361898067406, -0.081600092831140003, -0.0073322570222221755, 0.10921003526207032, -0.043917884111196098, -0.050709206635801238, 0.13385019103443338, -0.085312191451196451, 0.028483459903902386, -0.0034898180682249144], [0.81775308185844997, 0.0062159571298692172, -0.15489906082351637, 0.070137494049285556, 0.25509152999909052, -0.24482096032889147, -0.032440208260389146, 0.085053021770196149, -0.011163069518214132, -0.021908686267315593, 0.056116754224274999, -0.0028076939769354783, -0.021111523891330915, -0.00063919577884711599], [0.64729367543868643, 0.016744092266121842, -0.30408018756161403, -0.23212149427283338, 0.29157466311052194, -0.28532868100747449, 0.057658563810266045, 0.27687689205273952, -0.27237560103596614, 0.21261849522141033, -0.052804890960597137, -0.01556168313086327, 0.040076966111797223, -0.022218947006474851], [0.53610579483715426, -0.76481498178169882, -0.42504257495960551, 0.10683599097868635, 0.046701420233961365, -0.092665105962594294, 0.17914904900391199, 0.046792249665489415, -0.04315762311380382, 0.20276504886695762, -0.1054808861466915, -0.031395258799926093, 0.066587362240856374, -0.12322143370569481]], [[-0.58718118443665057, 1.5549826111122405, -0.51086636313259182, -0.16893500803136036, 0.41581385214879341, -0.51405160485258972, 0.40859417150383137, -0.35663095597580724, 0.28009434018875518, -0.0822863702818869, -0.060773727643269708, 0.17754562541156865, -0.14327288841705688, 0.065924819791460601], [-0.65709972741417133, 0.85433304561431644, -0.46780803147889238, -0.4533710404826265, 0.6888574283616502, -0.15903031914338628, -0.42733685131186611, 0.40043855821545626, -0.1646491396252546, 0.15396527350263395, -0.12678728642529286, 0.21622371350783645, -0.12974684040751039, 0.058725580852685706], [0.016559801083225429, 1.0522220774473876, 0.027179568229946761, -0.077805151499369257, 0.14484378040433926, 0.1695366189058182, -0.49069759492219706, -0.054336947702999711, 0.41218316125825616, -0.42684682064980228, 0.34935535055466077, -0.090453523030538774, 0.029816699196567164, 6.0224291121034585e-05], [0.060526881505935388, 0.79298794941617623, -0.038972049523251881, 0.0075387214113863503, 0.046906314485364094, 0.22535387062812146, -0.22829383603147022, -0.10228103419381399, 0.095102891818997712, -0.040017585179733139, 0.035636323269538153, 0.05381533099272745, -0.040363045708419601, 0.008112479034351602], [0.038291841360419993, 0.76982295102496767, -0.45340843137008818, -0.5143036142746289, -0.36767498523930436, -0.009124721015264306, 0.17004096229287807, 0.10673013996499277, -0.16305878378532412, 0.0060147150177079656, 0.17471013544375363, -0.36447059207791299, 0.29549137428130262, -0.10593574444627417], [-0.28657039219972075, 0.401079841790074, 0.26330172441523531, 0.81003937206427135, 0.25420552637846777, 0.21565098223230186, -0.21518559540722645, -0.56718487748491964, 0.41314164549083487, 0.43174571362747183, -0.12814995307967395, -0.002252247164614057, -0.22071134704385387, -0.33088741414459449]], [[0.47637664147221437, -0.26771421537388396, 1.1739238932821474, -0.11815302308260672, 0.21286593257036704, 0.16578612485641073, -0.68037129304118837, 0.67133770351603705, -0.59362912529859757, 0.47081361384047776, -0.30757936302150368, 0.057968120292632284, 0.0068977274950320858, -0.11188803980648454], [0.054957552838917137, 0.19155477105758886, 0.97553769902603304, -0.11589625222124592, 0.17686847953105228, -0.0041857603199335755, -0.068190028030487237, -0.077096919899290337, -0.42732436495608073, 0.21802699987354993, 0.031744922757518834, -0.1322673587923324, 0.20472324565735031, -0.084788698585308034], [0.023075229082102786, -0.35910956019436585, 0.9174066728928888, 0.0049312043555623805, -0.25969275793016594, -0.027133456580524368, -0.095049291714521422, -0.037062614209798353, 0.065581406071796286, 0.06540070485986399, 0.032231695018603075, -0.041448260033988348, 0.060783518465568565, -0.066085831499797965], [-0.062448051367386626, -0.020978182011892332, 0.63066410595267641, 0.071659049578094838, 0.30437844009592768, -0.24213110363143497, 0.20560092848013217, -0.13150534289905066, -0.33203590258812721, 0.43553446523987449, -0.17220175944344526, 0.060013717161236109, 0.010462906091151063, 0.0041549553083456972], [0.10509971713242189, 0.16290987863439463, 1.1794651799926206, 0.20387963266299536, 0.37205765491435894, 0.19953694541188671, -0.26323894668949405, -0.13908379393992548, 0.0082153219157540189, -0.073491296861666708, 0.05549896397245388, -0.0096123429120362688, 0.0092053114226872818, 0.015283005015684088], [8.3967818503345265e-05, -0.00037704116578817805, 0.99779915589401003, -0.0008376488689759026, 0.00054426029222958696, 0.00043329130950369143, 0.00047725178074037241, 0.00086925557861949204, 0.0018819650846873467, -0.00077055851650370717, -0.001780682418023828, -0.002018297640018458, -0.00058944653045318862, -0.00074048475203703043]], [[0.81857067040828568, -0.24324295348787064, -0.37819929873276431, 1.5737806461400043, -0.61501782400886273, 0.094074126427253657, 0.38269616072179313, -0.91457012537955573, 0.85740624582163916, -0.45087253205392169, 0.058559170760831225, 0.16477042633482775, -0.14849652086767687, 0.025819966279203424], [-0.027399654292175488, -0.028939417159572385, -0.043365165954977927, 0.77123723655786725, -0.32277153592881441, -0.14626680624554458, 0.051981330023181178, 0.36415736660624665, -0.053098420749866961, -0.25725812721278074, 0.59391784865502961, -0.44958827299557974, 0.18416801243022887, -0.051361137939399705], [0.14290015046214072, -0.14186041644034469, -0.25193506289709133, 0.90374501383599748, -0.18714619720917589, -0.14808628767172485, 0.062677288226998071, 0.25886221036985352, 0.12958270711793968, -0.10330562228235141, 0.22715533844572522, -0.18823000495247447, 0.14528171493762954, -0.082993110129931574], [-0.2136373848634007, 0.18226983549073542, 0.25368184764610491, 0.95105864519869932, 0.31103723069905348, 0.08941550542235352, -0.38976184511445944, 0.24008490142517197, 0.081803889435507426, -0.33713954322962375, 0.26098898811141519, -0.10870743286364572, 0.015808411079675955, 0.06180164932916897], [0.23949554099104531, 0.073890801697218164, 0.093164428582420925, 1.0630598773696098, -0.17163206114495785, 0.26843417242683992, 0.38112024961187946, -0.036420599216730458, 0.097781891589232423, 0.059043385868717463, -0.045721571522858974, 0.042696129393303195, -0.094794411595917935, 0.0049686854042664767], [1.4643721433546261e-05, 0.0002058401878510348, -0.00058516799716639952, 0.99686432587257001, -0.0011893414935485176, 0.00068836111455022723, 0.00040637909986785775, 0.00061293444001294327, 0.00082728866615188682, 0.00076803594832316427, 0.0014742348623166209, 0.0035452723669962289, -0.00041663628732510529, -0.0027583319702830763]], [[-0.22671988603908011, 0.066553579350491651, -0.23301489452146837, -0.0077426667478642484, 0.90422612938536873, -0.66191988363426635, 0.25230110690301294, -0.03740757452867418, 0.011106719584010633, 0.53890381334059234, -0.616035690320763, 0.78225263374506859, -0.5293102747862628, 0.21084783798084644], [0.19558319636188762, -0.40703991454415095, -0.24948295576702795, 0.031857106389105903, 0.6432278390305306, -0.067617734004011984, -0.26869835704079936, -0.1558170117395834, 0.43642710805264823, -0.55451175427375021, 0.53649546036596063, -0.11160662222499709, 0.079377440328060614, 0.071127108672821071], [0.16189300345361038, 0.3345640897077945, -0.098594298273162392, -0.006755923813353471, 0.97376944173387914, -0.62478052249826133, 0.11241922307929159, 0.20556631366904221, -0.37454335663473864, 0.39177100040528201, -0.0042269577673931802, 0.068720981167545866, 0.17456461079680133, -0.11234766125506418], [0.29612991812841627, -0.18376352830293866, 0.10591552616134027, 0.30345444432744573, 0.63495581678913782, 0.21457140887563092, 0.22158495942675246, -0.47733946585682058, 0.28516891157939805, -0.034215481954357051, -0.35800185866554202, 0.42927044425700944, -0.1618471914075979, 0.085720348742074431], [2.3009208455534446e-05, 5.1990623814293802e-05, 0.00034323068097005512, -0.0008908875667793841, 0.99574156956847171, -0.0015899767271712261, 0.00084246566881712032, 0.00047156972597302624, 0.00092913703306397833, 0.00082486382940479962, 0.00078845129497399414, 0.00099376037966089951, 0.0011214642755100574, 0.0022511284192006406], [2.3009208455469587e-05, 5.1990623815165053e-05, 0.00034323068097340113, -0.00089088756679591135, 0.99574156956862958, -0.0015899767272041974, 0.00084246566876012327, 0.00047156972597397616, 0.0009291370330549376, 0.000824863829415117, 0.00078845129496511062, 0.00099376037963098745, 0.0011214642755273719, 0.0022511284191820634]], [[0.02251946184452237, -0.62014580618846316, -0.16350396850314949, -0.055856506268223236, -0.44142863758696244, 0.80773590565627296, -0.24409686103358638, -0.04768683902613581, 0.017052023441460701, 0.21792723803678357, -0.42590994471305127, 0.67905775371050892, -0.42299596031424574, 0.31066385388317702], [0.023795382752735569, -0.35757096849280146, -0.3403874429812353, 0.15384591907559494, -0.22288029617204025, 0.47716058393675609, -0.011682206943328166, -0.30212152485836435, -0.16242787220533564, 0.50674546753894356, -0.75135720275815254, 0.65635333006619001, -0.28580062195204892, 0.15447357096202211], [0.34359248033987128, 0.18479194205123717, 0.059166783993889485, 0.017967769690689014, -0.088254498857997382, 0.97091316064624955, -0.093387494055404363, -0.012925285605267798, 0.051465833164767875, 0.038639252145585889, -0.025167226516500173, -0.25963431671753329, 0.36004777887108408, -0.15664610504471621], [0.072876729109587035, 0.090979228499464979, 0.041868665873907827, 0.033997167824015767, -0.061360952490870736, 0.97333779209338167, 0.26389776386321417, 0.19003616759680411, 0.025112614659933488, 0.011551353804254682, -0.20370253722996767, 0.13336888364819918, -0.14689346214415289, -0.16488538463712935], [3.139251465700694e-05, 8.5651314234915605e-05, 7.2112021095279918e-05, 0.00047433413922615196, -0.0010971969913937695, 0.99443018900475078, -0.0023618527649862447, 0.00097859726245718239, 0.00055573659150976926, 0.00090955504864343134, 0.00090400510378779817, 0.00097590874920804916, 0.0013988994871372428, 0.001298594509383511], [3.1392514657566706e-05, 8.565131423784924e-05, 7.2112021093818034e-05, 0.00047433413922719312, -0.0010971969913498923, 0.99443018900461266, -0.0023618527649987659, 0.00097859726246316914, 0.00055573659150695987, 0.00090955504860955837, 0.00090400510377218024, 0.00097590874923947379, 0.0013988994871185559, 0.0012985945093410957]], [[0.25347952020757614, 0.26621226598748815, -0.13030715402272991, -0.11884466494704875, -0.033883659298543339, -0.27730648084749265, 0.69627954131654868, -0.21828591023469254, 0.13911387453155907, 0.26119934254717325, 0.010988097444164296, -0.066564280501975701, -0.02524024345719484, 0.056801279138819792], [0.050592919443520346, 0.018397339560210321, -0.034906426657477119, -0.15149299081413053, -0.25055463429300945, -0.31027017146637553, 0.57810680127466152, -0.25763841960459322, -0.10027108718974415, -0.35260433501180466, -0.34453010658045918, 0.0066086538075674555, 0.19117689066987134, -0.035220294064827289], [-0.028427800263277944, -0.18666057401900946, -0.069560837005512619, 0.17507450185044915, 0.14388790450966157, -0.015843408348715601, 0.76458841750413964, -0.049742813542630063, 0.22996217465381394, -0.38787158320217441, -0.52714024613747401, 0.15530134439950924, 0.10978778429963666, 0.112477537806733], [1.9802830796896801e-05, 1.914788685319178e-05, 0.0001043295242138899, 0.00013412860144525426, 0.00066822455168736032, -0.0016923772329859761, 0.99291577767373518, -0.0025963937708107913, 0.0012726909592158363, 0.00075807137314504495, 0.0014476979535440835, 0.0011736092765395247, 0.0013048323176378523, 0.0013758999938187988], [1.9802830796618273e-05, 1.9147886853587178e-05, 0.00010432952421445223, 0.00013412860143668573, 0.00066822455168359391, -0.0016923772329741351, 0.99291577767353234, -0.0025963937708105497, 0.0012726909591964498, 0.00075807137310282221, 0.0014476979535131677, 0.0011736092765524686, 0.0013048323177060975, 0.0013758999937869575], [1.980283079594168e-05, 1.9147886852932046e-05, 0.00010432952421570433, 0.00013412860144084197, 0.00066822455167549622, -0.0016923772330341234, 0.99291577767393757, -0.0025963937708464073, 0.0012726909592499591, 0.00075807137313106546, 0.001447697953540631, 0.0011736092765390997, 0.0013048323176846552, 0.0013758999938524911]], [[0.010752197361526191, -0.099957926315153614, -0.11805854352819675, 0.12797373188031411, 0.2120713119151709, -0.12721759530815036, -0.34405867375913585, 0.9482844769155514, 0.1584596235968615, 0.1973133903806514, 0.37846270314058628, 0.0006439841170035709, -0.24505648490104887, 0.16590133230501833], [-0.11270129333465759, 0.016860067222010614, 0.21694882712288288, 0.16301867477436016, 0.025061133234873585, -0.17599840801979771, -0.36164796206796462, 0.75423764595977927, -0.069647544326569041, -0.21730701983661327, -0.34910390569441524, 0.080600404454156033, -0.086795928314701704, 0.0064384583229277958], [0.064837741502089624, 0.080659243568859493, 0.069213374505285641, 0.0072185785531346013, -0.085669608553814794, -0.088250625767477359, -0.05618578005432201, 0.87121582579962253, -0.18086330884452678, -0.0043028960952817934, -0.0058891974195808584, -0.13648777485873403, 0.31061085952935147, 0.13213196389601004], [4.1009212052792919e-06, 4.6873115298100558e-05, 4.502645514574756e-05, 0.00021662858285049911, 0.00026486193179369794, 0.00090259556743768415, -0.0021700672101500479, 0.99121951295322797, -0.0033240307016648607, 0.0011649832437341345, 0.00037745617425717431, 0.0010835713449885446, 0.00067190728528619388, 0.00055778377319072245], [4.1009212051959642e-06, 4.6873115298449807e-05, 4.5026455145198568e-05, 0.00021662858285421949, 0.00026486193178543459, 0.00090259556741474492, -0.0021700672101044615, 0.99121951295331756, -0.0033240307017932077, 0.0011649832437415513, 0.00037745617424360438, 0.0010835713449998537, 0.00067190728529715603, 0.00055778377322059655], [4.1009212052345084e-06, 4.687311530049611e-05, 4.5026455144814008e-05, 0.00021662858285326808, 0.00026486193179083137, 0.00090259556745826415, -0.0021700672100549104, 0.99121951295341937, -0.0033240307017794678, 0.0011649832437368385, 0.00037745617424766992, 0.001083571345003838, 0.0006719072853065758, 0.0005577837732144848]], [[0.022811682690541051, -0.00037907418250336206, 0.01281500705175116, -0.13812493855224781, -0.33086287814852866, -0.19572949944695525, -0.0083865531378858101, -0.12793231508944616, 0.71652866357245282, -0.095691645836790531, -0.017569388079554382, 0.051054693522168952, -0.21908872363611909, -0.10252025258317973], [0.087218205999778795, 0.056841658324884033, -0.0095228734775501568, -0.0094039929767708551, -0.074069532118131179, -0.065677821377122358, 0.020567303143468708, -0.045672340379093623, 1.0079687731648364, 0.087129392978812115, -0.0087505839725432379, 0.19326199012684628, -0.14869709202004264, -0.058350033144735129], [8.2112439845814175e-06, 2.1218166832504038e-05, 8.3661881475556729e-05, 0.00013275605577534887, 0.00042113570669843653, 0.00033361231633771059, 0.0008561097336929345, -0.0029373586075154279, 0.98932848001347784, -0.0037671771484000622, 0.0019029367824986965, 0.000442695230145849, 0.00057611506126948697, 0.00050968581070976533], [8.2112439847991372e-06, 2.1218166832646848e-05, 8.3661881476750273e-05, 0.00013275605577662026, 0.00042113570671203487, 0.00033361231634217604, 0.00085610973365710032, -0.0029373586074348257, 0.98932848001387264, -0.0037671771486240371, 0.0019029367825432139, 0.00044269523014953127, 0.00057611506126774401, 0.00050968581073193152], [8.2112439846740897e-06, 2.1218166832779602e-05, 8.3661881476856741e-05, 0.00013275605577834488, 0.00042113570670981946, 0.0003336123163426687, 0.0008561097336785505, -0.0029373586074854371, 0.98932848001422991, -0.0037671771484764438, 0.0019029367825113574, 0.00044269523015102308, 0.00057611506128677414, 0.00050968581073150576], [8.211243984826493e-06, 2.1218166832170748e-05, 8.3661881476012473e-05, 0.00013275605577372512, 0.00042113570670266768, 0.00033361231634131073, 0.00085610973366571355, -0.0029373586074899235, 0.9893284800137101, -0.0037671771484879893, 0.0019029367825105197, 0.00044269523013829319, 0.00057611506128883066, 0.00050968581071509993]], [[0.047962745405148791, 0.10947054193571479, 0.019283508101301697, -0.076620581865097098, -0.062897324708010321, 0.023874322888829069, 0.19163051304442699, 0.13439599351762113, -0.1030342603767517, 0.72006087708021804, -0.1988367310899932, 0.24513046290754384, 0.068401544706365836, 0.17077225692155457], [0.11343372756463165, 0.21775690747381693, -0.0029929028321748576, -0.28892347040796601, -0.15025053686924747, 0.03295397482975114, 0.090232810962689938, 0.14822934015707653, -0.030909489086326267, 1.0021954759889402, 0.16318395875966951, -0.074711185013673617, 0.018234355928908583, -0.13903061206393502], [7.2714852867900513e-06, 1.4553373727603726e-05, 2.5510854728423206e-05, 0.0001533604349579093, 0.0001390503316164487, 0.00031301788621930287, 0.00042051649188855822, 0.0012413210452068403, -0.003406402139527209, 0.98723625757436684, -0.004867103901490864, 0.0015786115950632844, 0.00049307598649488431, 0.002120403573384172], [7.2714852867271379e-06, 1.4553373728150158e-05, 2.5510854727713507e-05, 0.00015336043496706658, 0.00013905033161293212, 0.00031301788621756213, 0.00042051649188636119, 0.0012413210452267222, -0.0034064021395674095, 0.98723625757435751, -0.0048671039014006106, 0.0015786115950823605, 0.00049307598650613421, 0.0021204035733035837], [7.2714852869040941e-06, 1.4553373727682832e-05, 2.5510854728248348e-05, 0.00015336043496043842, 0.0001390503316154034, 0.00031301788622250962, 0.00042051649187500905, 0.0012413210451934847, -0.0034064021394722517, 0.98723625757478084, -0.0048671039012487842, 0.0015786115950864417, 0.00049307598649432941, 0.0021204035733071295], [7.2714852870020908e-06, 1.4553373728078757e-05, 2.5510854727521756e-05, 0.00015336043496275449, 0.00013905033161315934, 0.00031301788622518109, 0.000420516491874467, 0.001241321045229885, -0.003406402139694968, 0.98723625757432865, -0.0048671039013821436, 0.0015786115950888779, 0.00049307598649616898, 0.0021204035733356592]], [[0.0097397672077553336, -0.022924301755122983, 0.077733652550980414, 0.16054273088361043, 0.11144230572306804, 0.13654148114711392, 0.15259116485311428, 0.27053431024616137, 0.26900612069494351, -0.092737989378441604, 0.74976148569177681, -0.29129030999147437, 0.14788517383987793, 0.23919683785016779], [-1.3643766908747458e-05, -4.1298823341394069e-05, 8.1284594011689246e-05, 9.9790921392556116e-05, 0.00011760995019353315, 0.00019157775566117704, 0.00060336666767179582, 0.00033880445750772485, 0.0010912530388079926, -0.0043520838010166008, 0.98494294123273762, -0.0054360989729016155, 0.0024856209147848004, 0.00092651029061108995], [-1.3643766909015937e-05, -4.1298823342798382e-05, 8.128459401392811e-05, 9.9790921393821082e-05, 0.00011760995019286302, 0.00019157775566904311, 0.0006033666676833249, 0.00033880445750626752, 0.0010912530388211801, -0.0043520838009161967, 0.98494294123276527, -0.0054360989728700921, 0.002485620914811719, 0.00092651029060772296], [-1.3643766909326251e-05, -4.1298823342354632e-05, 8.1284594013366235e-05, 9.9790921391857998e-05, 0.00011760995019262022, 0.00019157775567086051, 0.00060336666769800369, 0.00033880445750688188, 0.0010912530388193841, -0.0043520838009591068, 0.98494294123274628, -0.0054360989729359257, 0.0024856209148758843, 0.00092651029061634931], [-1.3643766908904711e-05, -4.1298823342290691e-05, 8.1284594013841983e-05, 9.9790921393822478e-05, 0.00011760995019326998, 0.00019157775565294374, 0.00060336666769048768, 0.00033880445750266, 0.0010912530388336042, -0.0043520838009429826, 0.98494294123295445, -0.0054360989728728338, 0.0024856209148646879, 0.00092651029062596011], [-1.3643766909433917e-05, -4.129882334085806e-05, 8.1284594012711309e-05, 9.9790921393079325e-05, 0.00011760995019217291, 0.00019157775566280125, 0.0006033666676745975, 0.00033880445751560884, 0.0010912530388509805, -0.0043520838010157785, 0.98494294123265014, -0.0054360989728577946, 0.0024856209148278294, 0.00092651029060004486]], [[0.015413363561069942, 0.024811379677497608, 0.078382100247152045, 0.030530684076330684, -0.069395578144509251, 0.022241749890232893, 0.10608410001066303, 0.041749801105975669, -0.059089126900027121, -0.16853417535606471, -0.12670253852253058, 0.84781525757943987, -0.40445195158301467, 0.33627286308180016], [6.8969679430389293e-06, 2.579048643293166e-05, 2.2559044839572253e-05, 5.0636545958904511e-05, 0.00021814181036294185, 0.00047415027299678843, 0.00019791692641303306, 0.00027413315639453938, 0.00012951429727803255, 0.0011477864870371587, -0.0052742235888268126, 0.98250823825255384, -0.0061765797973009915, 0.0029940536715335319], [6.8969679429318253e-06, 2.5790486432593229e-05, 2.2559044839001055e-05, 5.0636545959107019e-05, 0.00021814181036220384, 0.00047415027299285982, 0.00019791692641427696, 0.00027413315639225605, 0.0001295142972778282, 0.0011477864870705968, -0.0052742235889491939, 0.98250823825280309, -0.0061765797975042031, 0.0029940536714757079], [6.8969679429769976e-06, 2.5790486432795277e-05, 2.2559044839827833e-05, 5.0636545958751889e-05, 0.00021814181036245976, 0.00047415027299045848, 0.0001979169264104216, 0.00027413315640130253, 0.00012951429728310859, 0.0011477864870650736, -0.0052742235888129756, 0.98250823825210487, -0.006176579797353322, 0.0029940536715406946], [6.8969679430901815e-06, 2.5790486432631156e-05, 2.2559044839622048e-05, 5.0636545959453435e-05, 0.0002181418103612348, 0.00047415027297471841, 0.00019791692641465557, 0.00027413315640347803, 0.00012951429727415528, 0.0011477864870902369, -0.0052742235888782532, 0.98250823825261557, -0.0061765797973996331, 0.0029940536715368678], [6.8969679429416357e-06, 2.5790486432924772e-05, 2.2559044839677183e-05, 5.0636545959870901e-05, 0.00021814181035990809, 0.0004741502729909146, 0.00019791692642018351, 0.00027413315640495488, 0.0001295142972785035, 0.00114778648704715, -0.0052742235889230481, 0.98250823825284239, -0.0061765797973702642, 0.0029940536715926227]]], prehc: 10000, lambdahc: 1, rcut: 8, dcut: 0.001, rcut_in: 2.0647862824590262, dcut_in: 0.10000000000000001, inner_cutoff_type: distance}
  [0, 1]: {nradmax: 8, lmax: 3, nradbasemax: 10, radbasename: SBessel, radparameters: [10], radcoefficients: [[[2.7816688963779281, -2.4580724243050285, 1.9861158485468444, -1.4467181030339069, 1.2432455022589626, -0.91765481047406583, 0.51852606544921165, -0.16360733828573568, 0.045517728625848707, 0.0058787296962642894], [1.8079735554871452, -0.56268200202944552, -0.59505677059811424, 0.78105729035635196, -0.42824241298657056, 0.1374100304175675, -0.1422636487950957, 0.14457624040027564, -0.051668260668486801, 0.034478381473721176], [1.2543176761150687, -0.38413281346340872, -0.28312960599784692, 0.2240659194609462, 0.47366547029531286, -0.80412671825112703, 0.64976121133038101, -0.30294939512008917, 0.10312374627406957, -0.0080023533705979328], [0.45642628747497299, 0.32691188359989537, -0.28442984000888244, -0.44241945601036364, 1.0053120922759313, -0.97699382067762364, 0.38034887864147376, -0.051955397053052507, -0.012230505895382124, 0.091982954102270711]], [[-1.6336617733875356, 2.5357438113183854, -1.7166617377579136, 0.85325800406388774, -0.015296868850906923, -0.23886547526334914, 0.14064166159384098, -0.0029371798623993436, 0.023872027665126718, 0.011746791648346503], [0.20360951197388683, 0.13974528378845391, -0.016679093630196189, -0.58190587216805478, 0.50988391116521536, 0.22809725700123343, -0.91753302361051747, 0.87573807852876706, -0.40558603042577296, 0.17422508758150446], [1.1447756331961569, -0.40006630177983787, -0.2391130103476215, 0.49135078203989979, -0.897678483635723, 1.337318686090458, -1.8324544496512574, 1.5384142620038725, -0.69862807621436207, 0.33589969797525993], [1.0569818368370674, 0.0824628243652549, -0.096503088727834016, 0.27336073716740661, -0.75142596399458084, 1.1346774806881901, -1.4076408193518148, 0.77003384737372726, -0.42790757060282214, 0.22856829196288603]], [[0.30007862254369605, -0.3446076996592084, 1.674242514129997, -1.0483038525681794, 0.79541937327709378, -0.25562642673637498, 0.13276625317189833, 0.23441768741297661, -0.0095839824908317706, 0.052914094000338981], [-0.29310732765028891, -0.03004577182637775, 0.95384222659686146, -0.22638249182434939, -0.12021530223321705, 0.62818215768687158, -0.36317226879910686, -0.22359868892788529, 0.240382048753012, -0.11515453718489334], [-0.27312113278725603, -0.85053132354513028, 0.35927714672997696, 0.12114683832114954, 0.066677631004481749, -0.20958861965906739, 0.052699700700125814, 0.24150171761947073, -0.11325604696722667, 0.090329942267787525], [0.00016793563700815445, -0.00075408233154932358, 0.99559831178812608, -0.0016752977379625607, 0.0010885205844877743, 0.0008665826189972781, 0.00095450356145812521, 0.0017385111572355402, 0.0037639301695009111, -0.0015411170330333311]], [[0.35826622321899981, 0.33505957772123263, -0.7268939163074194, 1.3820659159197159, -0.47639893155078344, -0.051214675213294508, 0.6008092704243867, -0.28327527154718435, 0.23311792610242274, 0.015771699565529575], [0.59607046698189114, 0.1016533647083693, -0.22480526812150231, 0.65109899860236664, 0.28620898150451607, -0.59526628049702301, 0.24532479853149813, 0.070911884279678275, -0.098066714636206809, 0.0074048448278244503], [0.29972065968999723, 0.2261069070000854, 0.20792823491946061, 0.79711022564994061, -0.39672620450895352, 0.38408053008068727, -0.052927762745599488, -0.14518056993217673, 0.019854237758682322, -0.044554039730634383], [2.9287442867182846e-05, 0.00041168037570743168, -0.0011703359942792689, 0.99372865174534619, -0.0023786829870628113, 0.0013767222291000589, 0.00081275819972742146, 0.001225868880019169, 0.001654577332260697, 0.0015360718966987616]], [[-0.46268373608571434, -0.15969399533446735, -0.042841303865760294, -0.3995713045479875, 1.0584262691863984, -0.44123917423511966, 0.11605376290146809, 0.50086300271584827, -0.22077521023644173, 0.3897258331146925], [-0.33233027242418489, -0.22204424219417279, -0.3437496279897167, -0.2317563988877572, 0.6939620963756532, -0.23696705146313837, -0.19433063984486279, 0.37380326205349568, -0.04928248786208491, 0.0034831496275316812], [4.6018416910554086e-05, 0.00010398124762962601, 0.00068646136192941068, -0.0017817751335100795, 0.99148313913721997, -0.0031799534543832395, 0.0016849313375445099, 0.00094313945191675701, 0.0018582740661025477, 0.0016497276588150484], [4.6018416910552202e-05, 0.00010398124762684558, 0.00068646136192536357, -0.0017817751335669171, 0.99148313913704722, -0.0031799534543743013, 0.0016849313375407265, 0.00094313945191362659, 0.0018582740661131742, 0.0016497276588231754]], [[0.0039236961456260658, -0.33239065068538975, 0.37486309904467252, -0.11552640363440715, -0.12991225516735502, 1.1470080121024517, -0.42933018607675105, 0.17552971634443279, 0.18139398256887473, 0.19578083011134492], [-0.36675615493069308, -0.64758850112018984, -0.19575469503018331, -0.115828187307274, -0.45471397073261483, 0.70114855472836568, 0.26630762415934761, -0.22049511813602204, 0.32148504281786472, -0.028064451325519345], [6.2785029313403934e-05, 0.00017130262847114982, 0.00014422404218678673, 0.00094866827841359074, -0.0021943939827745521, 0.98886037800913751, -0.0047237055300666936, 0.0019571945249464546, 0.0011114731829587666, 0.0018191100972839518], [6.2785029315811459e-05, 0.00017130262846858129, 0.00014422404219162141, 0.00094866827843767966, -0.0021943939828275418, 0.98886037800906545, -0.0047237055301691672, 0.0019571945248987358, 0.0011114731830254596, 0.0018191100972667258]], [[0.16249849500249511, -0.13941244253013096, -0.49788891384094741, 0.2366024504919553, -0.11581320663818034, -0.29453802539645624, 0.74244992039746893, -0.01957635603685463, 0.16430004078174987, 0.096491000537772473], [3.8855221923986349e-05, 3.5810256291824417e-05, 0.00020359994256842668, 0.00026060697056623489, 0.0013275782909853021, -0.0033917653399371901, 0.98583113211886242, -0.0051807716070458396, 0.0025758381374552165, 0.0015698687498366956], [3.8855221925682597e-05, 3.5810256292361626e-05, 0.00020359994257216775, 0.00026060697056391882, 0.0013275782909522547, -0.0033917653399703918, 0.98583113211946793, -0.0051807716072001754, 0.0025758381374494446, 0.001569868749881975], [3.8855221923849028e-05, 3.5810256292186161e-05, 0.00020359994256434076, 0.00026060697055621009, 0.0013275782909420847, -0.0033917653399240886, 0.98583113211905771, -0.0051807716069511185, 0.0025758381374893728, 0.0015698687498715532]], [[-0.25274377713310986, -0.030189263557844619, 0.21774461314070068, -0.30926736127196602, 0.12548044323563956, 0.01587042301880446, -0.0493462366457516, 0.18018033147434626, -0.029209176443577636, 0.10470841448053038], [8.2336931946852134e-06, 9.3702619110639361e-05, 8.9846177505388785e-05, 0.00043414352433911321, 0.00052789032095676414, 0.0018076558521235399, -0.0043421409254763531, 0.98243902743651201, -0.00664487549420382, 0.0023237401711302058], [8.2336931946633972e-06, 9.3702619108328912e-05, 8.9846177507046083e-05, 0.00043414352432921943, 0.00052789032095685966, 0.0018076558521208849, -0.0043421409256030087, 0.98243902743541112, -0.0066448754939696705, 0.0023237401710982353], [8.233693194886548e-06, 9.3702619107463204e-05, 8.9846177503272246e-05, 0.00043414352431807811, 0.00052789032096548958, 0.0018076558521344975, -0.0043421409255621326, 0.98243902743648404, -0.0066448754941468621, 0.0023237401711424261]]], prehc: 10000, lambdahc: 1, rcut: 8, dcut: 0.001, rcut_in: 2.0647862824590262, dcut_in: 0.10000000000000001, inner_cutoff_type: distance}
  [1, 0]: {nradmax: 8, lmax: 3, nradbasemax: 10, radbasename: SBessel, radparameters: [10], radcoefficients: [[[2.7816688963779281, -2.4580724243050285, 1.9861158485468444, -1.4467181030339069, 1.2432455022589626, -0.91765481047406583, 0.51852606544921165, -0.16360733828573568, 0.045517728625848707, 0.0058787296962642894], [1.8079735554871452, -0.56268200202944552, -0.59505677059811424, 0.78105729035635196, -0.42824241298657056, 0.1374100304175675, -0.1422636487950957, 0.14457624040027564, -0.051668260668486801, 0.034478381473721176], [1.2543176761150687, -0.38413281346340872, -0.28312960599784692, 0.2240659194609462, 0.47366547029531286, -0.80412671825112703, 0.64976121133038101, -0.30294939512008917, 0.10312374627406957, -0.0080023533705979328], [0.45642628747497299, 0.32691188359989537, -0.28442984000888244, -0.44241945601036364, 1.0053120922759313, -0.97699382067762364, 0.38034887864147376, -0.051955397053052507, -0.012230505895382124, 0.091982954102270711]], [[-1.6336617733875356, 2.5357438113183854, -1.7166617377579136, 0.85325800406388774, -0.015296868850906923, -0.23886547526334914, 0.14064166159384098, -0.0029371798623993436, 0.023872027665126718, 0.011746791648346503], [0.20360951197388683, 0.13974528378845391, -0.016679093630196189, -0.58190587216805478, 0.50988391116521536, 0.22809725700123343, -0.91753302361051747, 0.87573807852876706, -0.40558603042577296, 0.17422508758150446], [1.1447756331961569, -0.40006630177983787, -0.2391130103476215, 0.49135078203989979, -0.897678483635723, 1.337318686090458, -1.8324544496512574, 1.5384142620038725, -0.69862807621436207, 0.33589969797525993], [1.0569818368370674, 0.0824628243652549, -0.096503088727834016, 0.27336073716740661, -0.75142596399458084, 1.1346774806881901, -1.4076408193518148, 0.77003384737372726, -0.42790757060282214, 0.22856829196288603]], [[0.30007862254369605, -0.3446076996592084, 1.674242514129997, -1.0483038525681794, 0.79541937327709378, -0.25562642673637498, 0.13276625317189833, 0.23441768741297661, -0.0095839824908317706, 0.052914094000338981], [-0.29310732765028891, -0.03004577182637775, 0.95384222659686146, -0.22638249182434939, -0.12021530223321705, 0.62818215768687158, -0.36317226879910686, -0.22359868892788529, 0.240382048753012, -0.11515453718489334], [-0.27312113278725603, -0.85053132354513028, 0.35927714672997696, 0.12114683832114954, 0.066677631004481749, -0.20958861965906739, 0.052699700700125814, 0.24150171761947073, -0.11325604696722667, 0.090329942267787525], [0.00016793563700815445, -0.00075408233154932358, 0.99559831178812608, -0.0016752977379625607, 0.0010885205844877743, 0.0008665826189972781, 0.00095450356145812521, 0.0017385111572355402, 0.0037639301695009111, -0.0015411170330333311]], [[0.35826622321899981, 0.33505957772123263, -0.7268939163074194, 1.3820659159197159, -0.47639893155078344, -0.051214675213294508, 0.6008092704243867, -0.28327527154718435, 0.23311792610242274, 0.015771699565529575], [0.59607046698189114, 0.1016533647083693, -0.22480526812150231, 0.65109899860236664, 0.28620898150451607, -0.59526628049702301, 0.24532479853149813, 0.070911884279678275, -0.098066714636206809, 0.0074048448278244503], [0.29972065968999723, 0.2261069070000854, 0.20792823491946061, 0.79711022564994061, -0.39672620450895352, 0.38408053008068727, -0.052927762745599488, -0.14518056993217673, 0.019854237758682322, -0.044554039730634383], [2.9287442867182846e-05, 0.00041168037570743168, -0.0011703359942792689, 0.99372865174534619, -0.0023786829870628113, 0.0013767222291000589, 0.00081275819972742146, 0.001225868880019169, 0.001654577332260697, 0.0015360718966987616]], [[-0.46268373608571434, -0.15969399533446735, -0.042841303865760294, -0.3995713045479875, 1.0584262691863984, -0.44123917423511966, 0.11605376290146809, 0.50086300271584827, -0.22077521023644173, 0.3897258331146925], [-0.33233027242418489, -0.22204424219417279, -0.3437496279897167, -0.2317563988877572, 0.6939620963756532, -0.23696705146313837, -0.19433063984486279, 0.37380326205349568, -0.04928248786208491, 0.0034831496275316812], [4.6018416910554086e-05, 0.00010398124762962601, 0.00068646136192941068, -0.0017817751335100795, 0.99148313913721997, -0.0031799534543832395, 0.0016849313375445099, 0.00094313945191675701, 0.0018582740661025477, 0.0016497276588150484], [4.6018416910552202e-05, 0.00010398124762684558, 0.00068646136192536357, -0.0017817751335669171, 0.99148313913704722, -0.0031799534543743013, 0.0016849313375407265, 0.00094313945191362659, 0.0018582740661131742, 0.0016497276588231754]], [[0.0039236961456260658, -0.33239065068538975, 0.37486309904467252, -0.11552640363440715, -0.12991225516735502, 1.1470080121024517, -0.42933018607675105, 0.17552971634443279, 0.18139398256887473, 0.19578083011134492], [-0.36675615493069308, -0.64758850112018984, -0.19575469503018331, -0.115828187307274, -0.45471397073261483, 0.70114855472836568, 0.26630762415934761, -0.22049511813602204, 0.32148504281786472, -0.028064451325519345], [6.2785029313403934e-05, 0.00017130262847114982, 0.00014422404218678673, 0.00094866827841359074, -0.0021943939827745521, 0.98886037800913751, -0.0047237055300666936, 0.0019571945249464546, 0.0011114731829587666, 0.0018191100972839518], [6.2785029315811459e-05, 0.00017130262846858129, 0.00014422404219162141, 0.00094866827843767966, -0.0021943939828275418, 0.98886037800906545, -0.0047237055301691672, 0.0019571945248987358, 0.0011114731830254596, 0.0018191100972667258]], [[0.16249849500249511, -0.13941244253013096, -0.49788891384094741, 0.2366024504919553, -0.11581320663818034, -0.29453802539645624, 0.74244992039746893, -0.01957635603685463, 0.16430004078174987, 0.096491000537772473], [3.8855221923986349e-05, 3.5810256291824417e-05, 0.00020359994256842668, 0.00026060697056623489, 0.0013275782909853021, -0.0033917653399371901, 0.98583113211886242, -0.0051807716070458396, 0.0025758381374552165, 0.0015698687498366956], [3.8855221925682597e-05, 3.5810256292361626e-05, 0.00020359994257216775, 0.00026060697056391882, 0.0013275782909522547, -0.0033917653399703918, 0.98583113211946793, -0.0051807716072001754, 0.0025758381374494446, 0.001569868749881975], [3.8855221923849028e-05, 3.5810256292186161e-05, 0.00020359994256434076, 0.00026060697055621009, 0.0013275782909420847, -0.0033917653399240886, 0.98583113211905771, -0.0051807716069511185, 0.0025758381374893728, 0.0015698687498715532]], [[-0.25274377713310986, -0.030189263557844619, 0.21774461314070068, -0.30926736127196602, 0.12548044323563956, 0.01587042301880446, -0.0493462366457516, 0.18018033147434626, -0.029209176443577636, 0.10470841448053038], [8.2336931946852134e-06, 9.3702619110639361e-05, 8.9846177505388785e-05, 0.00043414352433911321, 0.00052789032095676414, 0.0018076558521235399, -0.0043421409254763531, 0.98243902743651201, -0.00664487549420382, 0.0023237401711302058], [8.2336931946633972e-06, 9.3702619108328912e-05, 8.9846177507046083e-05, 0.00043414352432921943, 0.00052789032095685966, 0.0018076558521208849, -0.0043421409256030087, 0.98243902743541112, -0.0066448754939696705, 0.0023237401710982353], [8.233693194886548e-06, 9.3702619107463204e-05, 8.9846177503272246e-05, 0.00043414352431807811, 0.00052789032096548958, 0.0018076558521344975, -0.0043421409255621326, 0.98243902743648404, -0.0066448754941468621, 0.0023237401711424261]]], prehc: 10000, lambdahc: 1, rcut: 8, dcut: 0.001, rcut_in: 2.0647862824590262, dcut_in: 0.10000000000000001, inner_cutoff_type: distance}
  [1, 1]: {nradmax: 12, lmax: 5, nradbasemax: 14, radbasename: SBessel, radparameters: [10], radcoefficients: [[[1.5175104441485625, -0.71652456044025137, 0.1951312899395741, 0.40168626404828872, -0.3556234088764792, 0.22575138377734902, -0.10757013895536818, 0.043039349737347327, 0.029105629551935824, -0.047102780566261555, 0.071280047093495613, -0.028640767620446601, 0.020964357051124902, -0.0026002697153275525], [1.336424411983467, -0.47974273068648515, -0.44678711271784433, 0.5412223861454214, -0.14375088059128549, -0.21164183350609064, 0.24712791874065729, -0.18841425869287329, 0.17866571169886725, -0.060905544047165007, 0.054942641390627142, 0.00089507310620966273, -0.022560649950492936, 0.0068975886424956457], [1.2484762838265058, -0.42884222657597088, -0.31231986855005278, 0.58208937178231823, -0.0016011218668978194, -0.35276658805389954, 0.26323821155620103, -0.23795897199939373, 0.10510438217420558, -0.010366842106290283, 0.05154359604963471, -0.0069388324083954275, 0.0096347280440243939, -0.019614372265459246], [0.60111665764357858, -0.23858858707133584, -0.16810040224201997, -0.066472940406735348, 0.32082731790325358, -0.28108130060168973, -0.10240991238567394, 0.43125517263760355, -0.37101929280263674, 0.30269752570166358, -0.12265575306678742, 0.025476156000194781, -0.0066299350759950193, 0.0032757550529527173], [0.071080497261132178, -0.21033561937696846, 0.033616179615017609, -0.27945069401688427, 0.1989088608393334, 0.085014044230730723, 0.20028098747606837, 0.27294734012398997, -0.076334801132666219, 0.032281633298245974, -0.12252141077659549, 0.068084891264868233, -0.030337269179149685, 0.087218744479652999], [1.067847366806546, -0.90927462840858808, -0.086764641982851304, 0.20659721614449419, -0.4755878425652818, 0.2937038027423744, -0.25320552999601598, -0.075098913153591365, 0.46582830183971535, -0.50529728734425794, 0.49197714069262971, -0.29433656595479146, 0.094435573493738503, -0.0095610011345464447]], [[-0.68280336905742767, 1.0721966595355978, -0.21287578601032989, -0.1204959626884702, 0.27267747902252454, 0.0279064206302954, -0.10582999145287184, -0.10389484985513192, 0.34580862742967738, -0.4131762001596227, 0.33972447713280179, -0.13795721872169456, 0.074812116416222707, -0.010930118334410571], [-0.90823622749282218, 0.8022162940276848, -0.080811608618225853, -0.5302144677589502, 0.55625820216500244, 0.15625017411297049, -0.62970656903573008, 0.57304391590646719, -0.16101914088272459, -0.13788652238926935, 0.28406155527318794, -0.17122545588131488, 0.079432227786405366, -0.019049704672525935], [-0.09069963898822879, 0.47681772911457515, -0.40724098164067496, 0.29307798294921572, 0.047469287900686961, -0.058625162744969157, 0.094065922000563268, -0.31352987644088992, 0.12498985145714649, -0.023483973704363663, -0.003183501515016833, 0.084133525477284102, -0.011640379149673164, -0.0025434117230226563], [-0.28573549257182779, 0.46327153047111197, -0.21524968885517798, 0.18735957229780545, 0.020717764648611799, -0.048393147777953283, -0.27429872259461358, -0.27346077861473567, 0.30277626408423891, -0.16004269006653085, 0.23655020241000593, -0.005242714735454606, 0.037626250363636378, -0.036900053180521156], [0.27897798405764046, 0.46806258569274145, -0.72129164616703501, 0.53248777504008316, 0.31898284635650276, -0.69249469622010229, -0.26475218830325487, -0.040321540145104459, -0.24455845800915041, 0.0894031826166371, 0.14872807115961065, -0.11861553190338649, 0.026202523888897811, -0.071585340298812583], [0.23473747628080535, 1.3424066762542299, 0.55040038138693281, 0.16713996844413476, -0.33767442505500272, 0.63463347490998634, 0.97649954902659586, -0.31633842146500224, -0.25110610067929379, 0.28026578783122708, -0.44318723567579515, -0.16266230362362555, 0.27902159714000618, -0.21180966674721274]], [[-0.068262780135553425, -0.0040783729209837374, 0.92624724198759434, -0.63750753139484595, 0.37984483694431809, -0.068491786067508761, -0.50534799333570102, 0.89963404792609569, -0.68781205869660234, 0.40112931348340952, -0.10359734834386923, -0.1400686274155831, 0.063223894641946166, -0.045759135293536], [-0.29829581912309577, -0.41123128443849727, 0.54890912415931414, -0.46778324944339617, 0.058322451184026153, -0.040731183407519064, -0.086898368855248001, 0.55463083779044253, -0.092449646292599788, -0.14109716263345215, 0.29390980607886913, -0.40829460387955119, 0.084127421598974406, -0.035135687973464655], [-0.40479415963282794, -0.050775900189237506, 0.75103690017412694, -0.26077808510627815, -0.037975356996489879, -0.16892722647776465, 0.27627829279021121, -0.28077793117035243, -0.15814312865427815, 0.33030927529206877, -0.41031456790695531, 0.29205850222258994, -0.13533725538562014, 0.060656054555953548], [-0.45066899835658386, -0.1009495897008567, 0.8789748755744482, -0.38407344360397133, -0.01443170130409795, 0.0067670074033202559, 0.030788793902247719, -0.028591341256324069, -0.15697244717901021, 0.1668798611182907, -0.23008454178935403, 0.17373142368602301, -0.08325769129065512, 0.024822374358762556], [-0.35736811418698078, -0.7329799080295909, 0.16283645722713516, -0.69575322136247464, -0.5718893392395179, -0.62088905875764466, -0.67158150329883504, -0.52865867452716442, 0.1746927308491015, 0.71958541831473077, 0.051430957391327962, 0.14579012442513525, 0.22635900966724296, -0.30616657297561234], [8.3967818507160085e-05, -0.00037704116577640687, 0.99779915589404511, -0.00083764886897682992, 0.00054426029222281449, 0.0004332913094947794, 0.00047725178073734396, 0.00086925557864770721, 0.0018819650847083785, -0.00077055851651749779, -0.0017806824180702338, -0.0020182976400166721, -0.00058944653042709513, -0.0007404847520303035]], [[0.90359095865779082, -0.21797857586793346, -0.23913198490750451, 1.1394043856839908, -0.53479697099308432, 0.15703756283127918, 0.033515418222140436, -0.15476914591574267, 0.29163240008965746, -0.19711045261208149, 0.19922653908728394, -0.1644761358128867, 0.048866927588159421, -0.039313834280603498], [-0.43752661432205214, -0.058191547495986401, 0.15955944200263933, 0.55139996834500216, -0.54710663532721804, -0.17984350329130377, -0.11706910474093438, -0.033685831928778089, -0.0055765277531715394, 0.21129163995243161, -0.042557398292438153, -0.062542209259083367, -0.0023310115666542518, -0.067105512171437232], [0.29466959568910223, 0.16727827539467643, -0.099533384469312411, 0.5005415861909539, -0.26833070787852231, -0.035156089960170681, -0.25480587901698576, 0.12083685409893077, -0.18737470200882034, 0.16871621387913088, -0.012002091018698431, 0.013650461339691007, 0.0033535885996915553, -0.034826992268691515], [0.13039443929753697, 0.11015223004806912, -0.098016712017321567, 1.0518228365089084, 0.3932682450070592, 0.46038470059555703, 0.26975768852587084, -0.18373829799816804, -0.18459008194340829, 0.032737949838798776, -0.26496920753906611, 0.25120900305072319, 0.10176914237634398, 0.040045794039056039], [-0.11553177418569383, 0.36944244738603527, 0.43113753191806697, 1.0099795439528165, 0.39937644565842118, 0.71102666761402966, 0.087162892885226217, -0.27582826536160465, 0.021324515495230623, -0.14580375248740549, -0.35498539672621721, 0.34337010806490975, -0.43167678357457073, 0.17648751074766705], [1.4643721433239193e-05, 0.00020584018785087629, -0.00058516799714748127, 0.99686432587267892, -0.001189341493552249, 0.00068836111455105426, 0.00040637909987537089, 0.00061293444002711336, 0.00082728866614875142, 0.00076803594833857501, 0.0014742348623284776, 0.0035452723669828507, -0.00041663628733606901, -0.002758331970294561]], [[0.062428845663677762, 0.014203468369660984, -0.28165644997086786, -0.13726982557045289, 1.0904393860514332, -0.46756923442817955, -0.15951911344467187, 0.37665368323289017, -0.31268374251615649, 0.031986182390743301, 0.16926846716275967, -0.16802090460874253, 0.17017882631755379, -0.063754077855328939], [-0.14154489114882043, 0.21877551734668094, 0.38169254759175575, -0.11343712476791611, 0.82739397552057736, 0.080995223387195087, -0.00021444362783351465, -0.3162262150824719, -0.14157144543073386, 0.14411190033209645, -0.16624127747032777, 0.29689276375494961, -0.011156542252669155, -0.012126771880654006], [0.23358455817027368, -0.1157385540387029, -0.30140232577443893, 0.057085847883728801, 0.96280372774647449, -0.1993815085666541, 0.58602337567056473, 0.54932777520684639, -0.6274441106301557, 0.13848648693872509, 0.20766506146271951, -0.43074218279083948, 0.39093960188377597, -0.20583549151734118], [0.5517140874019576, 0.43248841471457095, 0.13272687105252637, -0.031079100548439435, 0.9402934912473917, 0.48799171618745046, 0.4357513358426926, -0.013751460001001269, -0.053214411203065658, -0.36568398542637059, 0.038378896710548317, -0.078358335650583671, 0.11440256467075124, 0.079051158316411838], [2.3009208455028978e-05, 5.1990623813258009e-05, 0.00034323068097351768, -0.00089088756673880013, 0.99574156956855364, -0.0015899767271199605, 0.00084246566877321176, 0.00047156972597754747, 0.00092913703308919286, 0.00082486382938736869, 0.00078845129497397332, 0.00099376037960247228, 0.00112146427550282, 0.002251128419154343], [2.3009208454836189e-05, 5.1990623814961311e-05, 0.00034323068096584982, -0.00089088756674324547, 0.99574156956859983, -0.001589976727181783, 0.00084246566875611844, 0.00047156972597266168, 0.00092913703304227304, 0.00082486382940678631, 0.0007884512949719926, 0.00099376037963733416, 0.0011214642754810542, 0.0022511284191704182]], [[-0.31875008875355271, 0.013406237609379017, 0.45977017420506844, -0.12837775419203193, -0.14150923122141223, 0.84198043405288092, -0.58168202290551807, -0.14684874296369191, 0.012340714149058841, 0.12282818077198798, -0.17745479996753705, 0.29039342886939024, -0.0046995396522143545, -0.012613545055999447], [-0.04028639737412288, 0.0075675751877802106, 0.18176308536161787, 0.21520254190796864, -0.075545358436381063, 0.83935650204672796, -0.15796815894420238, -0.26776473274192575, 0.13102112360577797, 0.1092949057841357, -0.28632069147091194, 0.467304146271665, -0.24320243648821929, 0.088933515845520714], [-0.58244236192707532, -0.049044530738773968, -0.052262016405055303, -0.16545229165488551, -0.0055072408022098177, 0.68760062484750095, 0.48086571753120838, 0.31483610779476023, -0.50648150999235064, 0.13158668853699526, 0.040699532643141946, -0.40603385270507086, 0.3920861997140187, -0.17063056846457328], [0.27633793439757448, 0.30086667527743294, -0.0020956703358464726, -0.13674993220060172, -0.08408286612374001, 1.0667571111910221, 0.024527243956949527, -0.4225465604690849, -0.22412508433752562, 0.079672845547150928, -0.32806030546472176, 0.24439708651842434, -0.075991278235890733, 0.04659654043268522], [3.1392514656936114e-05, 8.5651314234015013e-05, 7.211202109490988e-05, 0.00047433413922564591, -0.0010971969913475355, 0.99443018900448144, -0.0023618527649909922, 0.00097859726246734202, 0.00055573659150213658, 0.00090955504860377643, 0.00090400510379767221, 0.0009759087492612476, 0.0013988994871459005, 0.0012985945093548549], [3.1392514657256089e-05, 8.5651314238211038e-05, 7.2112021095027746e-05, 0.00047433413922654205, -0.0010971969913895192, 0.99443018900467461, -0.0023618527650039411, 0.00097859726244727604, 0.00055573659150344186, 0.00090955504863272159, 0.00090400510379798848, 0.00097590874923958991, 0.0013988994871663616, 0.0012985945093541452]], [[0.10309347216973562, 0.037088992598629564, -0.39912563041254168, 0.048645648808021857, 0.13174143952381281, -0.52523106324992863, 0.84888827965366331, -0.077925844650854142, -0.14171707700459751, -0.021990565760086875, -0.37304161221522608, -0.031354864198846893, -0.11311274448247532, 0.059384147086148815], [0.11302080373503129, -0.16507518995017212, -0.17033912490084627, 0.15581459677191836, 0.28003321698073064, 0.15191709807082218, 0.67666139970104733, 0.011475457676625309, 0.43513299836500313, -0.051451934423354322, 0.12626792045135529, -0.14012893399174622, -0.21713997244368638, 0.0021561308495050913], [0.33415165351627329, 0.29211401814132498, 0.27400758083361282, 0.19789860804904286, -0.15742263155633787, -0.025341397138804879, 1.1280262529487117, -0.013963158082521434, 0.00067837841631148755, -0.17378270103598148, -0.17530634852597998, 0.091662966687539302, -0.061868751135088863, 0.1641655671912236], [1.9802830796906633e-05, 1.9147886853407919e-05, 0.00010432952421020115, 0.00013412860144108879, 0.00066822455166461192, -0.0016923772329992212, 0.99291577767398675, -0.0025963937708526046, 0.0012726909592332381, 0.00075807137310763824, 0.001447697953549766, 0.0011736092765413668, 0.0013048323176400747, 0.0013758999938027522], [1.9802830796522131e-05, 1.9147886853459957e-05, 0.00010432952421191835, 0.00013412860143961148, 0.00066822455169689772, -0.0016923772329880506, 0.9929157776738301, -0.00259639377084586, 0.001272690959201286, 0.00075807137311423658, 0.001447697953503211, 0.0011736092765685453, 0.0013048323176781259, 0.0013758999938336914], [1.9802830796802306e-05, 1.914788685311901e-05, 0.00010432952421038369, 0.00013412860144181271, 0.00066822455167207112, -0.0016923772329998489, 0.99291577767403105, -0.0025963937707737671, 0.0012726909592004859, 0.00075807137313735925, 0.0014476979535679448, 0.0011736092765385414, 0.0013048323176296, 0.0013758999938314168]], [[0.3442992952921004, 0.042874861552383452, -0.13286494047863245, -0.25632378492189506, 0.0066665937684760616, 0.1545738460402398, -0.51986711968867916, 0.9222740694578544, 0.04456416231613633, -0.49970702983013254, 0.30578279600197195, -0.45153720005055081, -0.14383697385505953, 0.051212810293668067], [0.038589008949933397, 0.06233441222519067, -0.18436080912286182, -0.11992223504704383, 0.12546284478845593, -0.15101582732434987, -0.26564864856710518, 0.82640071794875114, 0.035193374200527858, 0.15697214738860929, 0.063788490036569306, -0.037381308448239996, -0.29032570072772074, 0.065961980569136894], [0.093634210978803478, 0.59332976729336739, 0.41798117289008641, -0.0028058367604070931, 0.214586967114719, -0.094037483232647559, -0.49291219671495706, 0.87662577054939383, -0.13261834724953919, -0.29081200872378127, 0.31625693450939779, -0.043063646107472972, -0.055026859804975257, 0.1650486786634531], [4.1009212051193069e-06, 4.6873115299523831e-05, 4.5026455145674085e-05, 0.00021662858284723151, 0.00026486193179852871, 0.00090259556743916376, -0.0021700672101466097, 0.99121951295328026, -0.0033240307018271519, 0.0011649832437212902, 0.00037745617425286152, 0.0010835713449947699, 0.00067190728529896047, 0.00055778377320006036], [4.1009212051721134e-06, 4.6873115298414693e-05, 4.5026455144604689e-05, 0.00021662858284761966, 0.00026486193179369193, 0.00090259556742486508, -0.002170067210138162, 0.99121951295315336, -0.0033240307018351108, 0.0011649832437846438, 0.00037745617425475453, 0.0010835713450102473, 0.00067190728530527291, 0.00055778377320983108], [4.1009212052439274e-06, 4.6873115299912985e-05, 4.5026455143400967e-05, 0.00021662858284607694, 0.00026486193179767767, 0.00090259556744486514, -0.0021700672101366367, 0.99121951295365629, -0.0033240307018282539, 0.0011649832437259546, 0.0003774561742502532, 0.0010835713449960157, 0.00067190728529991977, 0.00055778377321089782]], [[0.01820203895801949, 0.25397771908185135, 0.29640376357149589, 0.049448024156025526, -0.036358106656168156, -0.097452567802540635, -0.1888898136534099, -0.37514102931791982, 0.49934807412297777, 0.054251438769736704, 0.26368432609067022, -0.11745927453779939, 0.0026153695682386811, -0.098006579463835772], [-0.24814420711601429, -0.31504180055328906, -0.33565538141820189, -0.28108507927151166, -0.1424068370732581, -0.1293923085063296, -0.061130588071784078, -0.15019080202778279, 1.020276091105478, 0.50703415224911663, 0.086959138667838651, -0.13979114193411427, -0.30610979191753129, -0.1714266466758137], [8.2112439845532927e-06, 2.1218166832943252e-05, 8.3661881475500323e-05, 0.00013275605577533125, 0.00042113570670992972, 0.00033361231633371378, 0.00085610973368201279, -0.0029373586075485832, 0.98932848001412965, -0.0037671771484321702, 0.0019029367825163692, 0.00044269523014141114, 0.00057611506127404908, 0.0005096858107315231], [8.211243984534248e-06, 2.1218166832304281e-05, 8.3661881477440747e-05, 0.00013275605577664002, 0.00042113570671578794, 0.00033361231633753912, 0.0008561097336662911, -0.0029373586075468051, 0.98932848001376072, -0.0037671771485045776, 0.0019029367824954743, 0.00044269523015079399, 0.00057611506128134944, 0.00050968581071657662], [8.2112439848697984e-06, 2.121816683236336e-05, 8.3661881478426368e-05, 0.00013275605577658494, 0.00042113570671727124, 0.00033361231634233097, 0.00085610973369407845, -0.0029373586074898195, 0.9893284800143699, -0.0037671771485001363, 0.0019029367825268036, 0.00044269523014955518, 0.00057611506128785195, 0.00050968581072076706], [8.211243984797145e-06, 2.121816683211522e-05, 8.3661881477951718e-05, 0.00013275605577482588, 0.00042113570670131091, 0.00033361231634083922, 0.00085610973367060699, -0.0029373586075397123, 0.98932848001382956, -0.0037671771484914284, 0.0019029367825392307, 0.0004426952301553169, 0.00057611506128649246, 0.00050968581073147865]], [[-0.014841307430891562, 0.13773579186924392, 0.0044448467918836729, -0.19322035398199314, -0.14040288017816524, 0.05973160736331054, 0.18719701112823614, 0.015151303565248488, -0.26599548486563412, 0.51264942640694311, -0.071886891638186262, 0.25389116581118942, -0.40788671555346001, 0.079658897488064762], [-0.024197072315058202, 0.066630527609081572, 0.11106212571882741, -0.089406677020948802, -0.13597546115949041, 0.060709207215523329, 0.059537477583949477, 0.013692588720288824, 0.07804480535923089, 0.91819721021358724, -0.2318654993700171, -0.086182982765923608, -0.049318679807644747, -0.30966932436436734], [7.2714852867580546e-06, 1.4553373727434094e-05, 2.5510854728105965e-05, 0.00015336043496403417, 0.00013905033161161099, 0.00031301788622651135, 0.00042051649188276673, 0.0012413210452129275, -0.0034064021395354251, 0.98723625757425226, -0.0048671039012728144, 0.001578611595051631, 0.00049307598650584169, 0.0021204035733317782], [7.2714852867801359e-06, 1.4553373728214502e-05, 2.5510854728288876e-05, 0.00015336043496129835, 0.00013905033161013992, 0.00031301788623102158, 0.00042051649188810003, 0.0012413210452270713, -0.0034064021395380658, 0.98723625757424693, -0.0048671039013853182, 0.0015786115950921454, 0.00049307598649814711, 0.0021204035733568692], [7.2714852868796962e-06, 1.4553373727729012e-05, 2.5510854727690824e-05, 0.00015336043496497006, 0.00013905033161312714, 0.00031301788621606994, 0.00042051649188410193, 0.0012413210452558339, -0.0034064021395952527, 0.98723625757400402, -0.0048671039014607682, 0.001578611595087288, 0.00049307598650973159, 0.0021204035733436949], [7.2714852869862555e-06, 1.4553373728189403e-05, 2.5510854727885018e-05, 0.00015336043496210741, 0.00013905033161478169, 0.00031301788622364299, 0.00042051649188509229, 0.0012413210452075962, -0.0034064021395911583, 0.9872362575745568, -0.0048671039012897167, 0.0015786115950733506, 0.0004930759864954868, 0.002120403573372591]], [[-0.034048471423954001, -0.13444160483615303, 0.095549816624440953, 0.31087098419629533, 0.1147675325047014, -0.1726050752292756, -0.12474243635188079, 0.141382443995131, -0.0055141222863869938, -0.1611375848729526, 1.0681993017695703, 0.094203542261164341, 0.045429623297800051, 0.16290464913476904], [-1.3643766909265539e-05, -4.1298823341101917e-05, 8.1284594012392812e-05, 9.9790921389437002e-05, 0.00011760995019607311, 0.00019157775566185098, 0.00060336666768001342, 0.00033880445751735658, 0.0010912530388007893, -0.0043520838010258451, 0.98494294123260773, -0.0054360989729252372, 0.0024856209147709816, 0.00092651029060235605], [-1.364376690948581e-05, -4.1298823341199773e-05, 8.1284594014808793e-05, 9.9790921391555032e-05, 0.0001176099501902427, 0.00019157775565949758, 0.00060336666767696497, 0.00033880445751211094, 0.0010912530388532005, -0.0043520838008976361, 0.98494294123224913, -0.0054360989729387377, 0.0024856209148099995, 0.00092651029063201809], [-1.3643766908786675e-05, -4.1298823341951153e-05, 8.1284594014758595e-05, 9.9790921391621574e-05, 0.00011760995019027186, 0.00019157775566672818, 0.00060336666769270075, 0.00033880445751579815, 0.0010912530388590615, -0.0043520838008391169, 0.98494294123238046, -0.0054360989728321537, 0.002485620914781354, 0.00092651029061681335], [-1.3643766909409521e-05, -4.1298823343354286e-05, 8.1284594014785497e-05, 9.9790921392599877e-05, 0.00011760995019614656, 0.00019157775566029284, 0.00060336666766664098, 0.0003388044575186039, 0.0010912530388399444, -0.0043520838010036285, 0.98494294123235981, -0.0054360989730208101, 0.0024856209148007295, 0.00092651029061470425], [-1.3643766909380036e-05, -4.1298823343578113e-05, 8.1284594016782299e-05, 9.9790921392907154e-05, 0.00011760995019352089, 0.00019157775566027894, 0.00060336666768952426, 0.00033880445751624977, 0.0010912530388294762, -0.0043520838007938441, 0.9849429412319145, -0.0054360989728638141, 0.002485620914804536, 0.00092651029060987716]], [[-0.03860980827710956, 0.0030807723622525438, -0.019420367621648612, -0.18194301768750737, -0.15890202838555942, 0.0063343529562092408, 0.037223071780693576, 0.049861679761042374, 0.0029274494416476277, -0.097580606560585648, -0.033147818541603501, 0.99951366285779752, 0.063071826402646025, 0.42654058883769463], [6.8969679427194784e-06, 2.579048643314726e-05, 2.2559044839426421e-05, 5.0636545958620565e-05, 0.00021814181036811456, 0.00047415027299967517, 0.00019791692641659168, 0.00027413315640231018, 0.00012951429728117408, 0.0011477864870602966, -0.0052742235887693082, 0.98250823825321498, -0.0061765797972323849, 0.0029940536715263597], [6.8969679428002083e-06, 2.5790486432815528e-05, 2.2559044839095448e-05, 5.0636545960644852e-05, 0.00021814181035964162, 0.00047415027299100779, 0.00019791692641301175, 0.00027413315640283683, 0.00012951429728158046, 0.0011477864870776506, -0.0052742235889402314, 0.98250823825262101, -0.0061765797972682, 0.0029940536715066406], [6.8969679426672377e-06, 2.5790486432138183e-05, 2.2559044839944741e-05, 5.0636545959502882e-05, 0.00021814181036569925, 0.00047415027299071858, 0.00019791692641733197, 0.00027413315640607844, 0.00012951429727635979, 0.0011477864870770992, -0.0052742235889237958, 0.98250823825255729, -0.006176579797254814, 0.0029940536715652626], [6.8969679427640603e-06, 2.5790486432495722e-05, 2.2559044839440773e-05, 5.0636545960398467e-05, 0.00021814181036345259, 0.00047415027298727168, 0.00019791692641721209, 0.00027413315639763283, 0.00012951429727806171, 0.0011477864870481698, -0.0052742235886663047, 0.9825082382530349, -0.0061765797972401547, 0.0029940536715321211], [6.8969679425928241e-06, 2.5790486432922664e-05, 2.2559044839861291e-05, 5.0636545958177275e-05, 0.00021814181036226924, 0.00047415027298487381, 0.0001979169264184693, 0.00027413315640312605, 0.00012951429727861837, 0.001147786487062202, -0.005274223588873036, 0.9825082382520679, -0.0061765797973791356, 0.0029940536715084218]]], prehc: 10000, lambdahc: 1, rcut: 8, dcut: 0.001, rcut_in: 2.0647862824590262, dcut_in: 0.10000000000000001, inner_cutoff_type: distance}
functions:
  0:
    - {mu0: 0, rank: 1, ndensity: 4, num_ms_combs: 1, mus: [0], ns: [1], ls: [0], ms_combs: [0], ctildes: [-0.58968036891157627, -0.3563569188115509, 0.034350139556826587, -0.63907954082390905]}
    - {mu0: 0, rank: 1, ndensity: 4, num_ms_combs: 1, mus: [0], ns: [2], ls: [0], ms_combs: [0], ctildes: [-0.64619741158388888, -0.10477138990589782, -0.5952362553756132, -0.59633892310892889]}
    - {mu0: 0, rank: 1, ndensity: 4, num_ms_combs: 1, mus: [0], ns: [3], ls: [0], ms_combs: [0], ctildes: [0.72055233058427648, 0.28274238299230636, -0.22778355192516464, -0.10596007648089342]}
    - {mu0: 0, rank: 1, ndensity: 4, num_ms_combs: 1, mus: [0], ns: [4], ls: [0], ms_combs: [0], ctildes: [-0.21579503617699736, -0.073714067451982543, -0.1248628329807957, -0.37139600573018516]}
    - {mu0: 0, rank: 1, ndensity: 4, num_ms_combs: 1, mus: [0], ns: [5], ls: [0], ms_combs: [0], ctildes: [-0.38500199979922201, -0.18492252956184152, -0.6626436464086114, -0.038305451096233442]}
    - {mu0: 0, rank: 1, ndensity: 4, num_ms_combs: 1, mus: [0], ns: [6], ls: [0], ms_combs: [0], ctildes: [1.0022587602635384, 0.13906555413124103, 0.18936462008832572, 0.37942780552136401]}
    - {mu0: 0, rank: 1, ndensity: 4, num_ms_combs: 1, mus: [0], ns: [7], ls: [0], ms_combs: [0], ctildes: [-0.73110556022411999, 0.064656793488215764, 0.34519830609503072, -0.094060384173069209]}
    - {mu0: 0, rank: 1, ndensity: 4, num_ms_combs: 1, mus: [0], ns: [8], ls: [0], ms_combs: [0], ctildes: [-0.22589833859089459, -0.015030410871185529, -0.31933230256950507, 0.030475804463164009]}
    - {mu0: 0, rank: 1, ndensity: 4, num_ms_combs: 1, mus: [0], ns: [9], ls: [0], ms_combs: [0], ctildes: [0.94331492680169005, -0.063773828532755469, -0.058838453803259361, -0.19565988833842782]}
    - {mu0: 0, rank: 1, ndensity: 4, num_ms_combs: 1, mus: [0], ns: [10], ls: [0], ms_combs: [0], ctildes: [-0.51083194351894079, 0.008173374959110755, -0.14956787740798319, -0.15215228423443278]}
    - {mu0: 0, rank: 1, ndensity: 4, num_ms_combs: 1, mus: [0], ns: [11], ls: [0], ms_combs: [0], ctildes: [0.13253739375311088, 0.050928449142130121, -0.25480730683423691, 0.25521765703911631]}
    - {mu0: 0, rank: 1, ndensity: 4, num_ms_combs: 1, mus: [0], ns: [12], ls: [0], ms_combs: [0], ctildes: [0.34045276611495157, 0.020981943198376249, 0.21336368007146631, -0.29321269288082796]}
    - {mu0: 0, rank: 1, ndensity: 4, num_ms_combs: 1, mus: [0], ns: [13], ls: [0], ms_combs: [0], ctildes: [-0.37744146162568609, -0.026657797764216624, -0.079279769961448546, 0.31298519201722363]}
    - {mu0: 0, rank: 1, ndensity: 4, num_ms_combs: 1, mus: [0], ns: [14], ls: [0], ms_combs: [0], ctildes: [0.17388475074216755, 0.060118230382232629, 0.062327692580379547, -0.010872404102909352]}
    - {mu0: 0, rank: 1, ndensity: 4, num_ms_combs: 1, mus: [1], ns: [1], ls: [0], ms_combs: [0], ctildes: [-0.65189399138669746, -1.0342251287367532, -0.70881681834684651, -0.63822496407979601]}
    - {mu0: 0, rank: 1, ndensity: 4, num_ms_combs: 1, mus: [1], ns: [2], ls: [0], ms_combs: [0], ctildes: [-0.293182985972818, -0.48966290440252569, -0.92993370740901737, -0.33075812976053359]}
    - {mu0: 0, rank: 1, ndensity: 4, num_ms_combs: 1, mus: [1], ns: [3], ls: [0], ms_combs: [0], ctildes: [0.38183386126635471, 0.93503281336543753, -0.090421595031598287, 0.79178072791305454]}
    - {mu0: 0, rank: 1, ndensity: 4, num_ms_combs: 1, mus: [1], ns: [4], ls: [0], ms_combs: [0], ctildes: [-1.0423962871485606, 0.28975350601725136, -0.22211783501711949, -0.35011671497026287]}
    - {mu0: 0, rank: 1, ndensity: 4, num_ms_combs: 1, mus: [1], ns: [5], ls: [0], ms_combs: [0], ctildes: [0.15618623164867529, -0.084992390768494561, -0.23998762627247139, -0.54951240477056185]}
    - {mu0: 0, rank: 1, ndensity: 4, num_ms_combs: 1, mus: [1], ns: [6], ls: [0], ms_combs: [0], ctildes: [0.31465553105631111, 0.087753927030490828, -0.21150129447129484, 0.38744485530168954]}
    - {mu0: 0, rank: 1, ndensity: 4, num_ms_combs: 1, mus: [1], ns: [7], ls: [0], ms_combs: [0], ctildes: [-0.6861719708582541, -0.070288212095049665, 0.19559929635245343, -0.73927307503217721]}
    - {mu0: 0, rank: 1, ndensity: 4, num_ms_combs: 1, mus: [1], ns: [8], ls: [0], ms_combs: [0], ctildes: [0.012472458881774916, 0.15820538989417346, 0.14094858543133101, 0.48341395887335481]}
    - {mu0: 0, rank: 1, ndensity: 4, num_ms_combs: 1, mus: [1], ns: [9], ls: [0], ms_combs: [0], ctildes: [-0.029783846913374039, -0.19151605526352306, -0.072567403161457891, -0.27265565585965529]}
    - {mu0: 0, rank: 1, ndensity: 4, num_ms_combs: 1, mus: [1], ns: [10], ls: [0], ms_combs: [0], ctildes: [-0.056006644785473257, 0.073173628493666626, -0.095055243879699478, -0.075510753154803781]}
    - {mu0: 0, rank: 2, ndensity: 4, num_ms_combs: 1, mus: [0, 0], ns: [1, 1], ls: [0, 0], ms_combs: [0, 0], ctildes: [0.75982968451187549, -0.3508344963732189, 0.47644856878431913, 0.12712183561997956]}
    - {mu0: 0, rank: 2, ndensity: 4, num_ms_combs: 2, mus: [0, 0], ns: [1, 1], ls: [1, 1], ms_combs: [0, 0, 1, -1], ctildes: [-0.18656607465247804, -0.0040185527672119995, -0.17294454756497196, -0.22255598421765757, 0.37313214930495603, 0.0080371055344239974, 0.34588909512994387, 0.44511196843531509]}
    - {mu0: 0, rank: 2, ndensity: 4, num_ms_combs: 3, mus: [0, 0], ns: [1, 1], ls: [2, 2], ms_combs: [0, 0, 1, -1, 2, -2], ctildes: [0.18260562770153316, 0.037338782723670937, -0.12768499605328035, 0.40625054711751973, -0.36521125540306637, -0.074677565447341873, 0.25536999210656075, -0.81250109423503958, 0.36521125540306643, 0.074677565447341901, -0.25536999210656081, 0.8125010942350398]}
    - {mu0: 0, rank: 2, ndensity: 4, num_ms_combs: 4, mus: [0, 0], ns: [1, 1], ls: [3, 3], ms_combs: [0, 0, 1, -1, 2, -2, 3, -3], ctildes: [0.10682926792820811, 0.047475606901255595, -0.062622456148960129, -0.080188157011434294, -0.21365853585641623, -0.094951213802511189, 0.12524491229792026, 0.16037631402286859, 0.2136585358564162, 0.094951213802511175, -0.12524491229792023, -0.16037631402286856, -0.2136585358564162, -0.094951213802511175, 0.12524491229792023, 0.16037631402286856]}
    - {mu0: 0, rank: 2, ndensity: 4, num_ms_combs: 5, mus: [0, 0], ns: [1, 1], ls: [4, 4], ms_combs: [0, 0, 1, -1, 2, -2, 3, -3, 4, -4], ctildes: [0.014952547757249936, -0.017806314829630566, 0.14688067616703315, -0.075549313180638913, -0.029905095514499862, 0.035612629659261125, -0.29376135233406619, 0.15109862636127777, 0.029905095514499862, -0.035612629659261125, 0.29376135233406619, -0.15109862636127777, -0.029905095514499862, 0.035612629659261125, -0.29376135233406619, 0.15109862636127777, 0.029905095514499869, -0.035612629659261125, 0.29376135233406625, -0.1510986263612778]}
    - {mu0: 0, rank: 2, ndensity: 4, num_ms_combs: 6, mus: [0, 0], ns: [1, 1], ls: [5, 5], ms_combs: [0, 0, 1, -1, 2, -2, 3, -3, 4, -4, 5, -5], ctildes: [-0.0051612572191513323, 0.072927615347931754, 0.043283334723234368, -0.067987272581921179, 0.010322514438302665, -0.14585523069586351, -0.086566669446468736, 0.13597454516384236, -0.010322514438302666, 0.14585523069586354, 0.08656666944646875, -0.13597454516384239, 0.010322514438302668, -0.14585523069586356, -0.086566669446468764, 0.13597454516384241, -0.010322514438302666, 0.14585523069586354, 0.08656666944646875, -0.13597454516384239, 0.010322514438302654, -0.14585523069586337, -0.086566669446468653, 0.13597454516384222]}
    - {mu0: 0, rank: 2, ndensity: 4, num_ms_combs: 1, mus: [0, 0], ns: [1, 2], ls: [0, 0], ms_combs: [0, 0], ctildes: [0.12481380234156901, -0.27353848406673459, 0.0076552195425698463, 0.25974189695461769]}
    - {mu0: 0, rank: 2, ndensity: 4, num_ms_combs: 2, mus: [0, 0], ns: [1, 2], ls: [1, 1], ms_combs: [0, 0, 1, -1], ctildes: [-0.010207008309684993, -0.159806211867137, 0.086243044337572086, 0.3207836329979859, 0.020414016619369982, 0.31961242373427395, -0.17248608867514414, -0.64156726599597158]}
    - {mu0: 0, rank: 2, ndensity: 4, num_ms_combs: 3, mus: [0, 0], ns: [1, 2], ls: [2, 2], ms_combs: [0, 0, 1, -1, 2, -2], ctildes: [-0.095842897266671445, -0.015035726403820128, -0.1800646304527424, 0.22235191990219072, 0.19168579453334292, 0.030071452807640259, 0.36012926090548486, -0.4447038398043815, -0.19168579453334297, -0.030071452807640266, -0.36012926090548492, 0.44470383980438161]}
    - {mu0: 0, rank: 2, ndensity: 4, num_ms_combs: 4, mus: [0, 0], ns: [1, 2], ls: [3, 3], ms_combs: [0, 0, 1, -1, 2, -2, 3, -3], ctildes: [-0.0086254863079151239, -0.056405233204040069, -0.29477209368042667, 0.053556046861717825, 0.017250972615830248, 0.11281046640808014, 0.58954418736085334, -0.10711209372343565, -0.017250972615830244, -0.11281046640808011, -0.58954418736085323, 0.10711209372343562, 0.017250972615830244, 0.11281046640808011, 0.58954418736085323, -0.10711209372343562]}
    - {mu0: 0, rank: 2, ndensity: 4, num_ms_combs: 5, mus: [0, 0], ns: [1, 2], ls: [4, 4], ms_combs: [0, 0, 1, -1, 2, -2, 3, -3, 4, -4], ctildes: [-0.018058658498828276, 0.013661754061163826, 0.041057209503265822, 0.011076241227980626, 0.036117316997656537, -0.027323508122327644, -0.082114419006531617, -0.022152482455961246, -0.036117316997656537, 0.027323508122327644, 0.082114419006531617, 0.022152482455961246, 0.036117316997656537, -0.027323508122327644, -0.082114419006531617, -0.022152482455961246, -0.036117316997656544, 0.027323508122327648, 0.08211441900653163, 0.022152482455961249]}
    - {mu0: 0, rank: 2, ndensity: 4, num_ms_combs: 6, mus: [0, 0], ns: [1, 2], ls: [5, 5], ms_combs: [0, 0, 1, -1, 2, -2, 3, -3, 4, -4, 5, -5], ctildes: [0.0017468406808483312, 0.026983866572366129, -0.031259641337103045, 0.0016096598630487013, -0.0034936813616966624, -0.053967733144732258, 0.062519282674206089, -0.0032193197260974027, 0.0034936813616966629, 0.053967733144732265, -0.062519282674206103, 0.0032193197260974036, -0.0034936813616966637, -0.053967733144732279, 0.062519282674206103, -0.003219319726097404, 0.0034936813616966629, 0.053967733144732265, -0.062519282674206103, 0.0032193197260974036, -0.003493681361696659, -0.053967733144732209, 0.062519282674206034, -0.0032193197260973997]}
    - {mu0: 0, rank: 2, ndensity: 4, num_ms_combs: 1, mus: [0, 0], ns: [1, 3], ls: [0, 0], ms_combs: [0, 0], ctildes: [0.097670829827914113, -0.19479286272033491, -0.09505794105454235, 0.40127158223313542]}
    - {mu0: 0, rank: 2, ndensity: 4, num_ms_combs: 2, mus: [0, 0], ns: [1, 3], ls: [1, 1], ms_combs: [0, 0, 1, -1], ctildes: [-0.037378501345602756, 0.20342992830495626, -0.16824276993448564, 0.047195622688104143, 0.074757002691205499, -0.40685985660991242, 0.33648553986897117, -0.094391245376208271]}
    - {mu0: 0, rank: 2, ndensity: 4, num_ms_combs: 3, mus: [0, 0], ns: [1, 3], ls: [2, 2], ms_combs: [0, 0, 1, -1, 2, -2], ctildes: [0.0595959731351621, -0.17307896901247957, 0.025351589359413288, 0.077486270391359524, -0.11919194627032421, 0.3461579380249592, -0.050703178718826583, -0.15497254078271905, 0.11919194627032424, -0.34615793802495926, 0.050703178718826597, 0.1549725407827191]}
    - {mu0: 0, rank: 2, ndensity: 4, num_ms_combs: 4, mus: [0, 0], ns: [1, 3], ls: [3, 3], ms_combs: [0, 0, 1, -1, 2, -2, 3, -3], ctildes: [0.017451598980019734, -0.15394960725081591, 0.028965474533233868, 0.076866162431493357, -0.034903197960039468, 0.30789921450163182, -0.057930949066467737, -0.15373232486298671, 0.034903197960039462, -0.30789921450163177, 0.05793094906646773, 0.15373232486298669, -0.034903197960039462, 0.30789921450163177, -0.05793094906646773, -0.15373232486298669]}
    - {mu0: 0, rank: 2, ndensity: 4, num_ms_combs: 5, mus: [0, 0], ns: [1, 3], ls: [4, 4], ms_combs: [0, 0, 1, -1, 2, -2, 3, -3, 4, -4], ctildes: [0.030827209732745081, 0.048970640459108365, -0.17378763966426308, 0.0038757827437154689, -0.061654419465490141, -0.097941280918216703, 0.34757527932852605, -0.0077515654874309352, 0.061654419465490141, 0.097941280918216703, -0.34757527932852605, 0.0077515654874309352, -0.061654419465490141, -0.097941280918216703, 0.34757527932852605, -0.0077515654874309352, 0.061654419465490148, 0.097941280918216717, -0.34757527932852611, 0.0077515654874309361]}
    - {mu0: 0, rank: 2, ndensity: 4, num_ms_combs: 1, mus: [0, 0], ns: [1, 4], ls: [0, 0], ms_combs: [0, 0], ctildes: [0.17643859689775246, -0.55516788709224441, 0.12710901775543498, -0.30447367063239433]}
    - {mu0: 0, rank: 2, ndensity: 4, num_ms_combs: 2, mus: [0, 0], ns: [1, 4], ls: [1, 1], ms_combs: [0, 0, 1, -1], ctildes: [0.035532580183553375, 0.070942640808253979, 0.28936782503554231, 0.016440367748680972, -0.071065160367106736, -0.14188528161650793, -0.57873565007108452, -0.032880735497361938]}
    - {mu0: 0, rank: 2, ndensity: 4, num_ms_combs: 3, mus: [0, 0], ns: [1, 4], ls: [2, 2], ms_combs: [0, 0, 1, -1, 2, -2], ctildes: [0.041251057835193436, -0.12700466115010503, -0.23572246292372784, 0.037993166173841367, -0.082502115670386872, 0.25400932230021006, 0.47144492584745573, -0.075986332347682747, 0.0825021156703869, -0.25400932230021012, -0.47144492584745584, 0.075986332347682761]}
    - {mu0: 0, rank: 2, ndensity: 4, num_ms_combs: 4, mus: [0, 0], ns: [1, 4], ls: [3, 3], ms_combs: [0, 0, 1, -1, 2, -2, 3, -3], ctildes: [-0.0032301526868172472, -0.15109387975344421, 0.060547051154419072, 0.031078997722365543, 0.0064603053736344944, 0.30218775950688842, -0.12109410230883814, -0.062157995444731086, -0.0064603053736344935, -0.30218775950688836, 0.12109410230883813, 0.062157995444731079, 0.0064603053736344935, 0.30218775950688836, -0.12109410230883813, -0.062157995444731079]}
    - {mu0: 0, rank: 2, ndensity: 4, num_ms_combs: 5, mus: [0, 0], ns: [1, 4], ls: [4, 4], ms_combs: [0, 0, 1, -1, 2, -2, 3, -3, 4, -4], ctildes: [-0.014254752409001122, -0.074810230225071009, 0.10374670921099757, 0.017429838118867148, 0.028509504818002233, 0.14962046045014196, -0.20749341842199509, -0.034859676237734283, -0.028509504818002233, -0.14962046045014196, 0.20749341842199509, 0.034859676237734283, 0.028509504818002233, 0.14962046045014196, -0.20749341842199509, -0.034859676237734283, -0.02850950481800224, -0.14962046045014199, 0.20749341842199512, 0.03485967623773429]}
    - {mu0: 0, rank: 2, ndensity: 4, num_ms_combs: 1, mus: [0, 0], ns: [1, 5], ls: [0, 0], ms_combs: [0, 0], ctildes: [-0.20713830595810662, 0.29840159212649359, 0.13066729394666576, -0.44731571059688552]}
    - {mu0: 0, rank: 2, ndensity: 4, num_ms_combs: 2, mus: [0, 0], ns: [1, 5], ls: [1, 1], ms_combs: [0, 0, 1, -1], ctildes: [0.021317905762729426, -0.13822592620846039, 0.41905054965524369, 0.039424275557537698, -0.042635811525458846, 0.27645185241692072, -0.83810109931048726, -0.078848551115075383]}
    - {mu0: 0, rank: 2, ndensity: 4, num_ms_combs: 3, mus: [0, 0], ns: [1, 5], ls: [2, 2], ms_combs: [0, 0, 1, -1, 2, -2], ctildes: [-0.020774481947822054, 0.16107542648349113, -0.16005184438792824, -0.045848312122935574, 0.041548963895644109, -0.32215085296698232, 0.32010368877585654, 0.091696624245871161, -0.041548963895644123, 0.32215085296698237, -0.3201036887758566, -0.091696624245871175]}
    - {mu0: 0, rank: 2, ndensity: 4, num_ms_combs: 4, mus: [0, 0], ns: [1, 5], ls: [3, 3], ms_combs: [0, 0, 1, -1, 2, -2, 3, -3], ctildes: [-0.063300635515639345, 0.19817626608126709, 0.043615710734086099, 0.02016089837950702, 0.12660127103127869, -0.39635253216253419, -0.087231421468172199, -0.040321796759014039, -0.12660127103127866, 0.39635253216253413, 0.087231421468172185, 0.040321796759014032, 0.12660127103127866, -0.39635253216253413, -0.087231421468172185, -0.040321796759014032]}
    - {mu0: 0, rank: 2, ndensity: 4, num_ms_combs: 1, mus: [0, 0], ns: [1, 6], ls: [0, 0], ms_combs: [0, 0], ctildes: [0.35904659979961162, -0.1099393857580758, -0.29165607880704131, -0.29210794799230022]}
    - {mu0: 0, rank: 2, ndensity: 4, num_ms_combs: 2, mus: [0, 0], ns: [1, 6], ls: [1, 1], ms_combs: [0, 0, 1, -1], ctildes: [-0.013067709768973038, 0.13707221418208912, 0.15668039489590402, -0.19025085694936611, 0.02613541953794607, -0.27414442836417818, -0.31336078979180798, 0.38050171389873211]}
    - {mu0: 0, rank: 2, ndensity: 4, num_ms_combs: 3, mus: [0, 0], ns: [1, 6], ls: [2, 2], ms_combs: [0, 0, 1, -1, 2, -2], ctildes: [-0.015691754011994338, 0.11083382275282061, -0.10448674830679217, 0.073751392957693826, 0.031383508023988677, -0.22166764550564125, 0.20897349661358436, -0.14750278591538768, -0.031383508023988683, 0.2216676455056413, -0.20897349661358441, 0.14750278591538771]}
    - {mu0: 0, rank: 2, ndensity: 4, num_ms_combs: 4, mus: [0, 0], ns: [1, 6], ls: [3, 3], ms_combs: [0, 0, 1, -1, 2, -2, 3, -3], ctildes: [0.053091526788423264, -0.070543814871700236, -0.036817424963561156, -0.064225342801870505, -0.10618305357684653, 0.14108762974340047, 0.073634849927122312, 0.12845068560374101, 0.10618305357684651, -0.14108762974340047, -0.073634849927122298, -0.12845068560374098, -0.10618305357684651, 0.14108762974340047, 0.073634849927122298, 0.12845068560374098]}
    - {mu0: 0, rank: 2, ndensity: 4, num_ms_combs: 1, mus: [0, 0], ns: [1, 7], ls: [0, 0], ms_combs: [0, 0], ctildes: [0.32390431656190177, -0.51080445476026148, 0.22404226655914702, 0.12999197235243565]}
    - {mu0: 0, rank: 2, ndensity: 4, num_ms_combs: 2, mus: [0, 0], ns: [1, 7], ls: [1, 1], ms_combs: [0, 0, 1, -1], ctildes: [0.053222244815759844, -0.12828077120292977, -0.0647547298789449, -0.0090651544695207701, -0.10644448963151966, 0.25656154240585949, 0.12950945975788977, 0.018130308939041537]}
    - {mu0: 0, rank: 2, ndensity: 4, num_ms_combs: 3, mus: [0, 0], ns: [1, 7], ls: [2, 2], ms_combs: [0, 0, 1, -1, 2, -2], ctildes: [0.023063535034284849, -0.079197854162800382, -0.0051381715306087978, -0.012837928296408225, -0.046127070068569705, 0.15839570832560079, 0.010276343061217596, 0.025675856592816453, 0.046127070068569712, -0.15839570832560082, -0.010276343061217599, -0.025675856592816459]}
    - {mu0: 0, rank: 2, ndensity: 4, num_ms_combs: 1, mus: [0, 0], ns: [1, 8], ls: [0, 0], ms_combs: [0, 0], ctildes: [0.25262093613075376, -0.62448649051178351, 0.1215205549505778, -0.34827232783275924]}
    - {mu0: 0, rank: 2, ndensity: 4, num_ms_combs: 2, mus: [0, 0], ns: [1, 8], ls: [1, 1], ms_combs: [0, 0, 1, -1], ctildes: [0.068700746501987098, 0.1260137592674006, -0.053123176458751559, 0.10130378956393427, -0.13740149300397417, -0.25202751853480115, 0.1062463529175031, -0.2026075791278685]}
    - {mu0: 0, rank: 2, ndensity: 4, num_ms_combs: 3, mus: [0, 0], ns: [1, 8], ls: [2, 2], ms_combs: [0, 0, 1, -1, 2, -2], ctildes: [-0.02296126513875317, -0.009765558344779544, 0.0098882086000188166, 0.063141581538629005, 0.04592253027750634, 0.019531116689559092, -0.019776417200037633, -0.12628316307725801, -0.045922530277506354, -0.019531116689559095, 0.01977641720003764, 0.12628316307725804]}
    - {mu0: 0, rank: 2, ndensity: 4, num_ms_combs: 1, mus: [0, 0], ns: [1, 9], ls: [0, 0], ms_combs: [0, 0], ctildes: [0.0010739947067340396, -0.28777498026072634, -0.17793793157092533, 0.1256792867141055]}
    - {mu0: 0, rank: 2, ndensity: 4, num_ms_combs: 2, mus: [0, 0], ns: [1, 9], ls: [1, 1], ms_combs: [0, 0, 1, -1], ctildes: [-0.056015977449291605, 0.095652316813473109, -0.10754516335663883, -0.13260180686685141, 0.11203195489858318, -0.19130463362694619, 0.21509032671327763, 0.26520361373370277]}
    - {mu0: 0, rank: 2, ndensity: 4, num_ms_combs: 1, mus: [0, 0], ns: [1, 10], ls: [0, 0], ms_combs: [0, 0], ctildes: [-0.081466523295871077, 0.16123348062019172, 0.13686491121989863, 0.21274881422332903]}
    - {mu0: 0, rank: 2, ndensity: 4, num_ms_combs: 2, mus: [0, 0], ns: [1, 10], ls: [1, 1], ms_combs: [0, 0, 1, -1], ctildes: [0.1080881457790533, -0.12082693342268878, -0.11572569095468531, 0.17484484066922887, -0.21617629155810655, 0.24165386684537751, 0.23145138190937056, -0.34968968133845768]}
    - {mu0: 0, rank: 2, ndensity: 4, num_ms_combs: 1, mus: [0, 0], ns: [1, 11], ls: [0, 0], ms_combs: [0, 0], ctildes: [-0.056520850206108357, -0.12869114547858579, 0.0042773223626714103, -0.14390111926753019]}
    - {mu0: 0, rank: 2, ndensity: 4, num_ms_combs: 1, mus: [0, 0], ns: [1, 12], ls: [0, 0], ms_combs: [0, 0], ctildes: [0.040848443326637576, -0.075029578138040579, -0.0542952684229243, -0.046101617102831699]}
    - {mu0: 0, rank: 2, ndensity: 4, num_ms_combs: 1, mus: [0, 0], ns: [2, 2], ls: [0, 0], ms_combs: [0, 0], ctildes: [-0.18419608546654218, -0.16385690951435625, 0.00010962887300704661, 0.097122921061589373]}
    - {mu0: 0, rank: 2, ndensity: 4, num_ms_combs: 2, mus: [0, 0], ns: [2, 2], ls: [1, 1], ms_combs: [0, 0, 1, -1], ctildes: [0.032404129266679446, -0.21093348603815534, 0.28109686245059423, 0.29223297854827673, -0.064808258533358878, 0.42186697207631063, -0.56219372490118835, -0.58446595709655336]}
    - {mu0: 0, rank: 2, ndensity: 4, num_ms_combs: 3, mus: [0, 0], ns: [2, 2], ls: [2, 2], ms_combs: [0, 0, 1, -1, 2, -2], ctildes: [0.017313374165609376, -0.056880660173294711, 0.049387900321848199, 0.0031532588698140757, -0.03462674833121876, 0.11376132034658944, -0.098775800643696413, -0.0063065177396281523, 0.034626748331218767, -0.11376132034658946, 0.09877580064369644, 0.0063065177396281541]}
    - {mu0: 0, rank: 2, ndensity: 4, num_ms_combs: 4, mus: [0, 0], ns: [2, 2], ls: [3, 3], ms_combs: [0, 0, 1, -1, 2, -2, 3, -3], ctildes: [0.041900656484263672, 0.0042120824944518204, -0.055909719398121373, -0.023835711961175551, -0.083801312968527344, -0.0084241649889036409, 0.11181943879624275, 0.047671423922351103, 0.083801312968527331, 0.0084241649889036391, -0.11181943879624273, -0.047671423922351096, -0.083801312968527331, -0.0084241649889036391, 0.11181943879624273, 0.047671423922351096]}
    - {mu0: 0, rank: 2, ndensity: 4, num_ms_combs: 5, mus: [0, 0], ns: [2, 2], ls: [4, 4], ms_combs: [0, 0, 1, -1, 2, -2, 3, -3, 4, -4], ctildes: [-0.0042235603411468411, 0.036616471217623632, 0.031029873440112821, -0.021938254977789069, 0.0084471206822936788, -0.073232942435247236, -0.062059746880225621, 0.043876509955578125, -0.0084471206822936788, 0.073232942435247236, 0.062059746880225621, -0.043876509955578125, 0.0084471206822936788, -0.073232942435247236, -0.062059746880225621, 0.043876509955578125, -0.0084471206822936806, 0.07323294243524725, 0.062059746880225627, -0.043876509955578132]}
    - {mu0: 0, rank: 2, ndensity: 4, num_ms_combs: 1, mus: [0, 0], ns: [2, 3], ls: [0, 0], ms_combs: [0, 0], ctildes: [0.24808034864735126, 0.12379758329021766, 0.079918414604454022, 0.24907752362860469]}
    - {mu0: 0, rank: 2, ndensity: 4, num_ms_combs: 2, mus: [0, 0], ns: [2, 3], ls: [1, 1], ms_combs: [0, 0, 1, -1], ctildes: [0.22822182237622221, 0.21891184563559224, 0.11299132574031476, -0.27645211299924016, -0.45644364475244437, -0.43782369127118437, -0.22598265148062949, 0.55290422599848021]}
    - {mu0: 0, rank: 2, ndensity: 4, num_ms_combs: 3, mus: [0, 0], ns: [2, 3], ls: [2, 2], ms_combs: [0, 0, 1, -1, 2, -2], ctildes: [-0.074707084622701703, -0.037447249918896953, 0.03140477487354526, 0.03637392716510137, 0.14941416924540343, 0.074894499837793907, -0.062809549747090521, -0.072747854330202755, -0.14941416924540346, -0.074894499837793935, 0.062809549747090535, 0.072747854330202769]}
    - {mu0: 0, rank: 2, ndensity: 4, num_ms_combs: 4, mus: [0, 0], ns: [2, 3], ls: [3, 3], ms_combs: [0, 0, 1, -1, 2, -2, 3, -3], ctildes: [-0.033725768147094853, 0.061885679405870427, 0.11859689796499805, -0.085862382906638904, 0.067451536294189707, -0.12377135881174085, -0.23719379592999609, 0.17172476581327781, -0.067451536294189707, 0.12377135881174084, 0.23719379592999607, -0.17172476581327778, 0.067451536294189707, -0.12377135881174084, -0.23719379592999607, 0.17172476581327778]}
    - {mu0: 0, rank: 2, ndensity: 4, num_ms_combs: 5, mus: [0, 0], ns: [2, 3], ls: [4, 4], ms_combs: [0, 0, 1, -1, 2, -2, 3, -3, 4, -4], ctildes: [-0.023427422621681796, 0.11757741075296402, 0.13896100261464775, -0.083659082125385073, 0.046854845243363578, -0.23515482150592795, -0.27792200522929544, 0.16731816425077009, -0.046854845243363578, 0.23515482150592795, 0.27792200522929544, -0.16731816425077009, 0.046854845243363578, -0.23515482150592795, -0.27792200522929544, 0.16731816425077009, -0.046854845243363585, 0.23515482150592798, 0.27792200522929544, -0.16731816425077012]}
    - {mu0: 0, rank: 2, ndensity: 4, num_ms_combs: 1, mus: [0, 0], ns: [2, 4], ls: [0, 0], ms_combs: [0, 0], ctildes: [-0.19897119816664385, -0.0014061000373268495, -0.69137203801097258, -0.19328043221920649]}
    - {mu0: 0, rank: 2, ndensity: 4, num_ms_combs: 2, mus: [0, 0], ns: [2, 4], ls: [1, 1], ms_combs: [0, 0, 1, -1], ctildes: [0.11474235685214908, 0.22828005924011938, -0.098333245933101845, -0.1745915337797872, -0.2294847137042981, -0.4565601184802387, 0.19666649186620366, 0.34918306755957434]}
    - {mu0: 0, rank: 2, ndensity: 4, num_ms_combs: 3, mus: [0, 0], ns: [2, 4], ls: [2, 2], ms_combs: [0, 0, 1, -1, 2, -2], ctildes: [0.11194013766759742, -0.13379393590543251, -0.21767967807076288, 0.006005301235995875, -0.22388027533519486, 0.26758787181086502, 0.43535935614152582, -0.012010602471991752, 0.22388027533519492, -0.26758787181086513, -0.43535935614152593, 0.012010602471991755]}
    - {mu0: 0, rank: 2, ndensity: 4, num_ms_combs: 4, mus: [0, 0], ns: [2, 4], ls: [3, 3], ms_combs: [0, 0, 1, -1, 2, -2, 3, -3], ctildes: [0.020823962377066386, 0.060659559625283903, -0.1004848403486255, -0.03089562433661942, -0.041647924754132773, -0.12131911925056781, 0.20096968069725099, 0.06179124867323884, 0.041647924754132766, 0.12131911925056778, -0.20096968069725096, -0.061791248673238826, -0.041647924754132766, -0.12131911925056778, 0.20096968069725096, 0.061791248673238826]}
    - {mu0: 0, rank: 2, ndensity: 4, num_ms_combs: 1, mus: [0, 0], ns: [2, 5], ls: [0, 0], ms_combs: [0, 0], ctildes: [-0.10775384106117532, 0.49922266267603466, 0.12839620528505832, 0.090334192293302223]}
    - {mu0: 0, rank: 2, ndensity: 4, num_ms_combs: 2, mus: [0, 0], ns: [2, 5], ls: [1, 1], ms_combs: [0, 0, 1, -1], ctildes: [-0.014562726473623311, -0.043271542401561162, -0.077472804204243823, -0.018141553426142005, 0.029125452947246618, 0.086543084803122311, 0.15494560840848759, 0.036283106852284003]}
    - {mu0: 0, rank: 2, ndensity: 4, num_ms_combs: 3, mus: [0, 0], ns: [2, 5], ls: [2, 2], ms_combs: [0, 0, 1, -1, 2, -2], ctildes: [-0.018552896902869077, -0.27613753866860452, 0.18132023141544565, 0.13438443087319793, 0.037105793805738162, 0.55227507733720915, -0.36264046283089135, -0.26876886174639592, -0.037105793805738169, -0.55227507733720926, 0.36264046283089146, 0.26876886174639597]}
    - {mu0: 0, rank: 2, ndensity: 4, num_ms_combs: 4, mus: [0, 0], ns: [2, 5], ls: [3, 3], ms_combs: [0, 0, 1, -1, 2, -2, 3, -3], ctildes: [0.033054260409892018, -0.099274317273030085, 0.049752072191456762, -0.050121178656255268, -0.066108520819784036, 0.19854863454606017, -0.099504144382913523, 0.10024235731251054, 0.066108520819784022, -0.19854863454606014, 0.099504144382913509, -0.10024235731251052, -0.066108520819784022, 0.19854863454606014, -0.099504144382913509, 0.10024235731251052]}
    - {mu0: 0, rank: 2, ndensity: 4, num_ms_combs: 1, mus: [0, 0], ns: [2, 6], ls: [0, 0], ms_combs: [0, 0], ctildes: [-0.182280171463476, -0.00079907149086650168, -0.40255728729498891, -0.0058433667308088787]}
    - {mu0: 0, rank: 2, ndensity: 4, num_ms_combs: 2, mus: [0, 0], ns: [2, 6], ls: [1, 1], ms_combs: [0, 0, 1, -1], ctildes: [-0.026298270492685478, 0.054526825196184348, 0.057414130743217703, 0.040817376993141904, 0.052596540985370949, -0.10905365039236868, -0.11482826148643538, -0.081634753986283795]}
    - {mu0: 0, rank: 2, ndensity: 4, num_ms_combs: 3, mus: [0, 0], ns: [2, 6], ls: [2, 2], ms_combs: [0, 0, 1, -1, 2, -2], ctildes: [0.033644626776315321, 0.025319482527254262, -0.15420276093204902, -0.059498952044364478, -0.067289253552630657, -0.050638965054508531, 0.30840552186409809, 0.11899790408872897, 0.067289253552630671, 0.050638965054508545, -0.30840552186409814, -0.118997904088729]}
    - {mu0: 0, rank: 2, ndensity: 4, num_ms_combs: 1, mus: [0, 0], ns: [2, 7], ls: [0, 0], ms_combs: [0, 0], ctildes: [0.076851272599902362, -0.49388097954704496, 0.0081470745113999005, 0.13119369103030609]}
    - {mu0: 0, rank: 2, ndensity: 4, num_ms_combs: 2, mus: [0, 0], ns: [2, 7], ls: [1, 1], ms_combs: [0, 0, 1, -1], ctildes: [-0.074708884860535049, 0.18136120728046767, 0.16520504086476201, 0.031838631472206336, 0.14941776972107007, -0.36272241456093529, -0.33041008172952396, -0.063677262944412658]}
    - {mu0: 0, rank: 2, ndensity: 4, num_ms_combs: 3, mus: [0, 0], ns: [2, 7], ls: [2, 2], ms_combs: [0, 0, 1, -1, 2, -2], ctildes: [-0.044420949403004742, -0.010674067706039309, 0.078462234502416406, 0.065127364137272936, 0.088841898806009498, 0.021348135412078622, -0.15692446900483284, -0.1302547282745459, -0.088841898806009525, -0.021348135412078625, 0.15692446900483289, 0.13025472827454593]}
    - {mu0: 0, rank: 2, ndensity: 4, num_ms_combs: 1, mus: [0, 0], ns: [2, 8], ls: [0, 0], ms_combs: [0, 0], ctildes: [-0.20534535314316044, 0.19401092746879992, 0.35213891970476513, 0.29049078814635171]}
    - {mu0: 0, rank: 2, ndensity: 4, num_ms_combs: 2, mus: [0, 0], ns: [2, 8], ls: [1, 1], ms_combs: [0, 0, 1, -1], ctildes: [0.084855381543924122, -0.078834466574175491, -0.1842538042477532, -0.097476763132582189, -0.16971076308784822, 0.15766893314835095, 0.36850760849550629, 0.19495352626516435]}
    - {mu0: 0, rank: 2, ndensity: 4, num_ms_combs: 1, mus: [0, 0], ns: [2, 9], ls: [0, 0], ms_combs: [0, 0], ctildes: [-0.13771688761169149, -0.10417877781801874, 0.15474323347197294, 0.031225667426702439]}
    - {mu0: 0, rank: 2, ndensity: 4, num_ms_combs: 2, mus: [0, 0], ns: [2, 9], ls: [1, 1], ms_combs: [0, 0, 1, -1], ctildes: [-0.079726471446654457, 0.060543449246302623, 0.17200180203361168, 0.042622390141558178, 0.15945294289330889, -0.12108689849260522, -0.34400360406722325, -0.085244780283116342]}
    - {mu0: 0, rank: 2, ndensity: 4, num_ms_combs: 1, mus: [0, 0], ns: [2, 10], ls: [0, 0], ms_combs: [0, 0], ctildes: [0.1177703183848406, 0.089453956781116423, 0.17290416021218347, -0.28520692659629154]}
    - {mu0: 0, rank: 2, ndensity: 4, num_ms_combs: 1, mus: [0, 0], ns: [2, 11], ls: [0, 0], ms_combs: [0, 0], ctildes: [-0.15457658141825137, -0.090699935304213816, -0.37052030293008748, 0.29739164549835906]}
    - {mu0: 0, rank: 2, ndensity: 4, num_ms_combs: 1, mus: [0, 0], ns: [3, 3], ls: [0, 0], ms_combs: [0, 0], ctildes: [0.083031601671724367, 0.15147826930207084, 0.081911312366429415, -0.017864993955583469]}
    - {mu0: 0, rank: 2, ndensity: 4, num_ms_combs: 2, mus: [0, 0], ns: [3, 3], ls: [1, 1], ms_combs: [0, 0, 1, -1], ctildes: [0.015806312241402557, 0.061127250325855254, 0.10898361231137181, -0.12762433122421837, -0.031612624482805107, -0.12225450065171048, -0.21796722462274359, 0.25524866244843669]}
    - {mu0: 0, rank: 2, ndensity: 4, num_ms_combs: 3, mus: [0, 0], ns: [3, 3], ls: [2, 2], ms_combs: [0, 0, 1, -1, 2, -2], ctildes: [-0.0518804754177438, 0.087876246057583124, 0.090148428036258457, 0.060582392272860698, 0.1037609508354876, -0.17575249211516628, -0.18029685607251694, -0.12116478454572141, -0.10376095083548763, 0.1757524921151663, 0.18029685607251697, 0.12116478454572144]}
    - {mu0: 0, rank: 2, ndensity: 4, num_ms_combs: 4, mus: [0, 0], ns: [3, 3], ls: [3, 3], ms_combs: [0, 0, 1, -1, 2, -2, 3, -3], ctildes: [0.016370982588842512, -0.087978018372338082, 0.00077667692323218473, 0.043428430666607856, -0.032741965177685024, 0.17595603674467616, -0.0015533538464643695, -0.086856861333215712, 0.032741965177685017, -0.17595603674467614, 0.0015533538464643692, 0.086856861333215699, -0.032741965177685017, 0.17595603674467614, -0.0015533538464643692, -0.086856861333215699]}
    - {mu0: 0, rank: 2, ndensity: 4, num_ms_combs: 1, mus: [0, 0], ns: [3, 4], ls: [0, 0], ms_combs: [0, 0], ctildes: [-0.18478387500971899, 0.31235750628327097, -0.14971869695573306, -0.0080964752444879062]}
    - {mu0: 0, rank: 2, ndensity: 4, num_ms_combs: 2, mus: [0, 0], ns: [3, 4], ls: [1, 1], ms_combs: [0, 0, 1, -1], ctildes: [0.061430180409901738, -0.075805110795650138, -0.076173870805590335, 0.034012921663323391, -0.12286036081980345, 0.15161022159130025, 0.15234774161118064, -0.068025843326646768]}
    - {mu0: 0, rank: 2, ndensity: 4, num_ms_combs: 3, mus: [0, 0], ns: [3, 4], ls: [2, 2], ms_combs: [0, 0, 1, -1, 2, -2], ctildes: [0.059878772895405372, -0.21435117987469945, -0.19715796398521776, 0.047637333626409456, -0.11975754579081076, 0.42870235974939896, 0.39431592797043558, -0.095274667252818926, 0.11975754579081078, -0.42870235974939908, -0.39431592797043569, 0.095274667252818954]}
    - {mu0: 0, rank: 2, ndensity: 4, num_ms_combs: 4, mus: [0, 0], ns: [3, 4], ls: [3, 3], ms_combs: [0, 0, 1, -1, 2, -2, 3, -3], ctildes: [-0.027665807509466345, 0.095098690003083949, 0.092014345180718327, -0.057542118922520091, 0.055331615018932689, -0.1901973800061679, -0.18402869036143665, 0.11508423784504018, -0.055331615018932682, 0.19019738000616787, 0.18402869036143663, -0.11508423784504017, 0.055331615018932682, -0.19019738000616787, -0.18402869036143663, 0.11508423784504017]}
    - {mu0: 0, rank: 2, ndensity: 4, num_ms_combs: 1, mus: [0, 0], ns: [3, 5], ls: [0, 0], ms_combs: [0, 0], ctildes: [-0.003447927611017964, 0.12511157786612168, 0.39714188299405789, -0.050687515500268961]}
    - {mu0: 0, rank: 2, ndensity: 4, num_ms_combs: 2, mus: [0, 0], ns: [3, 5], ls: [1, 1], ms_combs: [0, 0, 1, -1], ctildes: [-0.09237690524792963, 0.14384340969093556, -0.10318396391988804, 0.06868648213840696, 0.18475381049585923, -0.28768681938187107, 0.20636792783977606, -0.13737296427681389]}
    - {mu0: 0, rank: 2, ndensity: 4, num_ms_combs: 3, mus: [0, 0], ns: [3, 5], ls: [2, 2], ms_combs: [0, 0, 1, -1, 2, -2], ctildes: [0.026907429381113668, 0.049434146708681646, 0.13650546792209342, -0.15609003322545467, -0.053814858762227344, -0.098868293417363307, -0.2730109358441869, 0.3121800664509094, 0.053814858762227358, 0.098868293417363334, 0.27301093584418695, -0.31218006645090945]}
    - {mu0: 0, rank: 2, ndensity: 4, num_ms_combs: 1, mus: [0, 0], ns: [3, 6], ls: [0, 0], ms_combs: [0, 0], ctildes: [0.2476053213667275, 0.35731309187591959, 0.063219387983695002, -0.27141790712530817]}
    - {mu0: 0, rank: 2, ndensity: 4, num_ms_combs: 2, mus: [0, 0], ns: [3, 6], ls: [1, 1], ms_combs: [0, 0, 1, -1], ctildes: [-0.0031825677288012427, 0.21655331076894127, 0.33606317929070473, -0.19773188924099333, 0.0063651354576024846, -0.43310662153788249, -0.67212635858140934, 0.39546377848198655]}
    - {mu0: 0, rank: 2, ndensity: 4, num_ms_combs: 3, mus: [0, 0], ns: [3, 6], ls: [2, 2], ms_combs: [0, 0, 1, -1, 2, -2], ctildes: [-0.038421095703143095, -0.10670933638152122, 0.036901059888164847, 0.15512062973065333, 0.076842191406286203, 0.21341867276304247, -0.073802119776329708, -0.31024125946130671, -0.076842191406286217, -0.21341867276304252, 0.073802119776329722, 0.31024125946130676]}
    - {mu0: 0, rank: 2, ndensity: 4, num_ms_combs: 1, mus: [0, 0], ns: [3, 7], ls: [0, 0], ms_combs: [0, 0], ctildes: [-0.12154506258347873, 0.075837711999061891, 0.19273480909310109, 0.04623921123181754]}
    - {mu0: 0, rank: 2, ndensity: 4, num_ms_combs: 2, mus: [0, 0], ns: [3, 7], ls: [1, 1], ms_combs: [0, 0, 1, -1], ctildes: [-0.031519565602809142, -0.097626703105550633, 0.0084108155213291173, 0.13636006914122406, 0.063039131205618271, 0.19525340621110124, -0.016821631042658231, -0.27272013828244807]}
    - {mu0: 0, rank: 2, ndensity: 4, num_ms_combs: 1, mus: [0, 0], ns: [3, 8], ls: [0, 0], ms_combs: [0, 0], ctildes: [-0.062027838950326833, 0.15401495574857682, -0.07476673266839981, 0.20188945535295633]}
    - {mu0: 0, rank: 2, ndensity: 4, num_ms_combs: 2, mus: [0, 0], ns: [3, 8], ls: [1, 1], ms_combs: [0, 0, 1, -1], ctildes: [0.032151451885914263, 0.14680267138673858, 0.0029294346936935126, -0.16857848082580321, -0.064302903771828512, -0.29360534277347711, -0.0058588693873870244, 0.33715696165160636]}
    - {mu0: 0, rank: 2, ndensity: 4, num_ms_combs: 1, mus: [0, 0], ns: [3, 9], ls: [0, 0], ms_combs: [0, 0], ctildes: [0.015795883427695518, -0.27006842904292111, 0.033225083490732985, 0.11485195459310779]}
    - {mu0: 0, rank: 2, ndensity: 4, num_ms_combs: 1, mus: [0, 0], ns: [3, 10], ls: [0, 0], ms_combs: [0, 0], ctildes: [0.10095596351666651, -0.020654973586820728, -0.064699499187461124, -0.19626022865568624]}
    - {mu0: 0, rank: 2, ndensity: 4, num_ms_combs: 1, mus: [0, 0], ns: [4, 4], ls: [0, 0], ms_combs: [0, 0], ctildes: [-0.39269176674916073, -0.13375676120784982, 0.31241216687723028, 0.41363684324454009]}
    - {mu0: 0, rank: 2, ndensity: 4, num_ms_combs: 2, mus: [0, 0], ns: [4, 4], ls: [1, 1], ms_combs: [0, 0, 1, -1], ctildes: [0.043434167343307122, -0.21031648615077495, 0.34719898677381217, -0.11746086702701188, -0.086868334686614229, 0.42063297230154978, -0.69439797354762411, 0.2349217340540237]}
    - {mu0: 0, rank: 2, ndensity: 4, num_ms_combs: 3, mus: [0, 0], ns: [4, 4], ls: [2, 2], ms_combs: [0, 0, 1, -1, 2, -2], ctildes: [0.0090684841787640417, 0.011285394792529092, 0.051841868226430034, -0.036808990076687656, -0.018136968357528083, -0.022570789585058187, -0.10368373645286008, 0.073617980153375326, 0.01813696835752809, 0.02257078958505819, 0.10368373645286011, -0.07361798015337534]}
    - {mu0: 0, rank: 2, ndensity: 4, num_ms_combs: 1, mus: [0, 0], ns: [4, 5], ls: [0, 0], ms_combs: [0, 0], ctildes: [-0.062821888285305091, 0.0010967068809673822, 0.2129723544664599, -0.065500733031879907]}
    - {mu0: 0, rank: 2, ndensity: 4, num_ms_combs: 2, mus: [0, 0], ns: [4, 5], ls: [1, 1], ms_combs: [0, 0, 1, -1], ctildes: [-0.05442315269871361, -0.12027183317159924, -0.10047277026541458, 0.21934748203986873, 0.10884630539742721, 0.24054366634319843, 0.20094554053082914, -0.43869496407973735]}
    - {mu0: 0, rank: 2, ndensity: 4, num_ms_combs: 1, mus: [0, 0], ns: [4, 6], ls: [0, 0], ms_combs: [0, 0], ctildes: [0.01677781228117893, 0.034534132714003352, -0.60254214979159082, -0.17867067478001089]}
    - {mu0: 0, rank: 2, ndensity: 4, num_ms_combs: 2, mus: [0, 0], ns: [4, 6], ls: [1, 1], ms_combs: [0, 0, 1, -1], ctildes: [-0.039733846209458357, -0.063351762346168392, 0.34924030033039499, -0.055715766968675307, 0.079467692418916699, 0.12670352469233676, -0.69848060066078987, 0.11143153393735059]}
    - {mu0: 0, rank: 2, ndensity: 4, num_ms_combs: 1, mus: [0, 0], ns: [4, 7], ls: [0, 0], ms_combs: [0, 0], ctildes: [0.03066918675407081, 0.095614577741979637, 0.31401090257055125, -0.19317594157127621]}
