elements: [Si]
E0: [0]
deltaSplineBins: 0.001
embeddings:
  0: {ndensity: 2, FS_parameters: [1, 1, 7.5577494194990145, 0.10100000000000001], npoti: FinnisSinclairShiftedScaled, rho_core_cutoff: 5, drho_core_cutoff: 5}
bonds:
  [0, 0]: {nradmax: 12, lmax: 7, nradbasemax: 19, radbasename: SBessel, radparameters: [3.3135018034502046], radcoefficients: [[[1.4303981424500103, -0.39551982817977671, -0.31598655744070109, 0.32828190827403048, -0.11025330987755762, 0.01902545455785689, 0.039003566181093498, -0.082417178699704982, 0.17754306753428512, -0.1964214836624861, 0.18045262648967153, -0.12715656433685801, 0.082056874530272036, -0.045512099698848361, 0.022821136110089284, -0.0035182940019831159, -0.0020733561819718089, 0.0019723155408018921, 0.00015252710489488649], [1.0410195409545218, -0.37607976526375547, -0.26934546921483932, 0.22860096207845457, 0.021418320571891497, -0.19410916212904608, 0.10363696771083003, -0.011779427167927152, -0.074994794428101308, 0.10437078057585061, -0.11051376013415179, 0.083143571088017579, -0.049964684083126668, 0.022005144188059735, -0.01090202361431695, 0.0056485305134790307, -0.0045286962051479121, 0.0026446177671017265, -0.0017374060213966053], [1.2890793116634243, -0.22235874350407633, -0.19752915608832641, 0.1663032238623279, 0.16814799859788868, -0.20508139389525257, -0.036993344227081518, 0.2272104580754615, -0.28693050896501432, 0.27099677128210731, -0.20372733601886872, 0.12725194382401417, -0.043405834125099407, -0.013119831671528678, 0.031786712052976132, -0.024387452583874737, 0.014985819355225275, -0.0063367556827190726, 0.0016582135965241022], [0.71083543983284059, -0.15014777170027457, -0.2351957592886848, -0.11632480135386297, 0.20085347176283092, -0.1005554694274317, -0.010850476166081719, 0.092955059523725417, -0.091365399669235667, 0.1001030183370147, -0.087310090733630455, 0.057599576078704036, -0.023392249342161713, 0.0091897685437276715, -0.0049095729820053061, 0.0038531401971208423, -0.0022189313709850603, -0.0028855268054933715, 0.0019954926506584795], [1.1138130292991357, -0.12987694824241211, 0.11787949571801155, -0.19599936340470919, -0.26966596415695576, 0.11527473161624865, -0.20926774233601761, 0.14813787989977387, -0.02296754624857476, -0.10246172711507212, 0.19045799778508424, -0.20388171918980313, 0.16597149494257887, -0.11749328772084396, 0.072707285211193434, -0.026687436755268665, -0.0049394637298055353, 0.010965404829358299, -0.0045072344966828048], [1.7399905267823306, 0.39419749130542053, -0.17123092631993223, -0.30512069448820128, -0.3507872946420928, -0.17890089890362376, -0.061912141157518252, 0.027700241676672167, -0.054082437245549668, -0.010481776253674848, 0.056922866794614543, -0.071206034448046893, 0.052659495836170016, -0.051688063743317088, 0.050455132253935976, -0.033786008982807064, 0.020378758888645581, -0.011190825787545308, 0.0024357820712862474], [0.67236504087036264, -1.4662188212446448, -1.7395790595720817, 0.30131070626858958, 1.0477563500929283, -0.07020682752547619, 0.31749702406223929, 0.59994430316525527, 0.31913833897296884, 0.33859366101471539, -0.18895646192505047, 0.29769411540702156, 0.1507117729778189, -0.062352253273100504, 0.2157402397311097, -0.05182874227918461, 0.18142330822110753, -0.052548988614808258, 0.085354846850420787], [1.0380688785621759, -0.64642572501828022, -1.3431939746373975, -0.34679201257200315, 0.41401455982706953, -0.2967272025375331, -0.10860833022382065, 0.22521854913687625, -0.18748668484690689, 0.12252906889298565, 0.19550543934296355, -0.080411581335502247, 0.14025640289186697, 0.02274840816631047, -0.054732392161867496, 0.13172003179657321, -0.011205737383855465, 0.006369197525416535, 0.0022265731871765034]], [[0.1714038369726141, 0.60275655367651615, -0.37842291626293861, 0.0028833447928857865, 0.021277966864886481, 0.22622078775834839, -0.12951509164040287, -0.040019143347672863, 0.18204131915883764, -0.20230040043912123, 0.20581125701446551, -0.18042460248403563, 0.12465576373890426, -0.056430775793236479, 0.0022499230014823004, 0.026813027054103392, -0.029272894948553039, 0.014008406917770626, -0.004506679303212335], [0.3441969725506841, 0.71852194327801722, -0.009561607061951527, 0.19807408437730772, -0.11518406025046626, 0.22699313502975102, -0.078719100123848723, 0.026540176940729739, 0.079890198183187947, -0.13401377358201857, 0.2441198829108594, -0.26452273372932011, 0.24592163134432943, -0.16556564752661382, 0.096442738589763349, -0.033562379051619774, -0.001744366379704978, 0.0057990885951016181, -0.0023222643120370157], [-0.59012707920151652, 0.39811403321282918, -0.021631152252949745, -0.51133104395007223, -0.32732218731138363, 0.33494136062585395, -0.085606912277927411, 0.040001160025126707, 0.030305024509227535, -0.021436737339174262, 0.069886672743108155, -0.030207799213597262, -0.011238105068327104, 0.066144402561770496, -0.045834332011196584, 0.042437600866302216, -0.024311945959272468, 0.013916921697053716, 0.0050752168275731173], [-0.82011697836970265, -0.029115929894064245, -0.48143249534934018, 0.31251693232742139, 0.19918367884859256, -0.20059313869724574, 0.049459777919387271, -0.0043334842958670577, 0.027740549426558913, -0.028688048506407781, 0.032095367582410703, -0.040302010597868899, 0.092209367620403687, -0.11071554222480229, 0.10411307294335354, -0.067462260944517113, 0.039851230206381205, -0.015788560342726906, 0.0055235326774360979], [0.40878337646752005, 0.85135178221690433, 0.59690365585516192, 0.1138669738461779, -0.93039767485095126, 0.26559774822030052, -0.083373158474147446, -0.41136509214757677, 0.27404510231416085, -0.253437103413159, 0.01160762327254462, 0.18733177556959721, -0.3870978268081347, 0.41146878588328989, -0.39703597637355631, 0.25856084882760227, -0.1683936709225537, 0.070918104104367316, -0.032630769551651138], [-0.1118711748064396, 1.7978136658649859, 0.73716796735588341, -0.29163340009504618, -0.54797505599619667, -0.21582975705046833, 0.098159073849027945, -0.30008892546712923, -0.18123333800238517, 0.19798869878936551, -0.30018678359573875, 0.10697936819784794, -0.052486331325579581, -0.075908980126045203, 0.044588535282889981, -0.10693521882851686, 0.030140888216575627, -0.036973177606213485, -0.0042962702745441943], [0.35987060583412001, 1.5876890240937329, 0.53295350952454235, 0.032122813870038187, -0.41955226960092268, -0.14467033294144924, 0.032512338278944924, -0.2286777754342289, -0.24584508132555158, -0.1202559479459472, -0.029626677657345418, -0.074933515730494907, -0.12276119630023968, 0.076989258001650018, -0.16304499850892593, 0.044267161125860446, -0.079326355917950273, -0.0041033427018276761, -0.033142570307302201], [0.1694245366359631, 1.0483766116494673, 0.40957611726110116, 0.50843472209175089, -0.26175369899950679, -0.2151276728519608, 0.20477704034655206, -0.12426667656519598, -0.1203258963729366, 0.086692970725411378, -0.13246304584936983, -0.10175199208033674, 0.014767170331012188, -0.069165488702925701, -0.0098932315859924774, 0.011928074920077887, -0.066336045343175679, 0.029206987933821846, -0.076224066093426482]], [[-0.074767654666506506, -0.043630565807888544, 0.53584685708234803, 0.015155009687411002, 0.059650561042501486, -0.28850314884403744, 0.4355985591959381, -0.075237714204554038, -0.059056285262932155, 0.20268281279207548, -0.17201412140057457, 0.21890390702599774, -0.16726712839103491, 0.11906715102793965, -0.0078541909626839938, -0.036824930206709842, 0.054551514462125597, -0.027293217200317035, 0.016280720679400514], [-0.26305766866095082, -0.66352526395641231, 1.1315052132206036, 0.13214601393860623, -0.125563754529808, 0.095648501486604476, -0.1422116213399994, 0.10887550040169194, -0.023180414397473193, -0.086527802630667158, 0.13840811843251905, -0.061432485676388544, 0.0058266314198734161, 0.041161387666976558, -0.049561924933824018, 0.050758377210155053, -0.031774532795651997, 0.012995729621646865, 0.0007670448591677963], [-0.27127455242916904, -0.44966060127766777, 0.79449176818148237, -0.27192055395489839, -0.15808934680229569, -0.002491990790104088, -0.12317011491936489, 0.12513648613995698, -0.093024684690760875, -0.012109650732955359, 0.13444713557094357, -0.16885920013763525, 0.16776176725895112, -0.14113683235046595, 0.095131650212904248, -0.050581406172316531, 0.026550971565436437, -0.012251912988316356, 0.0041669542077881656], [-0.018230468048802212, 0.31912409971191835, 0.66748493132057374, -0.36407440865374946, 0.092307150202993238, -0.245833766097586, -0.0019791971208986902, -0.086814416644332301, -0.088237691101558713, 0.11988182071782705, -0.24711862203348972, 0.25198881824062708, -0.2775252973520132, 0.22722738979288115, -0.22568332384795817, 0.15370695849000107, -0.10480984718490248, 0.05006198315451562, -0.023845463632300248], [0.097264042255606545, 0.24626647873433599, 0.56639174168641038, -0.15896515234659739, 0.020884548999502442, -0.22022303454150038, 0.19244503007583177, -0.21105520999880359, 0.10143429317736727, 0.041368059586042318, -0.22152079706950206, 0.36684429686036135, -0.39475970481782297, 0.34820584404976546, -0.24467906762377337, 0.14696320160038925, -0.074844998679517105, 0.031441894835166295, -0.010736391427489132], [-0.32746909791803813, -0.97905698071129454, 0.0832472511955165, -0.73252506676226337, -0.76584835628247838, -0.28803802759327385, -0.76382289416787741, -1.517681869202268, -0.51941274621030109, 0.18162254668387418, -0.26370815920878393, -0.37931277292087218, 0.016918571080705321, -0.16718520601991954, -0.049224339092817364, -0.35034045824531673, 0.40805532940308603, -0.35263434524661613, 0.11899712531394013], [-0.090791847070825923, 0.19549698068048707, 1.1520516503884111, -0.13324552188343991, 0.3207505015565561, 1.0369470439649746, 0.87670540043616474, 0.15116806263441285, 0.01101804169413855, -0.042465151085351198, -0.39314749859338949, 0.0077107381781139064, 0.2015622549377514, -0.17661289274468342, 0.054516777900828435, 0.10643836999505955, -0.1695454854161566, 0.069017706224098113, -0.070324701725698935], [0.0014908811450385735, -0.044516619526982985, 1.0118646233550255, 0.2848494700509952, 0.27631221853682858, -0.092787278672265161, -0.097893883702573181, 0.12059041045983687, 0.0085555631480659609, -0.052224441415625135, 0.05645929423668735, -0.057946313071197054, -0.063808982932900993, 0.009800327860220134, 0.023719899544753419, 0.029010389475187578, 0.0015353343535341242, -0.065322410463860961, 0.02205303439038489]], [[0.51971740422685642, 0.15006029494565662, -0.38129418693559669, 0.72452101923017131, -0.37712752597446159, -0.29880618249789948, 0.10757157335781166, -0.20406135027149502, 0.055154956688536615, 0.14709187658884404, -0.44197741577690497, 0.58287850820596188, -0.53527886609726039, 0.3633068176222039, -0.20397145897116123, 0.082708009432190061, -0.011099152012017837, -0.0035100403498592109, 0.0092032418583930433], [-0.51649137061151096, -0.092343654869493003, -0.072655246983724359, 0.4683856098912324, -0.087026490192188527, 0.21168471084967921, -0.34263529627492728, 0.030852714941712288, 0.19966382308999969, -0.35561292816771345, 0.28709888223918878, -0.18318852281354467, 0.084878843708498672, -0.022111398668043947, -0.040537220574412496, 0.056242835516671114, -0.0397591918068416, 0.016151983936816841, -0.0050567546917635302], [0.60060658483735296, 0.51472500512474273, -0.16433611125040373, 0.86229469317287577, 0.18762397705685907, -0.13958913232762243, -0.21970298691955553, 0.0082382893399336899, -0.047528473917096636, 0.0020730505998973908, -0.075298592763106659, 0.016168626115953266, 0.0195752843679016, -0.10005375180379543, 0.040208562400282803, -0.030441304547036155, 0.013197142326504572, -0.01380560066242147, -0.011309211916820321], [-0.24547869501854228, -0.56845819317781077, -0.60276930794988115, 0.42531200020027599, -0.25848373744113878, -0.25936478988377626, -0.31984651493124355, 0.27755755485493283, -0.074122242444112585, -0.14205457621400322, 0.23888588261973756, -0.23103387987977228, 0.26651695587051494, -0.30982057779763206, 0.26391026477976359, -0.15553257616019248, 0.081424591006898292, -0.023926828077815047, 0.0070560510531688407], [-0.10537920648191523, -0.25973716757912252, 0.16542745443417112, 1.6554114278334291, 0.045237767907967463, -0.64786869524249435, 0.125042505177418, 0.87416454493031526, 0.20320614981356758, -0.13088066299591619, 0.35665080875677835, 0.22125582686675085, -0.070115386317809822, 0.14179400575046072, 0.22324368926726698, -0.059206270422248297, 0.16134822133660018, -0.042200333057489714, 0.064412130663661554], [-0.01822501916323252, 0.073934655670395408, 0.056278067459592865, 1.2212608756567025, 0.72413577628974313, 0.66759823263569551, -0.13307863514996671, -0.77430907970985496, -0.44409436525937063, 0.15922741952963596, -0.13232739007605365, -0.23203192808954873, 0.1510134188585239, -0.073012608778091931, -0.29228868722928042, 0.0097238767071987191, 0.025365615610364704, -0.022536768414006328, -0.039204188625562422], [-0.03442411430539024, -0.12935475156968473, 0.045947951956519885, 1.2572232049651206, -0.18521002810411405, -0.45401225568257164, 0.084723317646200683, 0.20140348609697131, -0.039030723029385407, 0.02104844317174798, 0.026176688969690401, 0.069803109703742955, 0.033311196456074402, -0.09930446429565179, 0.030416114328860978, -0.07770777053377359, 0.077921445087696314, -0.086714517388999032, 0.049048341844829778], [0.00017952777046728913, 0.0052697732830559105, -0.014989427532845649, 0.91600746773631392, -0.030204019893549889, 0.020531853711973195, 0.014296029424085458, 0.021288551310675898, 0.017598893968325646, 0.010277655558818179, 0.010481570132512242, 0.056526897043084938, -0.0072791545518920541, -0.0055177730669095761, 0.0023313575101500915, 0.0056892552029191509, 0.00065731081757849409, 0.0027024832848737113, 0.0056066042113583747]], [[0.52354322075863069, 0.17878505128844574, -0.52145654640421457, -0.43893525096495239, 0.70547117225562872, -0.27341760393265718, -0.14282640882002806, -0.091951170938605498, 0.13468560794979106, -0.083850742680989979, -0.25032059287552044, 0.40378856248100786, -0.43608006210261135, 0.30151925857978734, -0.19732049470395718, 0.089087879552800731, -0.048499311347293655, 0.014115972979854934, -0.010620968530352231], [-0.51477625652667935, 0.43638807827188225, 0.056444475513966891, -1.149868007369617, 0.91215461410483045, -0.14707357828757528, -0.48743082495370788, 0.32409809559396496, -0.17206169292888196, 0.038593255034662072, -0.0366654554735487, -0.03855706068663188, 0.074095870056027024, -0.075894478245883287, 0.015214002852065535, 0.014266159585301266, -0.026372248178685442, 0.01861247601045346, -0.014654730932957312], [0.57438747007878133, 0.50987709215517363, 0.075118512547040175, -0.20671500494752482, 0.74710331959478615, -0.26310963918702196, -0.50924391409244696, -0.23623869429546401, 0.035908239573533965, -0.17537650693515264, -0.10382438405629414, -0.042906194696754565, 0.0084520901533677584, -0.12068771909143344, -0.079084977740783033, 0.04374518719623708, -0.05714111433725455, 0.0046141019128074813, -0.031544939061069741], [0.6317634661052195, -0.036114053493712342, 0.0036105703341105279, 0.53639006993261473, 1.1271941644430286, 0.31363523387400016, 0.37592592285066456, -0.020385312463016534, 0.020460074973385745, 0.036189816086884104, 0.045480745936032844, -0.17649121732775266, 0.23179438710732064, -0.071413914360609107, -0.0019911479887550045, 0.0078094745847977461, -0.010836225079898501, -0.027956567876488363, 0.024426977603494993], [0.14585159807796136, 0.074614389496731867, 0.12662978018600607, 0.28106161661573642, 1.1394414765893845, 0.23859613837939112, 0.013369128133123609, -0.88270730091391159, -0.53526834590342576, 0.2894446728314225, -0.35738365196421967, -0.4121988680128274, 0.29936035496733049, -0.29117794732302094, -0.31811435383976855, 0.10794235906958426, -0.21355992720415548, 0.072821265081514999, -0.12390377319594627], [0.028740095425976529, -0.23395977220735148, 0.17518750775348155, 0.52147429489151553, 0.34178589582468349, -0.88879985864991218, 0.58151088972254572, 0.57841280075879287, -0.23051713893765816, 0.11199344801727619, 0.050410563796950074, -0.21578208570180407, 0.12749093395086705, -0.017052444549737273, 0.0079137915341561133, 0.06870451694347586, -0.032857355405020293, -0.054991911265298836, 0.07552214730748695], [0.044642624912264471, 0.03039388350321617, -0.0060958147525687588, -0.15521812642852384, 0.77443267258823656, 0.12629165804979256, 0.19206139415547216, -0.047389057833816382, 0.16387798077232768, 0.2266095362490346, -0.0449676024826762, 0.16714267540306521, 0.271295414876845, -0.020883849697950017, 0.01232374423335989, 0.060167654026677717, -0.11041420934256278, 0.11623753580205608, -0.040944776573076408], [0.0007088502965029805, 0.0010356984058254887, 0.0089280779671932209, -0.022421556343984923, 0.88522941547557044, -0.041411251255035329, 0.024029697503725495, 0.014870998750882445, 0.025416770890231768, 0.0293990921152169, 0.0094325310905677764, 0.02024477317989674, 0.019099473388054483, -0.0087100890043974744, 0.041808059735478763, -0.0060770632168530734, -0.0045922147061404637, 0.0016694933350456128, 0.0067926780141780814]], [[-0.69919666565956407, 0.085269201386490592, 0.0022664311852866109, -0.10879434887306395, 0.29665291781648562, 0.49223258387703223, -0.17229349030201854, 0.33389706519002216, -0.22692086343232012, 0.034611284840762903, 0.28011995260866018, -0.44705330378715874, 0.42491163260264397, -0.25539860199324693, 0.10781598001390766, -0.014589316154835358, -0.036874027602574737, 0.023601856412531316, -0.014409045488633351], [-0.35517056100915062, -0.58190255872138852, -0.0077423345828934965, 0.38052328648973294, -0.43269972141247309, 0.45961158613537834, -0.048607709271866223, -0.21355841584148899, 0.13400659299719181, -0.047483489477307607, -0.13365366729000991, 0.13901595747525439, -0.1600315552430378, 0.12723644143264884, -0.10973103051420882, 0.042837771381898405, 0.0018754177996710003, -0.022347608159053317, 0.01027310722650961], [-0.65429012309235268, -0.47865312738621685, -0.031061955736811805, -0.17098676277075986, -0.61038601093294609, 0.49329732936711379, -0.18686292797845488, -0.1549916340146241, 0.027448368256514484, -0.13819548697472733, 0.044205252593131551, -0.16634947387570911, 0.055120067260522529, -0.010879209783848419, -0.094701815136284076, 0.051976375132224459, -0.049312575122217414, 0.022003070199768441, -0.017322310052671094], [-0.19848765993534465, -0.046404495359595253, -0.17240661996523796, -0.16070869784899983, 0.2099893856308131, 1.3097327483649004, 0.26191995946216634, -0.1120653654514909, -0.051946465832219658, 0.25240065887548468, -0.13140157398263944, 0.0022622189919154398, 0.032072367102600099, 0.11989959583454822, -0.024042704416542351, -0.033549815163581707, 0.071759580694361391, -0.049002511665473938, 0.017687911634126884], [0.19611062487193387, -0.23035654575060041, 0.016450684814424348, 0.69624288851346083, 0.13900256495509236, 0.9181085387520127, 0.67875428799713577, 0.37430423529610107, -0.36405071463452537, -0.2479050460730636, -0.033173567015098028, -0.059879631321259744, -0.05803965279891813, 0.10967007399461655, -0.18868819447285776, -0.0068536051688181995, -0.054368286171496034, -0.081717070001826667, 0.035234071708589977], [-0.034686930609725379, 0.068718227609289362, -0.0041911248158218676, -0.12458779698831565, 0.0175715948227438, 0.92644857251614876, -0.13972267081870632, 0.12821561881680052, 0.013298180020345135, -0.10556509743948167, 0.23518788398440474, 0.041524407349269606, -0.14369800789685905, 0.17499872041587725, -0.036903867239169476, -0.10811675513447581, 0.14927728393976442, -0.088237604072024481, 0.048996751281833076], [0.00061787664494135461, 0.0027609344270087461, 0.0022264200551968126, 0.011780635472789179, -0.034123041777830612, 0.83257452251365471, -0.062189710108355375, 0.055910461644520279, 0.035046580666242604, 0.031452223248900443, 0.025585246369527977, 0.011073320760063482, 0.01321836717240508, -0.0063071347816106302, 0.0068326947575122849, 0.013754633699636351, -0.011578179662635203, 0.059121145756146243, -0.019067087757078795], [0.00046039418661492754, 0.0022300407759250195, 0.0013083139391700091, 0.0098041936679749819, -0.032547102136958821, 0.84360839379255637, -0.058026228713351433, 0.05537552510256611, 0.039187820284452467, 0.037063288266664357, 0.032201138972932107, 0.019302201440927525, 0.021835611520499076, 0.0022834581127232343, 0.012301413919197052, 0.016273147613478835, -0.010234966964912103, 0.06127214447998286, -0.021842176119549885]], [[-0.070619435577946879, 0.0091110617569667377, -0.29288509176961053, 0.13157462650094787, 0.47379490223722914, -0.2063197950409531, 1.064583630495308, 0.10423227269846007, -0.225745211592703, 0.45025234873686004, -0.039616686197649957, -0.0020827508509333801, 0.09191717425598421, -0.0052774393000185457, 0.095528503451600522, -0.072417832130849263, 0.061273775777444625, -0.025820030697922224, 0.01318924014508051], [0.77243489634046913, 0.30084339442429309, -0.07593709099918404, 0.34177341384406879, 0.19031236194061779, -0.25444716997963673, 0.53319079262442326, -0.27314186184274858, 0.1033887398463571, 0.047604230309107737, -0.10801769783881447, 0.23542478753683241, -0.32090922276382394, 0.3092023024264331, -0.21824961422917094, 0.12445475419560847, -0.052221384306093105, 0.021898285102960099, -0.0030647631501214572], [-0.27086251285468876, 0.34862270430313647, 0.42195630611565355, -0.13204540428278475, -0.071764172040347116, -0.31924800719306945, 0.51033805303763402, 0.23578219861043964, 0.43062862930397983, 0.20140619780183483, 0.27960580366237336, 0.10278205107902934, 0.094153550602990035, 0.12865346308846559, 0.22649739195834329, -0.040976476354755619, 0.10053326555640482, -0.04067549768101765, 0.060451303558080302], [0.31973129243053672, 0.010129584308260619, 0.10574136788129485, 0.26472626863111598, 0.040545975946130408, 0.45948500127527586, 1.4151572677143138, 0.22422959984178323, 0.49303489620526281, -0.15012578665081983, -0.060499994082075355, 0.36775026162904978, -0.22849389419624397, 0.28816783665503648, 0.098949333042398988, -0.12719197468748142, 0.10157713109798146, -0.18510203922567534, 0.15121073733174914], [0.036306324520523667, 0.064672792172361174, -0.040578347976393356, -0.091151615762914862, 0.082949431609963584, 0.1678839463145472, 0.94297821793072634, -0.20509345759485173, 0.12252367895657887, 0.49164267437688214, 0.12165667526811413, -0.19851381383974834, 0.20502720119716306, 0.28053940999800858, -0.12978378242837882, 0.14296993001781022, 0.081807666455118069, 0.078769649645338988, -0.028882080828786034], [0.0094596367236627309, 0.0066491214156819654, 0.039545372777786199, 0.069260955304227198, -0.0052512978611318961, -0.11185852656554759, 0.85554793295824794, -0.055477767351839943, -0.0046764916559954546, 0.050389682140465526, 0.12171073151445698, 0.098480534802345226, -0.0073146867392442352, -0.035477234827522901, 0.097512555869018122, -0.08939972066764594, 0.043859406748164097, -0.0039931022278450173, 0.028862909123304085], [0.00074771956228320122, 0.001605343647465108, 0.0055166517625288812, 0.0086928572747429489, 0.028152123537698193, -0.046621164227774362, 0.77746528893778988, -0.087750565814603193, 0.024218668423733925, 2.4819333903614479e-05, 0.018811190684705836, 0.011713100019699415, 0.017757545417015699, 0.021600216981209428, 0.0094037839679860253, 0.0055848053285666157, -0.0069125096285561054, 0.00089419884917797741, 0.033752937110763638], [0.00063636328369144624, 0.0013355576383282716, 0.0049627758638145832, 0.0080257487354196168, 0.026305538387340763, -0.043191442245911621, 0.79289819697275155, -0.082013013401990964, 0.02213942546203183, 1.5101345750482821e-05, 0.018460348772966702, 0.013502836286029255, 0.020526913233911353, 0.02490031735068627, 0.012895520019601934, 0.00881871362470079, -0.0040282886986518374, 0.0023347543422131342, 0.034408660153431636]], [[0.080130945577491577, -0.38436008409267575, -0.50269932184362265, -0.32062041498175226, 0.044839714636921525, 0.64459889856079977, -0.037028221500696665, 0.52448373478134414, 0.27283713318833469, -0.018880295728109793, 0.11734199833630618, 0.14040181476235769, -0.36126402387388851, 0.53673148015710037, -0.46441850919819982, 0.37652189928629765, -0.17536044718148361, 0.036354831078184394, 0.010933101289205624], [-0.2734728577930608, -0.10368590796986263, -0.30520038568070762, -0.10840175089776972, 0.15547485823379847, -0.2483602858441416, -0.18977467567111778, 0.70086108649592072, -0.24059425039939286, 0.013748102889993893, 0.032819993568199771, 0.18503585789961691, -0.28163804063001924, 0.11118345835914847, 0.077577575462279239, -0.12389890212575681, 0.092889714283486857, -0.026382617602573634, 0.014018391867165261], [0.1824582839698439, 0.35288864303423528, 0.23573320450554155, 0.045782148883329508, -0.0045173261564015752, 0.16936491452592897, 0.085704335069189744, 0.42167503085146402, -0.77659728433163822, -0.48350909235266321, -0.12631070032252803, 0.028916764595053754, -0.44122090344197135, 0.047708315399081103, -0.14536240398996514, -0.28912641842243303, 0.15543854246468977, -0.056670137389791105, -0.026378905617723446], [0.016601996176589574, -0.019960319917059637, -0.039763945352322819, -0.053881921657610896, -0.077831165927412835, 0.057800755125539088, 0.12001946273455569, 0.92132652784757096, -0.10191262609587841, -0.20033148239115353, -0.29811121158951293, 0.076104930415737682, 0.18323956821464837, -0.067521077984892416, -0.052050162587544732, 0.14241297352373866, -0.26984266911969579, -0.027163203950769134, 0.088228981105675189], [0.019145106513366084, -0.087840428628949418, -0.024423506378948894, 0.07884508156383814, -0.035065111135359213, -0.089576680230636876, -0.14100663608427008, 0.76918548196242298, -0.19729595589161786, -0.20070668034503691, 0.029314317461309393, 0.11227838312978805, -0.062724482997028153, 0.038135818876057596, 0.01703451643648729, -0.13097929551088525, 0.13144162291171282, -0.11958861338840164, 0.0041239032594537935], [0.00030690761041370665, 0.0016289107044988504, 0.0024151929911762674, 0.0087253255758613906, 0.010523945945770111, 0.028627521189991977, -0.06948602433240729, 0.71945620211304318, -0.10192768905741062, 0.043611118285143462, 0.0081676706753736859, 0.026112809916194787, 0.013375267237211075, 0.0099352974795583159, 0.0098014125917061067, 0.019397822786674471, 0.015517444432360059, 0.0097493486916548962, 0.019008519581359837], [0.0003069076843719238, 0.0016289105675732379, 0.0024151929057529445, 0.0087253241981647741, 0.010523945932925034, 0.028627513193548695, -0.069486022353692348, 0.71945617390364291, -0.10192771450231544, 0.043611111264390247, 0.0081676668893782053, 0.026112820770158442, 0.013375268282694463, 0.009935295736852796, 0.0098014165970936561, 0.019397827376134602, 0.015517446068913161, 0.009749345908079507, 0.019008522605575544], [0.0002597883539132558, 0.0014610258657923746, 0.002317507995176648, 0.0079608505060768681, 0.0088584019003598909, 0.026395637670117787, -0.06325179480996497, 0.73875105507426286, -0.097354192304600795, 0.041189823272069576, 0.011686836002160594, 0.02559529601446215, 0.011237287283863952, 0.011020431000998693, 0.013440941895641899, 0.023367818946162921, 0.0200136549408878, 0.012826577760239818, 0.021177851036190853]], [[0.034398965141097783, -0.070018969210010357, -0.04810770099495075, 0.22465756926515834, 0.081402635677276777, -0.40323053839683021, -0.016697200959397401, 0.22352620348891436, 0.60919236264294363, 0.064344387019258639, 0.227062623207334, -0.12212238022430379, 0.24522750742466132, -0.17534991281958551, 0.068307623077021193, 0.17379637312859167, -0.072039189217320679, 0.017394213023391909, 0.066666324926911769], [0.07528089727529956, -0.021863981653464353, 0.053681126752916634, 0.17872705237700878, 0.0057751258225555218, -0.09278120491208447, -0.010055134696054801, -0.091356500117744988, 0.85394579795287995, 0.26497098080587445, 0.23319992469815731, -0.05063795973804721, 0.038498003448737689, -0.093664605398239828, 0.15187303734325608, 0.037150282655553937, 0.075453234919253986, -0.080975372322083641, 0.070986304029114253], [-0.013496577497471029, 0.025689629316851911, 0.012657381551721922, -0.016449355673971922, -0.057121005568100625, -0.1256518016747028, -0.10595423501472394, -0.34599060343252386, 0.46772432693466987, 0.084279904502563049, 0.15814012867707808, -0.40413207586055938, -0.15690797012812116, 0.26472061081618209, 0.087497828454885393, -0.13731362139630365, 0.15738459111293324, -0.0051666021476750893, -0.08545267642166933], [-0.00088271151667700316, 0.0078481988989347121, -0.028117894235696529, -0.037348764900821854, 0.0065234030293882146, -0.0026825931975428129, 0.01397054924926722, -0.033437142779303826, 0.79209533833894319, -0.034050786315766031, 0.10770384800708277, 0.043697092512508667, -0.070863077055599369, -0.13044946758068826, -0.013130412326150228, 0.15355510511735873, -0.022991753932789849, -0.041106856315162608, -0.023012584683245362], [0.0031854393732748559, 0.0070220389040246012, 0.0091434746174647967, 0.0054502318866595182, -0.0034991667178289089, -0.0092310029579035519, 0.041177031472693498, -0.071500182637772608, 0.67813846360269059, -0.12766400596314548, 0.0029413506622117339, 0.0062603671215204666, 0.0528346288518751, -0.014738915643363085, -0.016138106713107538, 0.0023507273071644826, 0.0080610184958497897, 0.038180855175513444, -0.021909941990574191], [0.00050125547474622284, 0.0010902485294234001, 0.0025659027240681402, 0.0036896127046792244, 0.012912514203392355, 0.011989581160590523, 0.032224106987093631, -0.089658673249290541, 0.65505021036367717, -0.12597015036066483, 0.056855554464703251, 0.014260251935919134, 0.025015068158523359, 0.023956288678307736, 0.031629359602184805, 0.018424831324284827, 0.018722517584742696, 0.0067477726090523415, 0.011800821291393452], [0.00050125542389440909, 0.0010902485609061323, 0.0025659023665416422, 0.0036896131908597807, 0.012912510992034569, 0.011989580263283362, 0.032224103594902451, -0.089658680062906615, 0.65505016236375835, -0.12597016226559438, 0.056855564413871656, 0.014260247975315077, 0.025015059892733806, 0.023956295306925637, 0.031629358443494786, 0.018424823099085705, 0.018722522642139396, 0.0067477749777932984, 0.011800819007361952], [0.00044480327038724516, 0.00095851033716813291, 0.0023052675936679752, 0.0033274707994479383, 0.011985866239931461, 0.011178438793708655, 0.030035545023354766, -0.083255569924873554, 0.67892415763461966, -0.11771946062616648, 0.052449228576258465, 0.012968276773076376, 0.023812549848618639, 0.024228630032179323, 0.031531623033226472, 0.019500703623121559, 0.021113692704449578, 0.0079048772627130694, 0.013094490380841933]], [[0.20936441907103651, 0.31495163477200111, 0.19522018584326992, -0.082222152862345341, -0.14058308974729836, 0.23278228268447385, 0.19595546883565046, 0.0067494627324460495, 0.32418354196112098, 0.89193680020491639, -0.24421682845560777, 0.43041483308820411, 0.060506758366809126, -0.23595921945288642, 0.36831217453129061, 0.041899813495021754, -0.037479532388605068, 0.069451613086364869, 0.076070970751093897], [-0.093542295998379182, -0.0064866590039321433, -0.11975315892937283, -0.32789491925646103, -0.17401355479039113, -0.015478359045012791, -0.0817667858518175, 0.034597285845054587, -0.092700082596777561, 0.47635335968569154, 0.025575332423116683, 0.23488504528193979, -0.38501820888594185, 0.39050637100915569, -0.1235242230681335, -0.04494277956720686, 0.14497145056925767, 0.00035747545667540767, -0.035532434831818699], [0.0045678409768557561, -0.058366850175330012, -0.037154551981111582, 0.037608604086292394, 0.070107131535573353, 0.055589519151380148, 0.041261408857885769, 0.2103008294752034, 0.098179931385737801, 0.65789393755664527, -0.1199902113229112, 0.18699463684992984, 0.060372598857953867, 0.030615180668586896, 0.12698950360990952, -0.014596450173827984, 0.13524459436788369, -0.099169942025908064, 0.057902796708863204], [0.022417418595461907, -0.027281195340156383, 0.0049831163423625334, 0.0398705123003451, -0.058314011527058826, 0.00033361196098763126, 0.086710038567173464, 0.00060657551476410562, -0.14382526825982359, 0.65355925905401402, -0.1715669113239322, 0.013379118679625783, 0.042442397457236096, 0.040724658898422993, -0.013455064311218703, 0.0098057172832473755, 0.071601249577384993, -0.026117024367001675, 0.062632665401345516], [0.00028857506131895773, 0.0014570526187339856, 0.0021144642695531471, 0.0049763295220994954, 0.0060914387851681287, 0.017011457567439048, 0.018482305050740697, 0.041270738651221647, -0.11448282799792775, 0.58553617315285322, -0.14902489774965663, 0.054008978620762489, 0.0033347153298836996, 0.039401498302102399, 0.026098746147039935, 0.02154857023056821, 0.011204797261435005, 0.0068468469691447776, 0.024525377184450425], [0.00028857503522848431, 0.001457052977391849, 0.0021144640497308912, 0.0049763286087334165, 0.0060914364325086144, 0.017011457071286561, 0.018482301572463465, 0.041270733728845689, -0.11448285079036898, 0.58553628881250375, -0.14902490772546578, 0.054008987642998642, 0.0033347156425225974, 0.039401510015728003, 0.026098749566532194, 0.021548568191752181, 0.011204796850351598, 0.0068468438251520101, 0.024525384560733592], [0.00028857502586520983, 0.0014570532259263445, 0.0021144640155512195, 0.0049763296563073182, 0.0060914381458173602, 0.017011457265739209, 0.018482310230079509, 0.041270730899072704, -0.11448282028696938, 0.58553621588787852, -0.14902489022028603, 0.054008990116841057, 0.0033347158816015047, 0.039401511512436746, 0.026098743957858547, 0.021548571051419933, 0.011204798172170564, 0.0068468465980560502, 0.024525390338231194], [0.0002972773108671026, 0.0013688805922574675, 0.0019443450004082083, 0.0047495390297426247, 0.0057990230922703159, 0.014555685680215393, 0.015545768294760981, 0.037945500949659351, -0.10462992339637564, 0.61421933134568718, -0.14132676120660584, 0.051829709139635666, 0.008897012621635109, 0.042550631767603007, 0.021962616629856609, 0.017705001080850657, 0.013644257621961245, 0.0091127288489477286, 0.021651944255602608]], [[-0.33538403694535668, -0.33762015851913474, 0.05850472754201607, 0.29830385296843498, 0.31914185716351795, 0.3252459219293522, 0.22585876588991255, 0.12266695682910962, -0.018457621465662634, -0.42547257391647447, 0.57553339666436987, -0.079950068448273168, -0.13687869140747275, 0.044598648714043218, 0.27896182605454706, -0.3368133448079233, 0.20365302473292671, -0.035606609292059076, 0.0092621759927854399], [0.080444002102066731, 0.04839591363493314, 0.058382013571859563, 0.20630950135713802, 0.18660588341061096, 0.004021709800464267, -0.024425647964007421, -0.031205917394405959, -0.024385687688517736, -0.086329216275026599, 0.59216816250763282, -0.23554633760060717, 0.023244929124720266, -0.20036492123496538, 0.25180367839482976, -0.22085968809102779, 0.13623638038864855, 0.07651059490884099, -0.098653484217298457], [-0.0084077632845741407, 0.00090073154892881212, -0.029011185693579536, -0.035108178888583197, -0.051683917473176334, -0.1071213294056703, -0.011367084569885532, 0.021201344572660756, -0.069768219087099251, -0.16618356888515814, 0.59361684971054007, -0.29467159051304853, 0.10476662321757811, 0.17124264881763743, -0.089395491179207018, -0.032553587596293204, 0.1275431205132162, -0.10187162462619216, 0.075856965858568839], [-0.012470418105321004, 0.018530200947416205, -0.0073760045743256931, -0.027247055301270168, 0.041124287388966722, 0.033845968936048944, 0.017590147698855377, 0.03913633437537492, 0.01504982394764366, -0.15353520931350409, 0.54913566675931658, -0.23337591571696809, -0.016085754132322917, 0.0030048045885935465, 0.036560839583957179, 0.016535411864714512, 0.0053377670016944755, 0.030237797358599525, -0.0035014856226777795], [-0.00041470546128904783, -0.00074866901399033394, 0.0027307146113831984, 0.003497098995314799, 0.0060358473022915707, 0.0085146206059234838, 0.021751867307746624, 0.01696604598449469, 0.041633203429998981, -0.14111591799816647, 0.50788637187074714, -0.17553921157321689, 0.074668047259218065, 0.016852355466346468, 0.039182317997982961, 0.023559410834780286, 0.035462587161547925, 0.020531776185979917, 0.0085101317612218241], [-0.00041470533780794912, -0.00074866897743423476, 0.0027307148234440234, 0.0034970978436123503, 0.0060358472426448517, 0.0085146216737936372, 0.021751868230164922, 0.016966044928191083, 0.041633208278553054, -0.14111590678365143, 0.50788633154324514, -0.17553925138935139, 0.074668048422728214, 0.016852363888686238, 0.039182348989483834, 0.023559418122477912, 0.035462582748552567, 0.020531764683850356, 0.0085101312208356941], [-0.00041470559441255316, -0.00074866893376376333, 0.0027307144404260025, 0.0034970979422424774, 0.0060358478713193314, 0.008514620340881629, 0.021751866408667154, 0.016966045393898808, 0.041633200237789492, -0.14111591507299925, 0.50788634684380785, -0.17553926873417258, 0.074668028447502532, 0.016852357727657693, 0.039182334273247174, 0.023559420615453876, 0.035462591643237874, 0.020531775677486576, 0.0085101312153168657], [-0.00037256064118581362, -0.00069619123153645708, 0.0025996374738994341, 0.0032475220364630198, 0.0054056512003304727, 0.0076671320726382757, 0.019938206756875822, 0.014992537978735194, 0.037854667836936313, -0.13145627822480227, 0.54175941206495237, -0.16364598746573836, 0.070951183700019821, 0.017844261041647446, 0.038168629274194656, 0.025642311802214875, 0.040198602480382997, 0.022253183937065657, 0.0070216359723903896]], [[0.019213644259674981, -0.067165933984327977, -0.071199899869685696, 0.021321630918377889, 0.011738513483130002, -0.034057569617296765, -0.014099503601154549, 0.075062833155248546, 0.11675672629384237, 0.013039048628670441, -0.11437634674102751, 0.84705065981558592, 0.014743858344641729, 0.10134476956088143, 0.15042717277280065, -0.040641954814644735, 0.088263435479410832, 0.018492578082423401, 0.054875791541485905], [-0.024205764345979694, -0.010296452320657394, -0.041287546508634386, -0.12154594442666825, -0.099454000062051726, 0.0052083967357107784, -0.0094564032070996902, 0.0050757703307058085, 0.074069424926503244, 0.14461163215084624, -0.12061368750077874, 0.2570737502307186, -0.55651178812388169, -0.049464467049954983, -0.035799041573787826, 0.13905800427740547, -0.11979260177020341, 0.10915098755196259, -0.067406111971342261], [0.0040965371593388936, 0.018529735050392564, 0.013969650729606594, -0.0032000546413329715, -0.0042962717819615675, 0.033980091578057821, 0.018717567892716044, -0.011013447485784486, -0.00064907555365809001, 0.056093817935331969, -0.17221096684422382, 0.46426468748031324, -0.20797366300402739, 0.052454063722743464, -0.030780689696323128, -0.019277956763847963, -0.12386928290832942, 0.092586594750285758, -0.073246591031935607], [-8.1782707711526153e-05, 0.00058778313379596794, 0.0013790530444322451, 0.001853223474979828, 0.0057775000877041535, 0.01619860621336534, 0.016338344711924965, 0.027882206262453919, 0.023944725389874039, 0.047831399972259506, -0.17277895490835832, 0.42629497552800427, -0.19942186819807645, 0.080849905671674979, 0.00072866131115418523, 0.026681459518035154, -0.011716502053247434, -0.0098278582664805512, 0.017052969688224361], [-8.1782759041320815e-05, 0.00058778309473674583, 0.0013790527308341889, 0.001853223143300084, 0.0057774983186536268, 0.016198604932379412, 0.016338351055366258, 0.02788220961334037, 0.023944718296786485, 0.047831390257837537, -0.17277897190937822, 0.42629500920415137, -0.1994218909801736, 0.08084987591293151, 0.00072866169066230677, 0.026681456963311125, -0.0117165142256979, -0.0098278573278679192, 0.017052962287265785], [-8.1782718310943885e-05, 0.00058778301634314876, 0.0013790530457556483, 0.0018532236436964754, 0.0057775000030236426, 0.016198609952612998, 0.01633835041963114, 0.027882208696116222, 0.023944724054554382, 0.047831385723146602, -0.17277891393453609, 0.42629508616809636, -0.19942179413402966, 0.080849887983987331, 0.00072866606637215668, 0.026681457409673676, -0.011716504985536079, -0.009827858260297825, 0.017052971377070309], [-8.1782682073982104e-05, 0.00058778298515619937, 0.0013790521642861658, 0.0018532230588927535, 0.0057775010291618526, 0.016198604555419514, 0.016338343512353734, 0.027882209753532564, 0.023944726099846821, 0.047831392326190811, -0.17277901070449611, 0.42629514958422893, -0.19942187548339793, 0.080849916415919987, 0.00072866394205121985, 0.026681456737657639, -0.011716507858315277, -0.0098278583568520636, 0.017052968121797268], [4.7402776851061931e-05, 0.00054755252233669883, 0.00085236310293612672, 0.0013145690941371757, 0.005835569412367618, 0.016215073894071213, 0.015240898159797631, 0.024168984498860808, 0.02094085561845347, 0.046003497833659882, -0.15778194807612925, 0.465856210502056, -0.18997194932679801, 0.072711302110936821, 0.0048143601234221147, 0.035108537590208058, -0.0069139602195456345, -0.01514080697901907, 0.015719234459382902]]], prehc: 10000, lambdahc: 1, rcut: 6.3110524197949553, dcut: 0.018905380302626437, rcut_in: 1.6217791614558954, dcut_in: 0.10000000000000001, inner_cutoff_type: distance}
functions:
  0:
    - {mu0: 0, rank: 1, ndensity: 2, num_ms_combs: 1, mus: [0], ns: [1], ls: [0], ms_combs: [0], ctildes: [1.9669742614904802, -1.0348907830258569]}
    - {mu0: 0, rank: 1, ndensity: 2, num_ms_combs: 1, mus: [0], ns: [2], ls: [0], ms_combs: [0], ctildes: [0.39540486484670168, -0.069462134022890712]}
    - {mu0: 0, rank: 1, ndensity: 2, num_ms_combs: 1, mus: [0], ns: [3], ls: [0], ms_combs: [0], ctildes: [0.1122062344501913, 0.35217337856525649]}
    - {mu0: 0, rank: 1, ndensity: 2, num_ms_combs: 1, mus: [0], ns: [4], ls: [0], ms_combs: [0], ctildes: [-0.0059925806981984582, -0.78861293981572456]}
    - {mu0: 0, rank: 1, ndensity: 2, num_ms_combs: 1, mus: [0], ns: [5], ls: [0], ms_combs: [0], ctildes: [-0.31852802839055233, -0.17303464689447609]}
    - {mu0: 0, rank: 1, ndensity: 2, num_ms_combs: 1, mus: [0], ns: [6], ls: [0], ms_combs: [0], ctildes: [1.1619579276915555, 0.39925253515773723]}
    - {mu0: 0, rank: 1, ndensity: 2, num_ms_combs: 1, mus: [0], ns: [7], ls: [0], ms_combs: [0], ctildes: [-0.14336032454715686, -0.56993218912461485]}
    - {mu0: 0, rank: 1, ndensity: 2, num_ms_combs: 1, mus: [0], ns: [8], ls: [0], ms_combs: [0], ctildes: [-0.068066346857902041, -0.011187701445472042]}
    - {mu0: 0, rank: 1, ndensity: 2, num_ms_combs: 1, mus: [0], ns: [9], ls: [0], ms_combs: [0], ctildes: [0.93485868436768393, 0.29175601259325362]}
    - {mu0: 0, rank: 1, ndensity: 2, num_ms_combs: 1, mus: [0], ns: [10], ls: [0], ms_combs: [0], ctildes: [-0.75475801660117081, -0.30974595019424633]}
    - {mu0: 0, rank: 1, ndensity: 2, num_ms_combs: 1, mus: [0], ns: [11], ls: [0], ms_combs: [0], ctildes: [0.57622191127901978, 0.21768978174094739]}
    - {mu0: 0, rank: 1, ndensity: 2, num_ms_combs: 1, mus: [0], ns: [12], ls: [0], ms_combs: [0], ctildes: [0.074520035745452767, -0.33589690046963655]}
    - {mu0: 0, rank: 1, ndensity: 2, num_ms_combs: 1, mus: [0], ns: [13], ls: [0], ms_combs: [0], ctildes: [-0.32998309074919918, 0.29391480281698723]}
    - {mu0: 0, rank: 1, ndensity: 2, num_ms_combs: 1, mus: [0], ns: [14], ls: [0], ms_combs: [0], ctildes: [0.38830874468488757, -0.28573679587666745]}
    - {mu0: 0, rank: 1, ndensity: 2, num_ms_combs: 1, mus: [0], ns: [15], ls: [0], ms_combs: [0], ctildes: [-0.13103475751120089, 0.12647137957636775]}
    - {mu0: 0, rank: 1, ndensity: 2, num_ms_combs: 1, mus: [0], ns: [16], ls: [0], ms_combs: [0], ctildes: [0.0086161262435818335, -0.016314969015494719]}
    - {mu0: 0, rank: 1, ndensity: 2, num_ms_combs: 1, mus: [0], ns: [17], ls: [0], ms_combs: [0], ctildes: [0.066972009562499935, -0.027362493933223531]}
    - {mu0: 0, rank: 1, ndensity: 2, num_ms_combs: 1, mus: [0], ns: [18], ls: [0], ms_combs: [0], ctildes: [-0.045940994599537772, 0.01194645702860948]}
    - {mu0: 0, rank: 1, ndensity: 2, num_ms_combs: 1, mus: [0], ns: [19], ls: [0], ms_combs: [0], ctildes: [0.031126865592051529, -0.011419558299843934]}
    - {mu0: 0, rank: 2, ndensity: 2, num_ms_combs: 1, mus: [0, 0], ns: [1, 1], ls: [0, 0], ms_combs: [0, 0], ctildes: [1.1773173337224403, -0.32933911068532384]}
    - {mu0: 0, rank: 2, ndensity: 2, num_ms_combs: 2, mus: [0, 0], ns: [1, 1], ls: [1, 1], ms_combs: [0, 0, 1, -1], ctildes: [0.41789303474406869, -0.24411070739969926, -0.83578606948813727, 0.4882214147993984]}
    - {mu0: 0, rank: 2, ndensity: 2, num_ms_combs: 3, mus: [0, 0], ns: [1, 1], ls: [2, 2], ms_combs: [0, 0, 1, -1, 2, -2], ctildes: [0.52000090975330682, 0.4044906855038003, -1.0400018195066136, -0.8089813710076007, 1.0400018195066139, 0.80898137100760092]}
    - {mu0: 0, rank: 2, ndensity: 2, num_ms_combs: 4, mus: [0, 0], ns: [1, 1], ls: [3, 3], ms_combs: [0, 0, 1, -1, 2, -2, 3, -3], ctildes: [-0.12757999825202437, -0.21275647828762656, 0.25515999650404875, 0.42551295657525312, -0.25515999650404869, -0.42551295657525307, 0.25515999650404869, 0.42551295657525307]}
    - {mu0: 0, rank: 2, ndensity: 2, num_ms_combs: 5, mus: [0, 0], ns: [1, 1], ls: [4, 4], ms_combs: [0, 0, 1, -1, 2, -2, 3, -3, 4, -4], ctildes: [-0.13218071784831811, 0.28570284811640684, 0.26436143569663617, -0.57140569623281345, -0.26436143569663617, 0.57140569623281345, 0.26436143569663617, -0.57140569623281345, -0.26436143569663617, 0.57140569623281356]}
    - {mu0: 0, rank: 2, ndensity: 2, num_ms_combs: 6, mus: [0, 0], ns: [1, 1], ls: [5, 5], ms_combs: [0, 0, 1, -1, 2, -2, 3, -3, 4, -4, 5, -5], ctildes: [-0.00064279441361131243, 0.022167227354628158, 0.0012855888272226249, -0.044334454709256316, -0.0012855888272226251, 0.044334454709256323, 0.0012855888272226253, -0.04433445470925633, -0.0012855888272226251, 0.044334454709256323, 0.0012855888272226236, -0.044334454709256274]}
    - {mu0: 0, rank: 2, ndensity: 2, num_ms_combs: 7, mus: [0, 0], ns: [1, 1], ls: [6, 6], ms_combs: [0, 0, 1, -1, 2, -2, 3, -3, 4, -4, 5, -5, 6, -6], ctildes: [0.001131945817546147, 0.0070592870076901411, -0.0022638916350922944, -0.014118574015380286, 0.0022638916350922935, 0.01411857401538028, -0.0022638916350922944, -0.014118574015380286, 0.0022638916350922931, 0.014118574015380277, -0.0022638916350922935, -0.01411857401538028, 0.0022638916350922922, 0.014118574015380272]}
    - {mu0: 0, rank: 2, ndensity: 2, num_ms_combs: 8, mus: [0, 0], ns: [1, 1], ls: [7, 7], ms_combs: [0, 0, 1, -1, 2, -2, 3, -3, 4, -4, 5, -5, 6, -6, 7, -7], ctildes: [0.00017565102429729451, -0.00077076076479545331, -0.00035130204859458924, 0.0015415215295909075, 0.00035130204859458902, -0.0015415215295909066, -0.00035130204859458908, 0.0015415215295909068, 0.00035130204859458908, -0.0015415215295909068, -0.00035130204859458908, 0.0015415215295909068, 0.00035130204859458892, -0.0015415215295909062, -0.00035130204859458892, 0.0015415215295909062]}
    - {mu0: 0, rank: 2, ndensity: 2, num_ms_combs: 1, mus: [0, 0], ns: [1, 2], ls: [0, 0], ms_combs: [0, 0], ctildes: [-0.38508395681204616, -0.2006582663890937]}
    - {mu0: 0, rank: 2, ndensity: 2, num_ms_combs: 2, mus: [0, 0], ns: [1, 2], ls: [1, 1], ms_combs: [0, 0, 1, -1], ctildes: [0.13301549768981769, -0.0056678742134336386, -0.26603099537963532, 0.011335748426867276]}
    - {mu0: 0, rank: 2, ndensity: 2, num_ms_combs: 3, mus: [0, 0], ns: [1, 2], ls: [2, 2], ms_combs: [0, 0, 1, -1, 2, -2], ctildes: [-0.6565152715258199, 0.048790510570097478, 1.3130305430516398, -0.097581021140194971, -1.3130305430516402, 0.097581021140194998]}
    - {mu0: 0, rank: 2, ndensity: 2, num_ms_combs: 4, mus: [0, 0], ns: [1, 2], ls: [3, 3], ms_combs: [0, 0, 1, -1, 2, -2, 3, -3], ctildes: [0.24212112820782408, -0.16453290659223754, -0.48424225641564816, 0.32906581318447509, 0.48424225641564805, -0.32906581318447503, -0.48424225641564805, 0.32906581318447503]}
    - {mu0: 0, rank: 2, ndensity: 2, num_ms_combs: 5, mus: [0, 0], ns: [1, 2], ls: [4, 4], ms_combs: [0, 0, 1, -1, 2, -2, 3, -3, 4, -4], ctildes: [0.036656608815220516, -0.16039134535502531, -0.073313217630441005, 0.3207826907100505, 0.073313217630441005, -0.3207826907100505, -0.073313217630441005, 0.3207826907100505, 0.073313217630441019, -0.32078269071005056]}
    - {mu0: 0, rank: 2, ndensity: 2, num_ms_combs: 6, mus: [0, 0], ns: [1, 2], ls: [5, 5], ms_combs: [0, 0, 1, -1, 2, -2, 3, -3, 4, -4, 5, -5], ctildes: [-0.00074055597189318664, -0.019654505413306156, 0.0014811119437863733, 0.039309010826612312, -0.0014811119437863735, -0.039309010826612319, 0.0014811119437863739, 0.039309010826612326, -0.0014811119437863735, -0.039309010826612319, 0.001481111943786372, 0.039309010826612277]}
    - {mu0: 0, rank: 2, ndensity: 2, num_ms_combs: 7, mus: [0, 0], ns: [1, 2], ls: [6, 6], ms_combs: [0, 0, 1, -1, 2, -2, 3, -3, 4, -4, 5, -5, 6, -6], ctildes: [0.0050461022507571132, 0.025561171898541526, -0.010092204501514228, -0.051122343797083067, 0.010092204501514225, 0.051122343797083046, -0.010092204501514228, -0.051122343797083067, 0.010092204501514223, 0.051122343797083032, -0.010092204501514225, -0.051122343797083046, 0.010092204501514219, 0.051122343797083011]}
    - {mu0: 0, rank: 2, ndensity: 2, num_ms_combs: 8, mus: [0, 0], ns: [1, 2], ls: [7, 7], ms_combs: [0, 0, 1, -1, 2, -2, 3, -3, 4, -4, 5, -5, 6, -6, 7, -7], ctildes: [0.00096255622112906432, -0.0057751064274935955, -0.0019251124422581297, 0.011550212854987198, 0.0019251124422581286, -0.011550212854987191, -0.0019251124422581289, 0.011550212854987193, 0.0019251124422581289, -0.011550212854987193, -0.0019251124422581289, 0.011550212854987193, 0.0019251124422581282, -0.011550212854987189, -0.0019251124422581282, 0.011550212854987189]}
    - {mu0: 0, rank: 2, ndensity: 2, num_ms_combs: 1, mus: [0, 0], ns: [1, 3], ls: [0, 0], ms_combs: [0, 0], ctildes: [-0.90768148379815394, 0.14451334733898855]}
    - {mu0: 0, rank: 2, ndensity: 2, num_ms_combs: 2, mus: [0, 0], ns: [1, 3], ls: [1, 1], ms_combs: [0, 0, 1, -1], ctildes: [-0.043465199158693131, 0.0023704184571901954, 0.086930398317386234, -0.00474083691438039]}
    - {mu0: 0, rank: 2, ndensity: 2, num_ms_combs: 3, mus: [0, 0], ns: [1, 3], ls: [2, 2], ms_combs: [0, 0, 1, -1, 2, -2], ctildes: [-0.28212676509145912, 0.0026289721921714626, 0.56425353018291835, -0.0052579443843429252, -0.56425353018291846, 0.0052579443843429269]}
    - {mu0: 0, rank: 2, ndensity: 2, num_ms_combs: 4, mus: [0, 0], ns: [1, 3], ls: [3, 3], ms_combs: [0, 0, 1, -1, 2, -2, 3, -3], ctildes: [0.21632675337885443, 0.0034049926783601653, -0.43265350675770886, -0.0068099853567203305, 0.43265350675770881, 0.0068099853567203297, -0.43265350675770881, -0.0068099853567203297]}
    - {mu0: 0, rank: 2, ndensity: 2, num_ms_combs: 5, mus: [0, 0], ns: [1, 3], ls: [4, 4], ms_combs: [0, 0, 1, -1, 2, -2, 3, -3, 4, -4], ctildes: [0.061592438746959501, 0.14745707417114026, -0.12318487749391896, -0.29491414834228041, 0.12318487749391896, 0.29491414834228041, -0.12318487749391896, -0.29491414834228041, 0.12318487749391899, 0.29491414834228047]}
    - {mu0: 0, rank: 2, ndensity: 2, num_ms_combs: 6, mus: [0, 0], ns: [1, 3], ls: [5, 5], ms_combs: [0, 0, 1, -1, 2, -2, 3, -3, 4, -4, 5, -5], ctildes: [-0.0020522830893391544, -0.0002402080303934501, 0.0041045661786783087, 0.0004804160607869002, -0.0041045661786783096, -0.00048041606078690031, 0.0041045661786783105, 0.00048041606078690042, -0.0041045661786783096, -0.00048041606078690031, 0.0041045661786783053, 0.00048041606078689977]}
    - {mu0: 0, rank: 2, ndensity: 2, num_ms_combs: 7, mus: [0, 0], ns: [1, 3], ls: [6, 6], ms_combs: [0, 0, 1, -1, 2, -2, 3, -3, 4, -4, 5, -5, 6, -6], ctildes: [0.00016323295105065801, -0.00087884234865422801, -0.00032646590210131613, 0.0017576846973084564, 0.00032646590210131597, -0.0017576846973084558, -0.00032646590210131613, 0.0017576846973084564, 0.00032646590210131591, -0.0017576846973084554, -0.00032646590210131597, 0.0017576846973084558, 0.00032646590210131581, -0.0017576846973084547]}
    - {mu0: 0, rank: 2, ndensity: 2, num_ms_combs: 8, mus: [0, 0], ns: [1, 3], ls: [7, 7], ms_combs: [0, 0, 1, -1, 2, -2, 3, -3, 4, -4, 5, -5, 6, -6, 7, -7], ctildes: [0.00029744074132737546, 0.001207507510028447, -0.00059488148265475136, -0.0024150150200568953, 0.00059488148265475092, 0.002415015020056894, -0.00059488148265475103, -0.0024150150200568945, 0.00059488148265475103, 0.0024150150200568945, -0.00059488148265475103, -0.0024150150200568945, 0.00059488148265475081, 0.0024150150200568936, -0.00059488148265475081, -0.0024150150200568936]}
    - {mu0: 0, rank: 2, ndensity: 2, num_ms_combs: 1, mus: [0, 0], ns: [1, 4], ls: [0, 0], ms_combs: [0, 0], ctildes: [0.073759152520068233, 0.14088536317171288]}
    - {mu0: 0, rank: 2, ndensity: 2, num_ms_combs: 2, mus: [0, 0], ns: [1, 4], ls: [1, 1], ms_combs: [0, 0, 1, -1], ctildes: [0.024391549188452034, -0.34362923872341489, -0.04878309837690406, 0.68725847744682966]}
    - {mu0: 0, rank: 2, ndensity: 2, num_ms_combs: 3, mus: [0, 0], ns: [1, 4], ls: [2, 2], ms_combs: [0, 0, 1, -1, 2, -2], ctildes: [-0.0092097437581378297, -0.071048695249863458, 0.018419487516275663, 0.14209739049972692, -0.018419487516275666, -0.14209739049972697]}
    - {mu0: 0, rank: 2, ndensity: 2, num_ms_combs: 4, mus: [0, 0], ns: [1, 4], ls: [3, 3], ms_combs: [0, 0, 1, -1, 2, -2, 3, -3], ctildes: [0.052554641463286485, 0.012121865652812125, -0.10510928292657297, -0.024243731305624249, 0.10510928292657296, 0.024243731305624246, -0.10510928292657296, -0.024243731305624246]}
    - {mu0: 0, rank: 2, ndensity: 2, num_ms_combs: 5, mus: [0, 0], ns: [1, 4], ls: [4, 4], ms_combs: [0, 0, 1, -1, 2, -2, 3, -3, 4, -4], ctildes: [0.02058387997352654, -0.03061698833150191, -0.041167759947053066, 0.0612339766630038, 0.041167759947053066, -0.0612339766630038, -0.041167759947053066, 0.0612339766630038, 0.041167759947053073, -0.061233976663003814]}
    - {mu0: 0, rank: 2, ndensity: 2, num_ms_combs: 6, mus: [0, 0], ns: [1, 4], ls: [5, 5], ms_combs: [0, 0, 1, -1, 2, -2, 3, -3, 4, -4, 5, -5], ctildes: [0.0034011554642650824, 0.0082104171465167096, -0.0068023109285301649, -0.016420834293033419, 0.0068023109285301657, 0.016420834293033423, -0.0068023109285301675, -0.016420834293033426, 0.0068023109285301657, 0.016420834293033423, -0.0068023109285301588, -0.016420834293033402]}
    - {mu0: 0, rank: 2, ndensity: 2, num_ms_combs: 7, mus: [0, 0], ns: [1, 4], ls: [6, 6], ms_combs: [0, 0, 1, -1, 2, -2, 3, -3, 4, -4, 5, -5, 6, -6], ctildes: [-0.00010412843321561481, 0.0040244015702166061, 0.00020825686643122967, -0.0080488031404332139, -0.00020825686643122958, 0.0080488031404332104, 0.00020825686643122967, -0.0080488031404332139, -0.00020825686643122953, 0.0080488031404332087, 0.00020825686643122958, -0.0080488031404332104, -0.00020825686643122945, 0.0080488031404332052]}
    - {mu0: 0, rank: 2, ndensity: 2, num_ms_combs: 1, mus: [0, 0], ns: [1, 5], ls: [0, 0], ms_combs: [0, 0], ctildes: [0.013649885820635562, -0.052210865430498132]}
    - {mu0: 0, rank: 2, ndensity: 2, num_ms_combs: 2, mus: [0, 0], ns: [1, 5], ls: [1, 1], ms_combs: [0, 0, 1, -1], ctildes: [-0.34587315212177178, -0.096180683775060616, 0.69174630424354344, 0.1923613675501212]}
    - {mu0: 0, rank: 2, ndensity: 2, num_ms_combs: 3, mus: [0, 0], ns: [1, 5], ls: [2, 2], ms_combs: [0, 0, 1, -1, 2, -2], ctildes: [-0.11421327619722288, 0.01829577031008876, 0.22842655239444579, -0.036591540620177526, -0.22842655239444584, 0.036591540620177533]}
    - {mu0: 0, rank: 2, ndensity: 2, num_ms_combs: 4, mus: [0, 0], ns: [1, 5], ls: [3, 3], ms_combs: [0, 0, 1, -1, 2, -2, 3, -3], ctildes: [0.23081846644376849, -0.038136095830029963, -0.46163693288753699, 0.076272191660059926, 0.46163693288753693, -0.076272191660059913, -0.46163693288753693, 0.076272191660059913]}
    - {mu0: 0, rank: 2, ndensity: 2, num_ms_combs: 5, mus: [0, 0], ns: [1, 5], ls: [4, 4], ms_combs: [0, 0, 1, -1, 2, -2, 3, -3, 4, -4], ctildes: [0.0089291249894026051, 0.029869059009674521, -0.017858249978805203, -0.059738118019349022, 0.017858249978805203, 0.059738118019349022, -0.017858249978805203, -0.059738118019349022, 0.017858249978805207, 0.059738118019349036]}
    - {mu0: 0, rank: 2, ndensity: 2, num_ms_combs: 6, mus: [0, 0], ns: [1, 5], ls: [5, 5], ms_combs: [0, 0, 1, -1, 2, -2, 3, -3, 4, -4, 5, -5], ctildes: [0.0011448232280709672, 0.011598149571798368, -0.0022896464561419343, -0.023196299143596735, 0.0022896464561419348, 0.023196299143596739, -0.0022896464561419352, -0.023196299143596742, 0.0022896464561419348, 0.023196299143596739, -0.0022896464561419322, -0.023196299143596714]}
    - {mu0: 0, rank: 2, ndensity: 2, num_ms_combs: 7, mus: [0, 0], ns: [1, 5], ls: [6, 6], ms_combs: [0, 0, 1, -1, 2, -2, 3, -3, 4, -4, 5, -5, 6, -6], ctildes: [0.0003383517365153116, -0.0015473771186464902, -0.00067670347303062331, 0.0030947542372929812, 0.0006767034730306231, -0.0030947542372929799, -0.00067670347303062331, 0.0030947542372929812, 0.00067670347303062288, -0.0030947542372929794, -0.0006767034730306231, 0.0030947542372929799, 0.00067670347303062266, -0.0030947542372929781]}
    - {mu0: 0, rank: 2, ndensity: 2, num_ms_combs: 1, mus: [0, 0], ns: [1, 6], ls: [0, 0], ms_combs: [0, 0], ctildes: [0.62341397507488894, 0.18877795390036217]}
    - {mu0: 0, rank: 2, ndensity: 2, num_ms_combs: 2, mus: [0, 0], ns: [1, 6], ls: [1, 1], ms_combs: [0, 0, 1, -1], ctildes: [0.11566536451530525, 0.01070039554649346, -0.23133072903061047, -0.021400791092986912]}
    - {mu0: 0, rank: 2, ndensity: 2, num_ms_combs: 3, mus: [0, 0], ns: [1, 6], ls: [2, 2], ms_combs: [0, 0, 1, -1, 2, -2], ctildes: [0.27426324661870299, 0.032177663218583223, -0.54852649323740599, -0.064355326437166446, 0.54852649323740621, 0.06435532643716646]}
    - {mu0: 0, rank: 2, ndensity: 2, num_ms_combs: 4, mus: [0, 0], ns: [1, 6], ls: [3, 3], ms_combs: [0, 0, 1, -1, 2, -2, 3, -3], ctildes: [-0.072809600595408058, 0.0262256776905061, 0.14561920119081612, -0.052451355381012199, -0.14561920119081609, 0.052451355381012192, 0.14561920119081609, -0.052451355381012192]}
    - {mu0: 0, rank: 2, ndensity: 2, num_ms_combs: 5, mus: [0, 0], ns: [1, 6], ls: [4, 4], ms_combs: [0, 0, 1, -1, 2, -2, 3, -3, 4, -4], ctildes: [-7.0484889122092816e-05, 0.012135776227837857, 0.00014096977824418558, -0.024271552455675707, -0.00014096977824418558, 0.024271552455675707, 0.00014096977824418558, -0.024271552455675707, -0.00014096977824418561, 0.024271552455675711]}
    - {mu0: 0, rank: 2, ndensity: 2, num_ms_combs: 6, mus: [0, 0], ns: [1, 6], ls: [5, 5], ms_combs: [0, 0, 1, -1, 2, -2, 3, -3, 4, -4, 5, -5], ctildes: [-0.0024978089583461635, -0.0061717291577314806, 0.004995617916692327, 0.012343458315462961, -0.0049956179166923279, -0.012343458315462963, 0.0049956179166923288, 0.012343458315462965, -0.0049956179166923279, -0.012343458315462963, 0.0049956179166923227, 0.012343458315462949]}
    - {mu0: 0, rank: 2, ndensity: 2, num_ms_combs: 1, mus: [0, 0], ns: [1, 7], ls: [0, 0], ms_combs: [0, 0], ctildes: [-0.95509279522768953, 0.16611748150550601]}
    - {mu0: 0, rank: 2, ndensity: 2, num_ms_combs: 2, mus: [0, 0], ns: [1, 7], ls: [1, 1], ms_combs: [0, 0, 1, -1], ctildes: [0.0049220676872569593, -0.14883549756670622, -0.0098441353745139168, 0.29767099513341239]}
    - {mu0: 0, rank: 2, ndensity: 2, num_ms_combs: 3, mus: [0, 0], ns: [1, 7], ls: [2, 2], ms_combs: [0, 0, 1, -1, 2, -2], ctildes: [0.012174845101021695, 0.046875346169072435, -0.024349690202043393, -0.093750692338144884, 0.0243496902020434, 0.093750692338144911]}
    - {mu0: 0, rank: 2, ndensity: 2, num_ms_combs: 4, mus: [0, 0], ns: [1, 7], ls: [3, 3], ms_combs: [0, 0, 1, -1, 2, -2, 3, -3], ctildes: [0.032491148137517654, 0.088402167663198167, -0.064982296275035309, -0.17680433532639633, 0.064982296275035295, 0.17680433532639631, -0.064982296275035295, -0.17680433532639631]}
    - {mu0: 0, rank: 2, ndensity: 2, num_ms_combs: 5, mus: [0, 0], ns: [1, 7], ls: [4, 4], ms_combs: [0, 0, 1, -1, 2, -2, 3, -3, 4, -4], ctildes: [0.0001037110987555388, 0.042127353871535975, -0.00020742219751107756, -0.084254707743071922, 0.00020742219751107756, 0.084254707743071922, -0.00020742219751107756, -0.084254707743071922, 0.00020742219751107758, 0.084254707743071935]}
    - {mu0: 0, rank: 2, ndensity: 2, num_ms_combs: 6, mus: [0, 0], ns: [1, 7], ls: [5, 5], ms_combs: [0, 0, 1, -1, 2, -2, 3, -3, 4, -4, 5, -5], ctildes: [0.0011289792799700341, 0.011575957449855782, -0.0022579585599400683, -0.023151914899711565, 0.0022579585599400687, 0.023151914899711568, -0.0022579585599400692, -0.023151914899711572, 0.0022579585599400687, 0.023151914899711568, -0.0022579585599400661, -0.023151914899711541]}
    - {mu0: 0, rank: 2, ndensity: 2, num_ms_combs: 1, mus: [0, 0], ns: [1, 8], ls: [0, 0], ms_combs: [0, 0], ctildes: [0.2514811106116393, 0.07734938265499762]}
    - {mu0: 0, rank: 2, ndensity: 2, num_ms_combs: 2, mus: [0, 0], ns: [1, 8], ls: [1, 1], ms_combs: [0, 0, 1, -1], ctildes: [0.048959386754659467, 0.42286760525918698, -0.097918773509318921, -0.84573521051837386]}
    - {mu0: 0, rank: 2, ndensity: 2, num_ms_combs: 3, mus: [0, 0], ns: [1, 8], ls: [2, 2], ms_combs: [0, 0, 1, -1, 2, -2], ctildes: [-0.018616661954955507, 0.020582420235614626, 0.03723332390991102, -0.041164840471229258, -0.037233323909911027, 0.041164840471229265]}
    - {mu0: 0, rank: 2, ndensity: 2, num_ms_combs: 4, mus: [0, 0], ns: [1, 8], ls: [3, 3], ms_combs: [0, 0, 1, -1, 2, -2, 3, -3], ctildes: [-0.026688424892862963, -0.05889223379630424, 0.053376849785725926, 0.11778446759260848, -0.053376849785725919, -0.11778446759260847, 0.053376849785725919, 0.11778446759260847]}
    - {mu0: 0, rank: 2, ndensity: 2, num_ms_combs: 5, mus: [0, 0], ns: [1, 8], ls: [4, 4], ms_combs: [0, 0, 1, -1, 2, -2, 3, -3, 4, -4], ctildes: [0.0028330181823813098, -0.0083675522857799781, -0.0056660363647626178, 0.016735104571559953, 0.0056660363647626178, -0.016735104571559953, -0.0056660363647626178, 0.016735104571559953, 0.0056660363647626187, -0.016735104571559953]}
    - {mu0: 0, rank: 2, ndensity: 2, num_ms_combs: 1, mus: [0, 0], ns: [1, 9], ls: [0, 0], ms_combs: [0, 0], ctildes: [-0.032916329905122728, -0.011349175237089771]}
    - {mu0: 0, rank: 2, ndensity: 2, num_ms_combs: 2, mus: [0, 0], ns: [1, 9], ls: [1, 1], ms_combs: [0, 0, 1, -1], ctildes: [-0.038521525481876061, -0.10414863010683893, 0.077043050963752108, 0.20829726021367781]}
    - {mu0: 0, rank: 2, ndensity: 2, num_ms_combs: 3, mus: [0, 0], ns: [1, 9], ls: [2, 2], ms_combs: [0, 0, 1, -1, 2, -2], ctildes: [-0.00048301530427960867, -0.018834843641659892, 0.00096603060855921744, 0.037669687283319792, -0.00096603060855921766, -0.037669687283319798]}
    - {mu0: 0, rank: 2, ndensity: 2, num_ms_combs: 4, mus: [0, 0], ns: [1, 9], ls: [3, 3], ms_combs: [0, 0, 1, -1, 2, -2, 3, -3], ctildes: [-0.0039197597278002698, 0.0074202992862275313, 0.0078395194556005396, -0.014840598572455063, -0.0078395194556005379, 0.014840598572455059, 0.0078395194556005379, -0.014840598572455059]}
    - {mu0: 0, rank: 2, ndensity: 2, num_ms_combs: 5, mus: [0, 0], ns: [1, 9], ls: [4, 4], ms_combs: [0, 0, 1, -1, 2, -2, 3, -3, 4, -4], ctildes: [0.0012027304302399181, 5.0621039030592471e-06, -0.0024054608604798353, -1.0124207806118491e-05, 0.0024054608604798353, 1.0124207806118491e-05, -0.0024054608604798353, -1.0124207806118491e-05, 0.0024054608604798357, 1.0124207806118492e-05]}
    - {mu0: 0, rank: 2, ndensity: 2, num_ms_combs: 1, mus: [0, 0], ns: [1, 10], ls: [0, 0], ms_combs: [0, 0], ctildes: [0.040140950121675074, -0.18654924213853599]}
    - {mu0: 0, rank: 2, ndensity: 2, num_ms_combs: 2, mus: [0, 0], ns: [1, 10], ls: [1, 1], ms_combs: [0, 0, 1, -1], ctildes: [0.11684544925068033, 0.10424254748936741, -0.23369089850136063, -0.20848509497873477]}
    - {mu0: 0, rank: 2, ndensity: 2, num_ms_combs: 3, mus: [0, 0], ns: [1, 10], ls: [2, 2], ms_combs: [0, 0, 1, -1, 2, -2], ctildes: [0.0064623009239046444, -0.012395782774605438, -0.012924601847809291, 0.02479156554921088, 0.012924601847809294, -0.024791565549210887]}
    - {mu0: 0, rank: 2, ndensity: 2, num_ms_combs: 4, mus: [0, 0], ns: [1, 10], ls: [3, 3], ms_combs: [0, 0, 1, -1, 2, -2, 3, -3], ctildes: [0.0081508735352497086, 0.034353617489705154, -0.016301747070499417, -0.068707234979410309, 0.016301747070499414, 0.068707234979410309, -0.016301747070499414, -0.068707234979410309]}
    - {mu0: 0, rank: 2, ndensity: 2, num_ms_combs: 1, mus: [0, 0], ns: [1, 11], ls: [0, 0], ms_combs: [0, 0], ctildes: [-0.15524209692210594, 0.4403459568312314]}
    - {mu0: 0, rank: 2, ndensity: 2, num_ms_combs: 2, mus: [0, 0], ns: [1, 11], ls: [1, 1], ms_combs: [0, 0, 1, -1], ctildes: [-0.072827404313867319, -0.12369470146153559, 0.14565480862773461, 0.24738940292307116]}
    - {mu0: 0, rank: 2, ndensity: 2, num_ms_combs: 3, mus: [0, 0], ns: [1, 11], ls: [2, 2], ms_combs: [0, 0, 1, -1, 2, -2], ctildes: [0.016398122438266091, 0.071528858131060205, -0.032796244876532189, -0.14305771626212041, 0.032796244876532196, 0.14305771626212047]}
    - {mu0: 0, rank: 2, ndensity: 2, num_ms_combs: 4, mus: [0, 0], ns: [1, 11], ls: [3, 3], ms_combs: [0, 0, 1, -1, 2, -2, 3, -3], ctildes: [-0.013276321848951828, -0.01624308925761421, 0.026552643697903656, 0.03248617851522842, -0.026552643697903652, -0.032486178515228413, 0.026552643697903652, 0.032486178515228413]}
    - {mu0: 0, rank: 2, ndensity: 2, num_ms_combs: 1, mus: [0, 0], ns: [1, 12], ls: [0, 0], ms_combs: [0, 0], ctildes: [0.0018706097387100446, 0.072953752676874553]}
    - {mu0: 0, rank: 2, ndensity: 2, num_ms_combs: 2, mus: [0, 0], ns: [1, 12], ls: [1, 1], ms_combs: [0, 0, 1, -1], ctildes: [0.047217215540634974, 0.017448595182734228, -0.094434431081269934, -0.034897190365468449]}
    - {mu0: 0, rank: 2, ndensity: 2, num_ms_combs: 3, mus: [0, 0], ns: [1, 12], ls: [2, 2], ms_combs: [0, 0, 1, -1, 2, -2], ctildes: [-0.00058671046838033728, 0.014899142088937608, 0.0011734209367606748, -0.029798284177875219, -0.001173420936760675, 0.029798284177875226]}
    - {mu0: 0, rank: 2, ndensity: 2, num_ms_combs: 1, mus: [0, 0], ns: [2, 2], ls: [0, 0], ms_combs: [0, 0], ctildes: [0.07979942454498265, -0.0061057295204314513]}
    - {mu0: 0, rank: 2, ndensity: 2, num_ms_combs: 2, mus: [0, 0], ns: [2, 2], ls: [1, 1], ms_combs: [0, 0, 1, -1], ctildes: [0.16410176420213082, 0.024081749961087879, -0.32820352840426159, -0.048163499922175744]}
    - {mu0: 0, rank: 2, ndensity: 2, num_ms_combs: 3, mus: [0, 0], ns: [2, 2], ls: [2, 2], ms_combs: [0, 0, 1, -1, 2, -2], ctildes: [-0.0054071392011570303, -0.18960035372663669, 0.010814278402314061, 0.37920070745327344, -0.010814278402314064, -0.3792007074532735]}
    - {mu0: 0, rank: 2, ndensity: 2, num_ms_combs: 4, mus: [0, 0], ns: [2, 2], ls: [3, 3], ms_combs: [0, 0, 1, -1, 2, -2, 3, -3], ctildes: [0.10876311482414899, 0.24160660136457218, -0.21752622964829799, -0.48321320272914436, 0.21752622964829796, 0.48321320272914425, -0.21752622964829796, -0.48321320272914425]}
    - {mu0: 0, rank: 2, ndensity: 2, num_ms_combs: 5, mus: [0, 0], ns: [2, 2], ls: [4, 4], ms_combs: [0, 0, 1, -1, 2, -2, 3, -3, 4, -4], ctildes: [-0.040322458909036712, -0.00046169350444634689, 0.080644917818073397, 0.00092338700889269345, -0.080644917818073397, -0.00092338700889269345, 0.080644917818073397, 0.00092338700889269345, -0.080644917818073411, -0.00092338700889269356]}
    - {mu0: 0, rank: 2, ndensity: 2, num_ms_combs: 6, mus: [0, 0], ns: [2, 2], ls: [5, 5], ms_combs: [0, 0, 1, -1, 2, -2, 3, -3, 4, -4, 5, -5], ctildes: [0.0019312096704966742, -0.00081589957323927932, -0.0038624193409933483, 0.0016317991464785586, 0.0038624193409933492, -0.0016317991464785588, -0.0038624193409933501, 0.0016317991464785591, 0.0038624193409933492, -0.0016317991464785588, -0.0038624193409933449, 0.0016317991464785571]}
    - {mu0: 0, rank: 2, ndensity: 2, num_ms_combs: 7, mus: [0, 0], ns: [2, 2], ls: [6, 6], ms_combs: [0, 0, 1, -1, 2, -2, 3, -3, 4, -4, 5, -5, 6, -6], ctildes: [0.0018840643625682944, 0.018664617774574486, -0.0037681287251365896, -0.037329235549148979, 0.0037681287251365879, 0.037329235549148958, -0.0037681287251365896, -0.037329235549148979, 0.0037681287251365874, 0.037329235549148951, -0.0037681287251365879, -0.037329235549148958, 0.0037681287251365857, 0.037329235549148937]}
    - {mu0: 0, rank: 2, ndensity: 2, num_ms_combs: 8, mus: [0, 0], ns: [2, 2], ls: [7, 7], ms_combs: [0, 0, 1, -1, 2, -2, 3, -3, 4, -4, 5, -5, 6, -6, 7, -7], ctildes: [-4.0436739360107626e-05, -0.00087526282299274418, 8.0873478720215307e-05, 0.0017505256459854894, -8.0873478720215253e-05, -0.0017505256459854884, 8.0873478720215266e-05, 0.0017505256459854888, -8.0873478720215266e-05, -0.0017505256459854888, 8.0873478720215266e-05, 0.0017505256459854888, -8.0873478720215226e-05, -0.0017505256459854879, 8.0873478720215226e-05, 0.0017505256459854879]}
    - {mu0: 0, rank: 2, ndensity: 2, num_ms_combs: 1, mus: [0, 0], ns: [2, 3], ls: [0, 0], ms_combs: [0, 0], ctildes: [0.069973321373449901, 0.29376221318238316]}
    - {mu0: 0, rank: 2, ndensity: 2, num_ms_combs: 2, mus: [0, 0], ns: [2, 3], ls: [1, 1], ms_combs: [0, 0, 1, -1], ctildes: [0.1272708667023596, 0.066692456979579207, -0.25454173340471914, -0.13338491395915839]}
    - {mu0: 0, rank: 2, ndensity: 2, num_ms_combs: 3, mus: [0, 0], ns: [2, 3], ls: [2, 2], ms_combs: [0, 0, 1, -1, 2, -2], ctildes: [-0.039131034191295058, -0.33657576242658027, 0.07826206838259013, 0.67315152485316054, -0.078262068382590144, -0.67315152485316077]}
    - {mu0: 0, rank: 2, ndensity: 2, num_ms_combs: 4, mus: [0, 0], ns: [2, 3], ls: [3, 3], ms_combs: [0, 0, 1, -1, 2, -2, 3, -3], ctildes: [-0.083666262476901884, -0.0054482860517575697, 0.16733252495380377, 0.010896572103515139, -0.16733252495380374, -0.010896572103515138, 0.16733252495380374, 0.010896572103515138]}
    - {mu0: 0, rank: 2, ndensity: 2, num_ms_combs: 5, mus: [0, 0], ns: [2, 3], ls: [4, 4], ms_combs: [0, 0, 1, -1, 2, -2, 3, -3, 4, -4], ctildes: [0.047209214999321479, -0.026126699797802418, -0.09441842999864293, 0.052253399595604821, 0.09441842999864293, -0.052253399595604821, -0.09441842999864293, 0.052253399595604821, 0.094418429998642944, -0.052253399595604828]}
    - {mu0: 0, rank: 2, ndensity: 2, num_ms_combs: 6, mus: [0, 0], ns: [2, 3], ls: [5, 5], ms_combs: [0, 0, 1, -1, 2, -2, 3, -3, 4, -4, 5, -5], ctildes: [-0.00048002327632673341, -0.0041805914127226425, 0.00096004655265346682, 0.008361182825445285, -0.00096004655265346692, -0.0083611828254452868, 0.00096004655265346714, 0.0083611828254452885, -0.00096004655265346692, -0.0083611828254452868, 0.00096004655265346595, 0.0083611828254452764]}
    - {mu0: 0, rank: 2, ndensity: 2, num_ms_combs: 7, mus: [0, 0], ns: [2, 3], ls: [6, 6], ms_combs: [0, 0, 1, -1, 2, -2, 3, -3, 4, -4, 5, -5, 6, -6], ctildes: [0.00032675504452289023, 0.0024433945438418728, -0.00065351008904578056, -0.0048867890876837464, 0.00065351008904578035, 0.0048867890876837447, -0.00065351008904578056, -0.0048867890876837464, 0.00065351008904578024, 0.0048867890876837438, -0.00065351008904578035, -0.0048867890876837447, 0.00065351008904577991, 0.0048867890876837421]}
    - {mu0: 0, rank: 2, ndensity: 2, num_ms_combs: 1, mus: [0, 0], ns: [2, 4], ls: [0, 0], ms_combs: [0, 0], ctildes: [-1.1673154084933199, -0.073135194364110617]}
    - {mu0: 0, rank: 2, ndensity: 2, num_ms_combs: 2, mus: [0, 0], ns: [2, 4], ls: [1, 1], ms_combs: [0, 0, 1, -1], ctildes: [0.32049268096134981, -0.084913692258497667, -0.6409853619226995, 0.16982738451699531]}
    - {mu0: 0, rank: 2, ndensity: 2, num_ms_combs: 3, mus: [0, 0], ns: [2, 4], ls: [2, 2], ms_combs: [0, 0, 1, -1, 2, -2], ctildes: [-0.058647151847603128, -0.10074251008571446, 0.11729430369520627, 0.20148502017142894, -0.1172943036952063, -0.201485020171429]}
    - {mu0: 0, rank: 2, ndensity: 2, num_ms_combs: 4, mus: [0, 0], ns: [2, 4], ls: [3, 3], ms_combs: [0, 0, 1, -1, 2, -2, 3, -3], ctildes: [0.23228937268490313, 0.01850247550604843, -0.46457874536980626, -0.037004951012096859, 0.46457874536980615, 0.037004951012096853, -0.46457874536980615, -0.037004951012096853]}
    - {mu0: 0, rank: 2, ndensity: 2, num_ms_combs: 5, mus: [0, 0], ns: [2, 4], ls: [4, 4], ms_combs: [0, 0, 1, -1, 2, -2, 3, -3, 4, -4], ctildes: [0.0009691914155013164, -0.025133582410233592, -0.0019383828310026322, 0.050267164820467169, 0.0019383828310026322, -0.050267164820467169, -0.0019383828310026322, 0.050267164820467169, 0.0019383828310026324, -0.050267164820467176]}
    - {mu0: 0, rank: 2, ndensity: 2, num_ms_combs: 6, mus: [0, 0], ns: [2, 4], ls: [5, 5], ms_combs: [0, 0, 1, -1, 2, -2, 3, -3, 4, -4, 5, -5], ctildes: [-0.00068901934257768825, 0.0018458559792703638, 0.0013780386851553765, -0.0036917119585407276, -0.0013780386851553767, 0.003691711958540728, 0.0013780386851553769, -0.0036917119585407289, -0.0013780386851553767, 0.003691711958540728, 0.0013780386851553752, -0.0036917119585407241]}
    - {mu0: 0, rank: 2, ndensity: 2, num_ms_combs: 7, mus: [0, 0], ns: [2, 4], ls: [6, 6], ms_combs: [0, 0, 1, -1, 2, -2, 3, -3, 4, -4, 5, -5, 6, -6], ctildes: [-0.00077804046854670634, 0.009912307607046705, 0.0015560809370934129, -0.019824615214093413, -0.0015560809370934122, 0.019824615214093403, 0.0015560809370934129, -0.019824615214093413, -0.001556080937093412, 0.0198246152140934, 0.0015560809370934122, -0.019824615214093403, -0.0015560809370934114, 0.019824615214093393]}
    - {mu0: 0, rank: 2, ndensity: 2, num_ms_combs: 1, mus: [0, 0], ns: [2, 5], ls: [0, 0], ms_combs: [0, 0], ctildes: [-0.48351365522026568, 0.17917962111312252]}
    - {mu0: 0, rank: 2, ndensity: 2, num_ms_combs: 2, mus: [0, 0], ns: [2, 5], ls: [1, 1], ms_combs: [0, 0, 1, -1], ctildes: [0.054455832550344016, -0.18126612425213348, -0.108911665100688, 0.36253224850426691]}
    - {mu0: 0, rank: 2, ndensity: 2, num_ms_combs: 3, mus: [0, 0], ns: [2, 5], ls: [2, 2], ms_combs: [0, 0, 1, -1, 2, -2], ctildes: [0.029457755245342266, -0.3481983417011939, -0.058915510490684539, 0.69639668340238792, 0.058915510490684553, -0.69639668340238814]}
    - {mu0: 0, rank: 2, ndensity: 2, num_ms_combs: 4, mus: [0, 0], ns: [2, 5], ls: [3, 3], ms_combs: [0, 0, 1, -1, 2, -2, 3, -3], ctildes: [-0.059455474521964626, 0.18713334674266127, 0.11891094904392925, -0.37426669348532254, -0.11891094904392924, 0.37426669348532249, 0.11891094904392924, -0.37426669348532249]}
    - {mu0: 0, rank: 2, ndensity: 2, num_ms_combs: 5, mus: [0, 0], ns: [2, 5], ls: [4, 4], ms_combs: [0, 0, 1, -1, 2, -2, 3, -3, 4, -4], ctildes: [-0.0010416227929142955, -0.025933646191060849, 0.0020832455858285901, 0.051867292382121684, -0.0020832455858285901, -0.051867292382121684, 0.0020832455858285901, 0.051867292382121684, -0.0020832455858285906, -0.051867292382121691]}
    - {mu0: 0, rank: 2, ndensity: 2, num_ms_combs: 6, mus: [0, 0], ns: [2, 5], ls: [5, 5], ms_combs: [0, 0, 1, -1, 2, -2, 3, -3, 4, -4, 5, -5], ctildes: [-0.00062144649431294127, 0.0050361052088005107, 0.0012428929886258825, -0.010072210417601021, -0.0012428929886258828, 0.010072210417601023, 0.001242892988625883, -0.010072210417601025, -0.0012428929886258828, 0.010072210417601023, 0.0012428929886258815, -0.010072210417601011]}
    - {mu0: 0, rank: 2, ndensity: 2, num_ms_combs: 1, mus: [0, 0], ns: [2, 6], ls: [0, 0], ms_combs: [0, 0], ctildes: [0.013445282655445855, -0.034529865521996904]}
    - {mu0: 0, rank: 2, ndensity: 2, num_ms_combs: 2, mus: [0, 0], ns: [2, 6], ls: [1, 1], ms_combs: [0, 0, 1, -1], ctildes: [-0.13070470849274227, -0.026864049366630737, 0.26140941698548448, 0.05372809873326146]}
    - {mu0: 0, rank: 2, ndensity: 2, num_ms_combs: 3, mus: [0, 0], ns: [2, 6], ls: [2, 2], ms_combs: [0, 0, 1, -1, 2, -2], ctildes: [-0.0037232559189566009, -0.064061550547682061, 0.0074465118379132026, 0.12812310109536412, -0.0074465118379132044, -0.12812310109536415]}
    - {mu0: 0, rank: 2, ndensity: 2, num_ms_combs: 4, mus: [0, 0], ns: [2, 6], ls: [3, 3], ms_combs: [0, 0, 1, -1, 2, -2, 3, -3], ctildes: [0.11054505006116958, 0.038821931889936726, -0.22109010012233915, -0.077643863779873451, 0.22109010012233912, 0.077643863779873451, -0.22109010012233912, -0.077643863779873451]}
    - {mu0: 0, rank: 2, ndensity: 2, num_ms_combs: 5, mus: [0, 0], ns: [2, 6], ls: [4, 4], ms_combs: [0, 0, 1, -1, 2, -2, 3, -3, 4, -4], ctildes: [-0.0015813192917724019, 0.0010188836798620266, 0.0031626385835448025, -0.0020377673597240529, -0.0031626385835448025, 0.0020377673597240529, 0.0031626385835448025, -0.0020377673597240529, -0.0031626385835448034, 0.0020377673597240529]}
    - {mu0: 0, rank: 2, ndensity: 2, num_ms_combs: 6, mus: [0, 0], ns: [2, 6], ls: [5, 5], ms_combs: [0, 0, 1, -1, 2, -2, 3, -3, 4, -4, 5, -5], ctildes: [-0.0016068925582679494, 0.0022115839747064436, 0.0032137851165358988, -0.0044231679494128873, -0.0032137851165358997, 0.0044231679494128881, 0.0032137851165359001, -0.004423167949412889, -0.0032137851165358997, 0.0044231679494128881, 0.0032137851165358958, -0.0044231679494128838]}
    - {mu0: 0, rank: 2, ndensity: 2, num_ms_combs: 1, mus: [0, 0], ns: [2, 7], ls: [0, 0], ms_combs: [0, 0], ctildes: [-0.1724522696699744, 0.012610074197241519]}
    - {mu0: 0, rank: 2, ndensity: 2, num_ms_combs: 2, mus: [0, 0], ns: [2, 7], ls: [1, 1], ms_combs: [0, 0, 1, -1], ctildes: [0.43174956202719622, -0.037404403785035872, -0.86349912405439233, 0.074808807570071731]}
    - {mu0: 0, rank: 2, ndensity: 2, num_ms_combs: 3, mus: [0, 0], ns: [2, 7], ls: [2, 2], ms_combs: [0, 0, 1, -1, 2, -2], ctildes: [0.027674627705137615, -0.036389630932681501, -0.055349255410275237, 0.072779261865363015, 0.055349255410275251, -0.072779261865363029]}
    - {mu0: 0, rank: 2, ndensity: 2, num_ms_combs: 4, mus: [0, 0], ns: [2, 7], ls: [3, 3], ms_combs: [0, 0, 1, -1, 2, -2, 3, -3], ctildes: [0.024710869880154914, 0.06887413144949886, -0.049421739760309828, -0.13774826289899772, 0.049421739760309821, 0.13774826289899769, -0.049421739760309821, -0.13774826289899769]}
    - {mu0: 0, rank: 2, ndensity: 2, num_ms_combs: 5, mus: [0, 0], ns: [2, 7], ls: [4, 4], ms_combs: [0, 0, 1, -1, 2, -2, 3, -3, 4, -4], ctildes: [0.00085103509280235476, -0.005094488682931041, -0.0017020701856047089, 0.010188977365862079, 0.0017020701856047089, -0.010188977365862079, -0.0017020701856047089, 0.010188977365862079, 0.0017020701856047091, -0.01018897736586208]}
    - {mu0: 0, rank: 2, ndensity: 2, num_ms_combs: 1, mus: [0, 0], ns: [2, 8], ls: [0, 0], ms_combs: [0, 0], ctildes: [-0.183241434076266, -0.34922241084945366]}
    - {mu0: 0, rank: 2, ndensity: 2, num_ms_combs: 2, mus: [0, 0], ns: [2, 8], ls: [1, 1], ms_combs: [0, 0, 1, -1], ctildes: [-0.10199462729956393, -0.13505844879018628, 0.20398925459912784, 0.27011689758037249]}
    - {mu0: 0, rank: 2, ndensity: 2, num_ms_combs: 3, mus: [0, 0], ns: [2, 8], ls: [2, 2], ms_combs: [0, 0, 1, -1, 2, -2], ctildes: [-0.0089883158889552672, 0.066668205692752419, 0.017976631777910538, -0.13333641138550484, -0.017976631777910541, 0.13333641138550489]}
    - {mu0: 0, rank: 2, ndensity: 2, num_ms_combs: 4, mus: [0, 0], ns: [2, 8], ls: [3, 3], ms_combs: [0, 0, 1, -1, 2, -2, 3, -3], ctildes: [-0.0027174295340877635, -0.031292217560902717, 0.0054348590681755271, 0.062584435121805435, -0.0054348590681755262, -0.062584435121805435, 0.0054348590681755262, 0.062584435121805435]}
    - {mu0: 0, rank: 2, ndensity: 2, num_ms_combs: 5, mus: [0, 0], ns: [2, 8], ls: [4, 4], ms_combs: [0, 0, 1, -1, 2, -2, 3, -3, 4, -4], ctildes: [0.00036334868910039658, 0.0046199436589934393, -0.00072669737820079295, -0.0092398873179868751, 0.00072669737820079295, 0.0092398873179868751, -0.00072669737820079295, -0.0092398873179868751, 0.00072669737820079306, 0.0092398873179868769]}
    - {mu0: 0, rank: 2, ndensity: 2, num_ms_combs: 1, mus: [0, 0], ns: [2, 9], ls: [0, 0], ms_combs: [0, 0], ctildes: [0.088102624623192391, 0.21624034457686803]}
    - {mu0: 0, rank: 2, ndensity: 2, num_ms_combs: 2, mus: [0, 0], ns: [2, 9], ls: [1, 1], ms_combs: [0, 0, 1, -1], ctildes: [-0.0050153401487674654, 0.061560464056111763, 0.010030680297534929, -0.12312092811222351]}
    - {mu0: 0, rank: 2, ndensity: 2, num_ms_combs: 3, mus: [0, 0], ns: [2, 9], ls: [2, 2], ms_combs: [0, 0, 1, -1, 2, -2], ctildes: [-0.0011590087832101671, -0.018396116060762711, 0.0023180175664203346, 0.03679223212152543, -0.002318017566420335, -0.036792232121525437]}
    - {mu0: 0, rank: 2, ndensity: 2, num_ms_combs: 4, mus: [0, 0], ns: [2, 9], ls: [3, 3], ms_combs: [0, 0, 1, -1, 2, -2, 3, -3], ctildes: [0.0087392660154341755, -0.0097924557430896283, -0.017478532030868351, 0.019584911486179257, 0.017478532030868348, -0.019584911486179253, -0.017478532030868348, 0.019584911486179253]}
    - {mu0: 0, rank: 2, ndensity: 2, num_ms_combs: 1, mus: [0, 0], ns: [2, 10], ls: [0, 0], ms_combs: [0, 0], ctildes: [-0.069407128606009352, 0.0023399188498151933]}
    - {mu0: 0, rank: 2, ndensity: 2, num_ms_combs: 2, mus: [0, 0], ns: [2, 10], ls: [1, 1], ms_combs: [0, 0, 1, -1], ctildes: [-0.0074351423158323365, -0.066709789804452371, 0.014870284631664669, 0.13341957960890471]}
    - {mu0: 0, rank: 2, ndensity: 2, num_ms_combs: 3, mus: [0, 0], ns: [2, 10], ls: [2, 2], ms_combs: [0, 0, 1, -1, 2, -2], ctildes: [-0.015588481172932375, 0.068719297141278196, 0.031176962345864753, -0.13743859428255639, -0.031176962345864763, 0.13743859428255642]}
    - {mu0: 0, rank: 2, ndensity: 2, num_ms_combs: 4, mus: [0, 0], ns: [2, 10], ls: [3, 3], ms_combs: [0, 0, 1, -1, 2, -2, 3, -3], ctildes: [0.015342996010874674, 0.010748541104158993, -0.030685992021749348, -0.021497082208317985, 0.030685992021749344, 0.021497082208317985, -0.030685992021749344, -0.021497082208317985]}
    - {mu0: 0, rank: 2, ndensity: 2, num_ms_combs: 1, mus: [0, 0], ns: [2, 11], ls: [0, 0], ms_combs: [0, 0], ctildes: [0.064025891599968757, -0.056550618636794045]}
    - {mu0: 0, rank: 2, ndensity: 2, num_ms_combs: 2, mus: [0, 0], ns: [2, 11], ls: [1, 1], ms_combs: [0, 0, 1, -1], ctildes: [-0.0012887143362420265, 0.074917003536803348, 0.002577428672484052, -0.14983400707360667]}
    - {mu0: 0, rank: 2, ndensity: 2, num_ms_combs: 3, mus: [0, 0], ns: [2, 11], ls: [2, 2], ms_combs: [0, 0, 1, -1, 2, -2], ctildes: [0.0088748104413761131, 0.012625928475527626, -0.01774962088275223, -0.025251856951055255, 0.017749620882752233, 0.025251856951055258]}
    - {mu0: 0, rank: 2, ndensity: 2, num_ms_combs: 1, mus: [0, 0], ns: [2, 12], ls: [0, 0], ms_combs: [0, 0], ctildes: [0.012465646124284415, -0.031572079968584146]}
    - {mu0: 0, rank: 2, ndensity: 2, num_ms_combs: 2, mus: [0, 0], ns: [2, 12], ls: [1, 1], ms_combs: [0, 0, 1, -1], ctildes: [-0.0055800160224225787, -0.039266018293855204, 0.011160032044845156, 0.078532036587710394]}
    - {mu0: 0, rank: 2, ndensity: 2, num_ms_combs: 3, mus: [0, 0], ns: [2, 12], ls: [2, 2], ms_combs: [0, 0, 1, -1, 2, -2], ctildes: [-0.00079982378500964351, -0.012979102020490376, 0.0015996475700192872, 0.025958204040980756, -0.0015996475700192877, -0.025958204040980763]}
    - {mu0: 0, rank: 2, ndensity: 2, num_ms_combs: 1, mus: [0, 0], ns: [3, 3], ls: [0, 0], ms_combs: [0, 0], ctildes: [0.30778805378379276, 0.25350275977998832]}
    - {mu0: 0, rank: 2, ndensity: 2, num_ms_combs: 2, mus: [0, 0], ns: [3, 3], ls: [1, 1], ms_combs: [0, 0, 1, -1], ctildes: [0.1760986087584982, 0.016730685665568453, -0.35219721751699629, -0.033461371331136899]}
    - {mu0: 0, rank: 2, ndensity: 2, num_ms_combs: 3, mus: [0, 0], ns: [3, 3], ls: [2, 2], ms_combs: [0, 0, 1, -1, 2, -2], ctildes: [0.14450401453747636, -0.14734461421839146, -0.28900802907495271, 0.29468922843678291, 0.28900802907495282, -0.29468922843678302]}
    - {mu0: 0, rank: 2, ndensity: 2, num_ms_combs: 4, mus: [0, 0], ns: [3, 3], ls: [3, 3], ms_combs: [0, 0, 1, -1, 2, -2, 3, -3], ctildes: [0.02551421114362926, -0.38321695720036675, -0.051028422287258519, 0.7664339144007335, 0.051028422287258512, -0.76643391440073338, -0.051028422287258512, 0.76643391440073338]}
    - {mu0: 0, rank: 2, ndensity: 2, num_ms_combs: 5, mus: [0, 0], ns: [3, 3], ls: [4, 4], ms_combs: [0, 0, 1, -1, 2, -2, 3, -3, 4, -4], ctildes: [0.061941984512139989, 0.1070496332405757, -0.12388396902427994, -0.21409926648115132, 0.12388396902427994, 0.21409926648115132, -0.12388396902427994, -0.21409926648115132, 0.12388396902427996, 0.21409926648115135]}
    - {mu0: 0, rank: 2, ndensity: 2, num_ms_combs: 6, mus: [0, 0], ns: [3, 3], ls: [5, 5], ms_combs: [0, 0, 1, -1, 2, -2, 3, -3, 4, -4, 5, -5], ctildes: [-4.2070343435853326e-05, -0.00049182435688016775, 8.4140686871706652e-05, 0.0009836487137603355, -8.4140686871706665e-05, -0.00098364871376033572, 8.4140686871706679e-05, 0.00098364871376033572, -8.4140686871706665e-05, -0.00098364871376033572, 8.414068687170657e-05, 0.00098364871376033463]}
    - {mu0: 0, rank: 2, ndensity: 2, num_ms_combs: 7, mus: [0, 0], ns: [3, 3], ls: [6, 6], ms_combs: [0, 0, 1, -1, 2, -2, 3, -3, 4, -4, 5, -5, 6, -6], ctildes: [-1.6807883598782941e-05, 8.8670984214860615e-05, 3.3615767197565889e-05, -0.00017734196842972126, -3.3615767197565875e-05, 0.0001773419684297212, 3.3615767197565889e-05, -0.00017734196842972126, -3.3615767197565868e-05, 0.00017734196842972115, 3.3615767197565875e-05, -0.0001773419684297212, -3.3615767197565855e-05, 0.00017734196842972109]}
    - {mu0: 0, rank: 2, ndensity: 2, num_ms_combs: 1, mus: [0, 0], ns: [3, 4], ls: [0, 0], ms_combs: [0, 0], ctildes: [-0.57146146088924621, 0.19156609343744169]}
    - {mu0: 0, rank: 2, ndensity: 2, num_ms_combs: 2, mus: [0, 0], ns: [3, 4], ls: [1, 1], ms_combs: [0, 0, 1, -1], ctildes: [-0.041291110903829122, 0.19489610435083493, 0.082582221807658229, -0.38979220870166975]}
    - {mu0: 0, rank: 2, ndensity: 2, num_ms_combs: 3, mus: [0, 0], ns: [3, 4], ls: [2, 2], ms_combs: [0, 0, 1, -1, 2, -2], ctildes: [-0.24883608837724022, -0.0012383739537847396, 0.4976721767544805, 0.0024767479075694797, -0.49767217675448067, -0.0024767479075694801]}
    - {mu0: 0, rank: 2, ndensity: 2, num_ms_combs: 4, mus: [0, 0], ns: [3, 4], ls: [3, 3], ms_combs: [0, 0, 1, -1, 2, -2, 3, -3], ctildes: [0.12912819681961002, 0.047613847189426975, -0.25825639363922004, -0.09522769437885395, 0.25825639363921998, 0.095227694378853936, -0.25825639363921998, -0.095227694378853936]}
    - {mu0: 0, rank: 2, ndensity: 2, num_ms_combs: 5, mus: [0, 0], ns: [3, 4], ls: [4, 4], ms_combs: [0, 0, 1, -1, 2, -2, 3, -3, 4, -4], ctildes: [-0.015974758538402255, 0.047929331779868529, 0.031949517076804504, -0.095858663559737017, -0.031949517076804504, 0.095858663559737017, 0.031949517076804504, -0.095858663559737017, -0.031949517076804504, 0.095858663559737045]}
    - {mu0: 0, rank: 2, ndensity: 2, num_ms_combs: 6, mus: [0, 0], ns: [3, 4], ls: [5, 5], ms_combs: [0, 0, 1, -1, 2, -2, 3, -3, 4, -4, 5, -5], ctildes: [-5.043069032445197e-05, 0.00067495684160180029, 0.00010086138064890394, -0.0013499136832036006, -0.00010086138064890397, 0.0013499136832036008, 0.00010086138064890398, -0.001349913683203601, -0.00010086138064890397, 0.0013499136832036008, 0.00010086138064890386, -0.0013499136832035993]}
    - {mu0: 0, rank: 2, ndensity: 2, num_ms_combs: 1, mus: [0, 0], ns: [3, 5], ls: [0, 0], ms_combs: [0, 0], ctildes: [-0.039438541458231231, 0.41199616162295227]}
    - {mu0: 0, rank: 2, ndensity: 2, num_ms_combs: 2, mus: [0, 0], ns: [3, 5], ls: [1, 1], ms_combs: [0, 0, 1, -1], ctildes: [-0.11724910799735756, 0.036623006438908451, 0.23449821599471507, -0.073246012877816888]}
    - {mu0: 0, rank: 2, ndensity: 2, num_ms_combs: 3, mus: [0, 0], ns: [3, 5], ls: [2, 2], ms_combs: [0, 0, 1, -1, 2, -2], ctildes: [0.16892420935698124, -0.093665538573765084, -0.33784841871396254, 0.18733107714753017, 0.33784841871396259, -0.18733107714753022]}
    - {mu0: 0, rank: 2, ndensity: 2, num_ms_combs: 4, mus: [0, 0], ns: [3, 5], ls: [3, 3], ms_combs: [0, 0, 1, -1, 2, -2, 3, -3], ctildes: [0.066726946248688315, 0.17970971917260328, -0.13345389249737663, -0.35941943834520657, 0.1334538924973766, 0.35941943834520651, -0.1334538924973766, -0.35941943834520651]}
    - {mu0: 0, rank: 2, ndensity: 2, num_ms_combs: 5, mus: [0, 0], ns: [3, 5], ls: [4, 4], ms_combs: [0, 0, 1, -1, 2, -2, 3, -3, 4, -4], ctildes: [-0.0096650131627323225, 0.041414737355401313, 0.019330026325464638, -0.082829474710802597, -0.019330026325464638, 0.082829474710802597, 0.019330026325464638, -0.082829474710802597, -0.019330026325464642, 0.082829474710802611]}
    - {mu0: 0, rank: 2, ndensity: 2, num_ms_combs: 6, mus: [0, 0], ns: [3, 5], ls: [5, 5], ms_combs: [0, 0, 1, -1, 2, -2, 3, -3, 4, -4, 5, -5], ctildes: [-0.00019339064899543887, -1.5510933847370359e-05, 0.00038678129799087774, 3.1021867694740718e-05, -0.00038678129799087779, -3.1021867694740725e-05, 0.00038678129799087785, 3.1021867694740731e-05, -0.00038678129799087779, -3.1021867694740725e-05, 0.00038678129799087736, 3.1021867694740691e-05]}
    - {mu0: 0, rank: 2, ndensity: 2, num_ms_combs: 1, mus: [0, 0], ns: [3, 6], ls: [0, 0], ms_combs: [0, 0], ctildes: [0.21626318445949436, -0.019040531106204069]}
    - {mu0: 0, rank: 2, ndensity: 2, num_ms_combs: 2, mus: [0, 0], ns: [3, 6], ls: [1, 1], ms_combs: [0, 0, 1, -1], ctildes: [-0.41066738900925159, 0.12313347057713879, 0.82133477801850308, -0.24626694115427752]}
    - {mu0: 0, rank: 2, ndensity: 2, num_ms_combs: 3, mus: [0, 0], ns: [3, 6], ls: [2, 2], ms_combs: [0, 0, 1, -1, 2, -2], ctildes: [0.0098784137235345699, -0.097842180380168342, -0.01975682744706914, 0.19568436076033668, 0.019756827447069147, -0.19568436076033674]}
    - {mu0: 0, rank: 2, ndensity: 2, num_ms_combs: 4, mus: [0, 0], ns: [3, 6], ls: [3, 3], ms_combs: [0, 0, 1, -1, 2, -2, 3, -3], ctildes: [0.012982510330044895, -0.1070717449413247, -0.02596502066008979, 0.21414348988264939, 0.025965020660089787, -0.21414348988264936, -0.025965020660089787, 0.21414348988264936]}
    - {mu0: 0, rank: 2, ndensity: 2, num_ms_combs: 5, mus: [0, 0], ns: [3, 6], ls: [4, 4], ms_combs: [0, 0, 1, -1, 2, -2, 3, -3, 4, -4], ctildes: [0.005259266709841638, -0.0014830470334975616, -0.010518533419683273, 0.0029660940669951224, 0.010518533419683273, -0.0029660940669951224, -0.010518533419683273, 0.0029660940669951224, 0.010518533419683274, -0.0029660940669951228]}
    - {mu0: 0, rank: 2, ndensity: 2, num_ms_combs: 1, mus: [0, 0], ns: [3, 7], ls: [0, 0], ms_combs: [0, 0], ctildes: [-0.26107603993367084, 0.24663762903937719]}
    - {mu0: 0, rank: 2, ndensity: 2, num_ms_combs: 2, mus: [0, 0], ns: [3, 7], ls: [1, 1], ms_combs: [0, 0, 1, -1], ctildes: [0.092528851763197237, -0.021356969436870647, -0.18505770352639445, 0.042713938873741281]}
    - {mu0: 0, rank: 2, ndensity: 2, num_ms_combs: 3, mus: [0, 0], ns: [3, 7], ls: [2, 2], ms_combs: [0, 0, 1, -1, 2, -2], ctildes: [0.042549305397981269, -0.0035957554704797155, -0.085098610795962551, 0.0071915109409594318, 0.085098610795962565, -0.0071915109409594336]}
    - {mu0: 0, rank: 2, ndensity: 2, num_ms_combs: 4, mus: [0, 0], ns: [3, 7], ls: [3, 3], ms_combs: [0, 0, 1, -1, 2, -2, 3, -3], ctildes: [-0.028059532515270793, 0.0027055522963802506, 0.056119065030541586, -0.0054111045927605012, -0.056119065030541579, 0.0054111045927605003, 0.056119065030541579, -0.0054111045927605003]}
    - {mu0: 0, rank: 2, ndensity: 2, num_ms_combs: 5, mus: [0, 0], ns: [3, 7], ls: [4, 4], ms_combs: [0, 0, 1, -1, 2, -2, 3, -3, 4, -4], ctildes: [-0.0017845014648451992, 0.0059502139002643303, 0.0035690029296903975, -0.011900427800528657, -0.0035690029296903975, 0.011900427800528657, 0.0035690029296903975, -0.011900427800528657, -0.003569002929690398, 0.011900427800528659]}
    - {mu0: 0, rank: 2, ndensity: 2, num_ms_combs: 1, mus: [0, 0], ns: [3, 8], ls: [0, 0], ms_combs: [0, 0], ctildes: [-0.0079205668057843719, -0.09466529290774052]}
    - {mu0: 0, rank: 2, ndensity: 2, num_ms_combs: 2, mus: [0, 0], ns: [3, 8], ls: [1, 1], ms_combs: [0, 0, 1, -1], ctildes: [0.068289895479832274, 0.045700867152221561, -0.13657979095966452, -0.091401734304443094]}
    - {mu0: 0, rank: 2, ndensity: 2, num_ms_combs: 3, mus: [0, 0], ns: [3, 8], ls: [2, 2], ms_combs: [0, 0, 1, -1, 2, -2], ctildes: [0.0054286131545405424, -0.013730651594775793, -0.010857226309081086, 0.027461303189551589, 0.010857226309081088, -0.027461303189551596]}
    - {mu0: 0, rank: 2, ndensity: 2, num_ms_combs: 4, mus: [0, 0], ns: [3, 8], ls: [3, 3], ms_combs: [0, 0, 1, -1, 2, -2, 3, -3], ctildes: [0.0184496749466974, -0.007352911091045404, -0.036899349893394801, 0.014705822182090808, 0.036899349893394794, -0.014705822182090806, -0.036899349893394794, 0.014705822182090806]}
    - {mu0: 0, rank: 2, ndensity: 2, num_ms_combs: 1, mus: [0, 0], ns: [3, 9], ls: [0, 0], ms_combs: [0, 0], ctildes: [0.0028799028209300615, 0.080753061595693634]}
    - {mu0: 0, rank: 2, ndensity: 2, num_ms_combs: 2, mus: [0, 0], ns: [3, 9], ls: [1, 1], ms_combs: [0, 0, 1, -1], ctildes: [-0.0014120114723222301, -0.11317849475714363, 0.0028240229446444593, 0.22635698951428723]}
    - {mu0: 0, rank: 2, ndensity: 2, num_ms_combs: 3, mus: [0, 0], ns: [3, 9], ls: [2, 2], ms_combs: [0, 0, 1, -1, 2, -2], ctildes: [0.0095400500329200048, -0.041747835157645324, -0.019080100065840013, 0.083495670315290649, 0.019080100065840017, -0.083495670315290677]}
    - {mu0: 0, rank: 2, ndensity: 2, num_ms_combs: 4, mus: [0, 0], ns: [3, 9], ls: [3, 3], ms_combs: [0, 0, 1, -1, 2, -2, 3, -3], ctildes: [0.0050849285081529128, -0.011033808081335791, -0.010169857016305826, 0.022067616162671583, 0.010169857016305824, -0.022067616162671579, -0.010169857016305824, 0.022067616162671579]}
    - {mu0: 0, rank: 2, ndensity: 2, num_ms_combs: 1, mus: [0, 0], ns: [3, 10], ls: [0, 0], ms_combs: [0, 0], ctildes: [0.036222234603929378, -0.025218236344478631]}
    - {mu0: 0, rank: 2, ndensity: 2, num_ms_combs: 2, mus: [0, 0], ns: [3, 10], ls: [1, 1], ms_combs: [0, 0, 1, -1], ctildes: [0.058649859528792106, 0.0075064308016416443, -0.1172997190575842, -0.015012861603283285]}
    - {mu0: 0, rank: 2, ndensity: 2, num_ms_combs: 3, mus: [0, 0], ns: [3, 10], ls: [2, 2], ms_combs: [0, 0, 1, -1, 2, -2], ctildes: [-0.0038568008277519222, -0.010102878370370048, 0.0077136016555038453, 0.0202057567407401, -0.007713601655503847, -0.020205756740740103]}
    - {mu0: 0, rank: 2, ndensity: 2, num_ms_combs: 1, mus: [0, 0], ns: [3, 11], ls: [0, 0], ms_combs: [0, 0], ctildes: [-0.16031570898711653, -0.28155909537422152]}
    - {mu0: 0, rank: 2, ndensity: 2, num_ms_combs: 2, mus: [0, 0], ns: [3, 11], ls: [1, 1], ms_combs: [0, 0, 1, -1], ctildes: [-0.033871479593943744, 0.027528681343491835, 0.067742959187887475, -0.055057362686983663]}
    - {mu0: 0, rank: 2, ndensity: 2, num_ms_combs: 3, mus: [0, 0], ns: [3, 11], ls: [2, 2], ms_combs: [0, 0, 1, -1, 2, -2], ctildes: [-0.021628193803509523, 0.023825607591947569, 0.043256387607019046, -0.047651215183895146, -0.04325638760701906, 0.047651215183895153]}
    - {mu0: 0, rank: 2, ndensity: 2, num_ms_combs: 1, mus: [0, 0], ns: [3, 12], ls: [0, 0], ms_combs: [0, 0], ctildes: [-0.015325123886388637, 0.0092122908890354752]}
    - {mu0: 0, rank: 2, ndensity: 2, num_ms_combs: 2, mus: [0, 0], ns: [3, 12], ls: [1, 1], ms_combs: [0, 0, 1, -1], ctildes: [0.0095237772210558548, -0.0055873618157467443, -0.019047554442111706, 0.011174723631493485]}
    - {mu0: 0, rank: 2, ndensity: 2, num_ms_combs: 1, mus: [0, 0], ns: [4, 4], ls: [0, 0], ms_combs: [0, 0], ctildes: [0.12039375752982832, -0.29956200019177226]}
    - {mu0: 0, rank: 2, ndensity: 2, num_ms_combs: 2, mus: [0, 0], ns: [4, 4], ls: [1, 1], ms_combs: [0, 0, 1, -1], ctildes: [0.014141665482143479, 0.045703723738645056, -0.028283330964286951, -0.091407447477290099]}
    - {mu0: 0, rank: 2, ndensity: 2, num_ms_combs: 3, mus: [0, 0], ns: [4, 4], ls: [2, 2], ms_combs: [0, 0, 1, -1, 2, -2], ctildes: [0.022148127643711116, 0.051359090273877868, -0.044296255287422238, -0.10271818054775575, 0.044296255287422245, 0.10271818054775578]}
    - {mu0: 0, rank: 2, ndensity: 2, num_ms_combs: 4, mus: [0, 0], ns: [4, 4], ls: [3, 3], ms_combs: [0, 0, 1, -1, 2, -2, 3, -3], ctildes: [-0.11995480309291578, 0.0595535985559561, 0.23990960618583157, -0.1191071971119122, -0.23990960618583154, 0.11910719711191217, 0.23990960618583154, -0.11910719711191217]}
    - {mu0: 0, rank: 2, ndensity: 2, num_ms_combs: 5, mus: [0, 0], ns: [4, 4], ls: [4, 4], ms_combs: [0, 0, 1, -1, 2, -2, 3, -3, 4, -4], ctildes: [0.0017741653702143321, -0.0093165114974693309, -0.0035483307404286634, 0.018633022994938655, 0.0035483307404286634, -0.018633022994938655, -0.0035483307404286634, 0.018633022994938655, 0.0035483307404286638, -0.018633022994938658]}
    - {mu0: 0, rank: 2, ndensity: 2, num_ms_combs: 6, mus: [0, 0], ns: [4, 4], ls: [5, 5], ms_combs: [0, 0, 1, -1, 2, -2, 3, -3, 4, -4, 5, -5], ctildes: [-9.038814032882255e-06, -0.00060555561927718305, 1.807762806576451e-05, 0.0012111112385543661, -1.8077628065764513e-05, -0.0012111112385543663, 1.8077628065764517e-05, 0.0012111112385543665, -1.8077628065764513e-05, -0.0012111112385543663, 1.8077628065764493e-05, 0.001211111238554365]}
    - {mu0: 0, rank: 2, ndensity: 2, num_ms_combs: 1, mus: [0, 0], ns: [4, 5], ls: [0, 0], ms_combs: [0, 0], ctildes: [-0.35977514895920387, -0.18195270756010176]}
    - {mu0: 0, rank: 2, ndensity: 2, num_ms_combs: 2, mus: [0, 0], ns: [4, 5], ls: [1, 1], ms_combs: [0, 0, 1, -1], ctildes: [-0.27453976666007635, -0.005829151782751992, 0.54907953332015258, 0.011658303565503982]}
    - {mu0: 0, rank: 2, ndensity: 2, num_ms_combs: 3, mus: [0, 0], ns: [4, 5], ls: [2, 2], ms_combs: [0, 0, 1, -1, 2, -2], ctildes: [-0.0026754106544596111, -0.38893884487278241, 0.0053508213089192222, 0.77787768974556493, -0.0053508213089192239, -0.77787768974556515]}
    - {mu0: 0, rank: 2, ndensity: 2, num_ms_combs: 4, mus: [0, 0], ns: [4, 5], ls: [3, 3], ms_combs: [0, 0, 1, -1, 2, -2, 3, -3], ctildes: [-0.037526307780042595, -0.02397968177401031, 0.07505261556008519, 0.04795936354802062, -0.07505261556008519, -0.047959363548020613, 0.07505261556008519, 0.047959363548020613]}
    - {mu0: 0, rank: 2, ndensity: 2, num_ms_combs: 5, mus: [0, 0], ns: [4, 5], ls: [4, 4], ms_combs: [0, 0, 1, -1, 2, -2, 3, -3, 4, -4], ctildes: [0.0003245788354883081, -0.0048196012086702943, -0.00064915767097661599, 0.0096392024173405852, 0.00064915767097661599, -0.0096392024173405852, -0.00064915767097661599, 0.0096392024173405852, 0.0006491576709766161, -0.0096392024173405869]}
    - {mu0: 0, rank: 2, ndensity: 2, num_ms_combs: 1, mus: [0, 0], ns: [4, 6], ls: [0, 0], ms_combs: [0, 0], ctildes: [0.10933437253093642, 0.073952221118678413]}
    - {mu0: 0, rank: 2, ndensity: 2, num_ms_combs: 2, mus: [0, 0], ns: [4, 6], ls: [1, 1], ms_combs: [0, 0, 1, -1], ctildes: [-0.052929328341123724, -0.14987578368172869, 0.10585865668224743, 0.29975156736345732]}
    - {mu0: 0, rank: 2, ndensity: 2, num_ms_combs: 3, mus: [0, 0], ns: [4, 6], ls: [2, 2], ms_combs: [0, 0, 1, -1, 2, -2], ctildes: [-0.082472457881186526, 0.21197899791816449, 0.16494491576237308, -0.42395799583632898, -0.16494491576237311, 0.42395799583632909]}
    - {mu0: 0, rank: 2, ndensity: 2, num_ms_combs: 4, mus: [0, 0], ns: [4, 6], ls: [3, 3], ms_combs: [0, 0, 1, -1, 2, -2, 3, -3], ctildes: [-0.048720607895544693, -0.010750987337988358, 0.097441215791089386, 0.021501974675976716, -0.097441215791089372, -0.021501974675976712, 0.097441215791089372, 0.021501974675976712]}
    - {mu0: 0, rank: 2, ndensity: 2, num_ms_combs: 5, mus: [0, 0], ns: [4, 6], ls: [4, 4], ms_combs: [0, 0, 1, -1, 2, -2, 3, -3, 4, -4], ctildes: [0.00014680037785434828, -0.0018118900655732953, -0.00029360075570869645, 0.0036237801311465893, 0.00029360075570869645, -0.0036237801311465893, -0.00029360075570869645, 0.0036237801311465893, 0.0002936007557086965, -0.0036237801311465902]}
    - {mu0: 0, rank: 2, ndensity: 2, num_ms_combs: 1, mus: [0, 0], ns: [4, 7], ls: [0, 0], ms_combs: [0, 0], ctildes: [0.46565419439844996, -0.0070116913904079755]}
    - {mu0: 0, rank: 2, ndensity: 2, num_ms_combs: 2, mus: [0, 0], ns: [4, 7], ls: [1, 1], ms_combs: [0, 0, 1, -1], ctildes: [0.010021511548836416, -0.17293286221261511, -0.020043023097672828, 0.34586572442523011]}
    - {mu0: 0, rank: 2, ndensity: 2, num_ms_combs: 3, mus: [0, 0], ns: [4, 7], ls: [2, 2], ms_combs: [0, 0, 1, -1, 2, -2], ctildes: [0.0065399774056039738, 0.056056073889902962, -0.013079954811207949, -0.11211214777980594, 0.013079954811207953, 0.11211214777980597]}
