<GAP_2024_2_15_0_11_55_42_151>
<Potential label="GAP_2024_2_15_0_11_55_42_151" init_args="IP GAP label=GAP_2024_2_15_0_11_55_42_151"/>
<GAP_params label="GAP_2024_2_15_0_11_55_42_151" gap_version="1686220958">
  <GAP_data do_core="F">
    <e0 Z="1" value=".00000000000000000E+000"/>
    <e0 Z="2" value=".00000000000000000E+000"/>
    <e0 Z="3" value=".00000000000000000E+000"/>
    <e0 Z="4" value=".00000000000000000E+000"/>
    <e0 Z="5" value=".00000000000000000E+000"/>
    <e0 Z="6" value=".00000000000000000E+000"/>
    <e0 Z="7" value=".00000000000000000E+000"/>
    <e0 Z="8" value=".00000000000000000E+000"/>
    <e0 Z="9" value=".00000000000000000E+000"/>
    <e0 Z="10" value=".00000000000000000E+000"/>
    <e0 Z="11" value=".00000000000000000E+000"/>
    <e0 Z="12" value=".00000000000000000E+000"/>
    <e0 Z="13" value=".00000000000000000E+000"/>
    <e0 Z="14" value=".00000000000000000E+000"/>
    <e0 Z="15" value=".00000000000000000E+000"/>
    <e0 Z="16" value=".00000000000000000E+000"/>
    <e0 Z="17" value=".00000000000000000E+000"/>
    <e0 Z="18" value=".00000000000000000E+000"/>
    <e0 Z="19" value=".00000000000000000E+000"/>
    <e0 Z="20" value=".00000000000000000E+000"/>
    <e0 Z="21" value=".00000000000000000E+000"/>
    <e0 Z="22" value=".00000000000000000E+000"/>
    <e0 Z="23" value=".00000000000000000E+000"/>
    <e0 Z="24" value=".00000000000000000E+000"/>
    <e0 Z="25" value=".00000000000000000E+000"/>
    <e0 Z="26" value=".00000000000000000E+000"/>
    <e0 Z="27" value=".00000000000000000E+000"/>
    <e0 Z="28" value=".00000000000000000E+000"/>
    <e0 Z="29" value=".00000000000000000E+000"/>
    <e0 Z="30" value=".00000000000000000E+000"/>
    <e0 Z="31" value=".00000000000000000E+000"/>
    <e0 Z="32" value=".00000000000000000E+000"/>
    <e0 Z="33" value=".00000000000000000E+000"/>
    <e0 Z="34" value=".00000000000000000E+000"/>
    <e0 Z="35" value=".00000000000000000E+000"/>
    <e0 Z="36" value=".00000000000000000E+000"/>
    <e0 Z="37" value=".00000000000000000E+000"/>
    <e0 Z="38" value=".00000000000000000E+000"/>
    <e0 Z="39" value=".00000000000000000E+000"/>
    <e0 Z="40" value=".00000000000000000E+000"/>
    <e0 Z="41" value=".00000000000000000E+000"/>
    <e0 Z="42" value=".00000000000000000E+000"/>
    <e0 Z="43" value=".00000000000000000E+000"/>
    <e0 Z="44" value=".00000000000000000E+000"/>
    <e0 Z="45" value=".00000000000000000E+000"/>
    <e0 Z="46" value=".00000000000000000E+000"/>
    <e0 Z="47" value=".00000000000000000E+000"/>
    <e0 Z="48" value=".00000000000000000E+000"/>
    <e0 Z="49" value=".00000000000000000E+000"/>
    <e0 Z="50" value=".00000000000000000E+000"/>
    <e0 Z="51" value=".00000000000000000E+000"/>
    <e0 Z="52" value=".00000000000000000E+000"/>
    <e0 Z="53" value=".00000000000000000E+000"/>
    <e0 Z="54" value=".00000000000000000E+000"/>
    <e0 Z="55" value=".00000000000000000E+000"/>
    <e0 Z="56" value=".00000000000000000E+000"/>
    <e0 Z="57" value=".00000000000000000E+000"/>
    <e0 Z="58" value=".00000000000000000E+000"/>
    <e0 Z="59" value=".00000000000000000E+000"/>
    <e0 Z="60" value=".00000000000000000E+000"/>
    <e0 Z="61" value=".00000000000000000E+000"/>
    <e0 Z="62" value=".00000000000000000E+000"/>
    <e0 Z="63" value=".00000000000000000E+000"/>
    <e0 Z="64" value=".00000000000000000E+000"/>
    <e0 Z="65" value=".00000000000000000E+000"/>
    <e0 Z="66" value=".00000000000000000E+000"/>
    <e0 Z="67" value=".00000000000000000E+000"/>
    <e0 Z="68" value=".00000000000000000E+000"/>
    <e0 Z="69" value=".00000000000000000E+000"/>
    <e0 Z="70" value=".00000000000000000E+000"/>
    <e0 Z="71" value=".00000000000000000E+000"/>
    <e0 Z="72" value=".00000000000000000E+000"/>
    <e0 Z="73" value=".00000000000000000E+000"/>
    <e0 Z="74" value=".00000000000000000E+000"/>
    <e0 Z="75" value=".00000000000000000E+000"/>
    <e0 Z="76" value=".00000000000000000E+000"/>
    <e0 Z="77" value=".00000000000000000E+000"/>
    <e0 Z="78" value=".00000000000000000E+000"/>
    <e0 Z="79" value=".00000000000000000E+000"/>
    <e0 Z="80" value=".00000000000000000E+000"/>
    <e0 Z="81" value=".00000000000000000E+000"/>
    <e0 Z="82" value=".00000000000000000E+000"/>
    <e0 Z="83" value=".00000000000000000E+000"/>
    <e0 Z="84" value=".00000000000000000E+000"/>
    <e0 Z="85" value=".00000000000000000E+000"/>
    <e0 Z="86" value=".00000000000000000E+000"/>
    <e0 Z="87" value=".00000000000000000E+000"/>
    <e0 Z="88" value=".00000000000000000E+000"/>
    <e0 Z="89" value=".00000000000000000E+000"/>
    <e0 Z="90" value=".00000000000000000E+000"/>
    <e0 Z="91" value=".00000000000000000E+000"/>
    <e0 Z="92" value=".00000000000000000E+000"/>
    <e0 Z="93" value=".00000000000000000E+000"/>
    <e0 Z="94" value=".00000000000000000E+000"/>
    <e0 Z="95" value=".00000000000000000E+000"/>
    <e0 Z="96" value=".00000000000000000E+000"/>
    <e0 Z="97" value=".00000000000000000E+000"/>
    <e0 Z="98" value=".00000000000000000E+000"/>
    <e0 Z="99" value=".00000000000000000E+000"/>
    <e0 Z="100" value=".00000000000000000E+000"/>
    <e0 Z="101" value=".00000000000000000E+000"/>
    <e0 Z="102" value=".00000000000000000E+000"/>
    <e0 Z="103" value=".00000000000000000E+000"/>
    <e0 Z="104" value=".00000000000000000E+000"/>
    <e0 Z="105" value=".00000000000000000E+000"/>
    <e0 Z="106" value=".00000000000000000E+000"/>
    <e0 Z="107" value=".00000000000000000E+000"/>
    <e0 Z="108" value=".00000000000000000E+000"/>
    <e0 Z="109" value=".00000000000000000E+000"/>
    <e0 Z="110" value=".00000000000000000E+000"/>
    <e0 Z="111" value=".00000000000000000E+000"/>
    <e0 Z="112" value=".00000000000000000E+000"/>
    <e0 Z="113" value=".00000000000000000E+000"/>
    <e0 Z="114" value=".00000000000000000E+000"/>
    <e0 Z="115" value=".00000000000000000E+000"/>
    <e0 Z="116" value=".00000000000000000E+000"/>
    <e0 Z="117" value=".00000000000000000E+000"/>
    <e0 Z="118" value=".00000000000000000E+000"/>
  </GAP_data>
  <gpSparse label="GAP_2024_2_15_0_11_55_42_151" n_coordinate="1" fitted="T">
    <gpCoordinates label="GAP_2024_2_15_0_11_55_42_1511" dimensions="1" signal_variance="2.0000000000000000" signal_mean=".00000000000000000E+000" sparsified="T" n_permutations="2" covariance_type="1" n_sparseX="15" sparseX_filename="gap.xml.sparseX.GAP_2024_2_15_0_11_55_42_1511" sparseX_md5sum="f7e9e5870d0c1051bd6b008d256ed56c">
      <theta>  0.10000000000000000E+001 </theta>
      <descriptor>distance_Nb order=2 f0=0 cutoff=4.0 n_sparse=15 delta=2 sparse_method=random mark_sparse_atoms=F               covariance_type=gaussian theta_uniform=1 energy_parameter_name=energy Z={6 6 }</descriptor>
      <permutation i="1">1  </permutation>
      <permutation i="2">1  </permutation>
      <sparseX i="1" alpha="-751675.27949661983" sparseCutoff="1.0000000000000000"/>
      <sparseX i="2" alpha="-4511001.6599049894" sparseCutoff="1.0000000000000000"/>
      <sparseX i="3" alpha="241337.19533148798" sparseCutoff="1.0000000000000000"/>
      <sparseX i="4" alpha="5718271.7319758916" sparseCutoff=".87869101644397896"/>
      <sparseX i="5" alpha="-4350403.0070909373" sparseCutoff=".47141381629702211"/>
      <sparseX i="6" alpha="-3556924.4128460353" sparseCutoff="1.0000000000000000"/>
      <sparseX i="7" alpha="17075555.479330380" sparseCutoff=".34150467172882004E-001"/>
      <sparseX i="8" alpha="7730590.9555269033" sparseCutoff="1.0000000000000000"/>
      <sparseX i="9" alpha="2003.1557403133725" sparseCutoff="1.0000000000000000"/>
      <sparseX i="10" alpha="-5885207.5607845169" sparseCutoff="1.0000000000000000"/>
      <sparseX i="11" alpha="-846155.51859826583" sparseCutoff="1.0000000000000000"/>
      <sparseX i="12" alpha="5215098.0487893373" sparseCutoff="1.0000000000000000"/>
      <sparseX i="13" alpha="1139329.2753673333" sparseCutoff="1.0000000000000000"/>
      <sparseX i="14" alpha="-1151312.1723761964" sparseCutoff="1.0000000000000000"/>
      <sparseX i="15" alpha="-2730450.8681029975" sparseCutoff=".43319427842354663"/>
    </gpCoordinates>
  </gpSparse>
  <command_line><![CDATA[ at_file=/u/vld/scat7402/Documents/xpot-v2/examples/gap_C_XYZ/bulk_cryst_train.xyz gap={distance_Nb order=2 f0=0 cutoff=4.0 n_sparse=15 delta=2 sparse_method=random mark_sparse_atoms=F add_species=T covariance_type=gaussian theta_uniform=1 }energy_parameter_name=energy local_property_parameter_name=local_property force_parameter_name=forces virial_parameter_name=virial hessian_parameter_name=hessian config_type_parameter_name=config_type sigma_parameter_name=sigma force_mask_parameter_name=force_mask gap_file=gap.xml verbosity=NORMAL sparsify_only_no_fit=F e0=0.0 local_property0=0.0 e0_offset=0.0 e0_method=isolated default_sigma={0.002 0.2 0.2 0} sparse_jitter=1.0e-8 hessian_delta=1.0e-2 kernel_regularisation_is_per_atom=T sigma_per_atom=T do_copy_atoms_file=T do_copy_at_file=T sparse_separate_file=T sparse_use_actual_gpcov=F rnd_seed=1 openmp_chunk_size=10000 do_ip_timing=F]]></command_line>
  <XYZ_data>
    <![CDATA[8]]>
    <![CDATA[energy=-1261.78710800 config_type=bulk_cryst detailed_ct=dist_dia task=SinglePoint cut_off_energy="650 eV" spin_polarized=F opt_strategy=speed xc_functional=LDA elec_energy_tol=0.00000001 max_scf_cycles=200 fix_occupancy=F smearing_width="0.1 eV" mixing_scheme=Pulay calculate_stress=T finite_basis_corr=automatic popn_calculate=F pdos_calculate_weights=F write_checkpoint=none mix_charge_amp=0.15000000 mix_history_length=20 nextra_bands=8 kpoints_mp_grid="11      11      11" castep_file_name=1.castep castep_run_time=201.30000000 virial="39.53226704      -0.00000000      -3.06217169      -0.00000000      33.01469557      -0.00000000      -3.06217169      -0.00000000      43.59155664" cutoff=-1.00000000 nneightol=1.20000000 pbc="T T T" Lattice="3.24292500       0.00000000       0.00000000       0.00000000       3.32027300       0.00000000       0.04888700       0.00000000       3.18963600" Properties=species:S:1:pos:R:3:Z:I:1:frac_pos:R:3:forces:R:3]]>
    <![CDATA[C               0.00000000      0.00318082      0.00000000       6      0.00000000      0.00095800      0.00000000      0.00000000     -0.07457174      0.00000000]]>
    <![CDATA[C               0.82295300      0.82688743      0.79740900       6      0.25000000      0.24904200      0.25000000      0.00000000      0.07457174      0.00000000]]>
    <![CDATA[C               1.62146250      1.66331732      0.00000000       6      0.50000000      0.50095800      0.00000000      0.00000000     -0.07457174      0.00000000]]>
    <![CDATA[C               2.44441550      2.48702393      0.79740900       6      0.75000000      0.74904200      0.25000000      0.00000000      0.07457174      0.00000000]]>
    <![CDATA[C               1.64590600      0.00318082      1.59481800       6      0.50000000      0.00095800      0.50000000      0.00000000     -0.07457174     -0.00000000]]>
    <![CDATA[C               2.46885900      0.82688743      2.39222700       6      0.75000000      0.24904200      0.75000000      0.00000000      0.07457174      0.00000000]]>
    <![CDATA[C               0.02444350      1.66331732      1.59481800       6     -0.00000000      0.50095800      0.50000000      0.00000000     -0.07457174     -0.00000000]]>
    <![CDATA[C               0.84739650      2.48702393      2.39222700       6      0.25000000      0.74904200      0.75000000     -0.00000000      0.07457174      0.00000000]]>
    <![CDATA[8]]>
    <![CDATA[energy=-1263.24911900 config_type=bulk_cryst detailed_ct=dist_dia task=SinglePoint cut_off_energy="650 eV" spin_polarized=F opt_strategy=speed xc_functional=LDA elec_energy_tol=0.00000001 max_scf_cycles=200 fix_occupancy=F smearing_width="0.1 eV" mixing_scheme=Pulay calculate_stress=T finite_basis_corr=automatic popn_calculate=F pdos_calculate_weights=F write_checkpoint=none mix_charge_amp=0.15000000 mix_history_length=20 nextra_bands=8 kpoints_mp_grid="11      11      11" castep_file_name=2.castep castep_run_time=417.79000000 virial="29.25755180       0.54655044      -0.43467704       0.54655044      33.78363622       0.10475030      -0.43467704       0.10475030      29.61273577" cutoff=-1.00000000 nneightol=1.20000000 pbc="T T T" Lattice="3.32027300       0.00000000       0.00000000       0.00000000       3.26257100       0.00000000       0.00000000       0.00000000       3.31532200" Properties=species:S:1:pos:R:3:Z:I:1:frac_pos:R:3:forces:R:3]]>
    <![CDATA[C               0.00993426     -0.00276340      0.01295296       6      0.00299200     -0.00084700      0.00390700      0.50954155      0.11473849     -1.06810373]]>
    <![CDATA[C               0.86052843      0.81096096      0.82414927       6      0.25917400      0.24856500      0.24858800     -1.32379854      0.66645759      0.06978382]]>
    <![CDATA[C               1.69172226      1.64663263     -0.00938899       6      0.50951300      0.50470400     -0.00283200     -2.17933446     -1.06219886     -0.37313443]]>
    <![CDATA[C               2.50105540      2.43765929      0.81951445       6      0.75326800      0.74715900      0.24719000      1.02387878     -0.63586665      0.51511863]]>
    <![CDATA[C               1.66497414     -0.03826670      1.62316176       6      0.50145700     -0.01172900      0.48959400     -0.06863855      1.84687186      1.54952821]]>
    <![CDATA[C               2.47895899      0.79538545      2.49277735       6      0.74661300      0.24379100      0.75189600      0.36107699     -0.54564629     -0.24617033]]>
    <![CDATA[C              -0.01815857      1.60303816      1.68697508       6     -0.00546900      0.49134200      0.50884200      1.51924632      0.38420763     -2.09837119]]>
    <![CDATA[C               0.82555268      2.44827895      2.45799631       6      0.24864000      0.75041400      0.74140500      0.15802791     -0.76856376      1.65134902]]>
    <![CDATA[8]]>
    <![CDATA[energy=-1262.84609200 config_type=bulk_cryst detailed_ct=dist_dia task=SinglePoint cut_off_energy="650 eV" spin_polarized=F opt_strategy=speed xc_functional=LDA elec_energy_tol=0.00000001 max_scf_cycles=200 fix_occupancy=F smearing_width="0.1 eV" mixing_scheme=Pulay calculate_stress=T finite_basis_corr=automatic popn_calculate=F pdos_calculate_weights=F write_checkpoint=none mix_charge_amp=0.15000000 mix_history_length=20 nextra_bands=8 kpoints_mp_grid="11      11      10" castep_file_name=3.castep castep_run_time=370.48000000 virial="27.01359706      16.24744465       6.84413703      16.24744465      29.29060786     -15.12758571       6.84413703     -15.12758571      24.05523852" cutoff=-1.00000000 nneightol=1.20000000 pbc="T T T" Lattice="3.32027300       0.00000000       0.00000000      -0.25150100       3.31073400       0.00000000      -0.15255200       0.25971400       3.38432800" Properties=species:S:1:pos:R:3:Z:I:1:frac_pos:R:3:forces:R:3]]>
    <![CDATA[C               0.00993457     -0.00276350      0.01295521       6      0.00308200     -0.00113500      0.00382800      1.28695783      0.20154116     -1.78223386]]>
    <![CDATA[C               0.75951357      0.88792874      0.84139809       6      0.25901100      0.24869400      0.24861600     -1.94170019      0.54848768      0.37753472]]>
    <![CDATA[C               1.56597127      1.67071355     -0.00938813       6      0.50975300      0.50485300     -0.00277400     -1.12711485     -1.35478251     -1.22047459]]>
    <![CDATA[C               2.27429223      2.53870933      0.83676833       6      0.75294600      0.74741600      0.24724800     -0.36058901     -0.26350743      1.66464571]]>
    <![CDATA[C               1.58869924      0.09158929      1.65766416       6      0.50017400     -0.01075900      0.48980600      1.38852708      1.33755790      0.35934836]]>
    <![CDATA[C               2.30167026      1.00221285      2.54453070       6      0.74622400      0.24373600      0.75185700     -0.75871051     -0.37701031      0.79710242]]>
    <![CDATA[C              -0.22018583      1.75697821      1.72147566       6     -0.00576900      0.49078900      0.50866100      2.19976280      0.77553750     -2.60884617]]>
    <![CDATA[C               0.52251281      2.67918507      2.50974996       6      0.24833400      0.75106800      0.74158000     -0.68713316     -0.86782399      2.41292341]]>
    <![CDATA[8]]>
    <![CDATA[energy=-1262.14843700 config_type=bulk_cryst detailed_ct=dist_dia task=SinglePoint cut_off_energy="650 eV" spin_polarized=F opt_strategy=speed xc_functional=LDA elec_energy_tol=0.00000001 max_scf_cycles=200 fix_occupancy=F smearing_width="0.1 eV" mixing_scheme=Pulay calculate_stress=T finite_basis_corr=automatic popn_calculate=F pdos_calculate_weights=F write_checkpoint=none mix_charge_amp=0.15000000 mix_history_length=20 nextra_bands=8 kpoints_mp_grid="11      11      11" castep_file_name=4.castep castep_run_time=563.20000000 virial="26.79037363      13.06415502     -18.59360443      13.06415502      29.90518724     -18.48853994     -18.59360443     -18.48853994      33.97766538" cutoff=-1.00000000 nneightol=1.20000000 pbc="T T T" Lattice="3.34086000       0.00000000       0.00000000      -0.19175500       3.31473100       0.00000000       0.26468500       0.25644500       3.29975600" Properties=species:S:1:pos:R:3:Z:I:1:frac_pos:R:3:forces:R:3]]>
    <![CDATA[C               0.00000000      0.00000000      0.00000000       6      0.00000000      0.00000000      0.00000000      1.70248966      1.88940989     -1.85395928]]>
    <![CDATA[C               0.85344750      0.89279400      0.82493900       6      0.25000000      0.25000000      0.25000000     -1.70248966     -1.88940989      1.85395928]]>
    <![CDATA[C               1.57455250      1.65736550      0.00000000       6      0.50000000      0.50000000      0.00000000      1.70248966      1.88940989     -1.85395928]]>
    <![CDATA[C               2.42800000      2.55015950      0.82493900       6      0.75000000      0.75000000      0.25000000     -1.70248966     -1.88940989      1.85395928]]>
    <![CDATA[C               1.80277250      0.12822250      1.64987800       6      0.50000000     -0.00000000      0.50000000      1.70248966      1.88940989     -1.85395928]]>
    <![CDATA[C               2.65622000      1.02101650      2.47481700       6      0.75000000      0.25000000      0.75000000     -1.70248966     -1.88940989      1.85395928]]>
    <![CDATA[C               0.03646500      1.78558800      1.64987800       6     -0.00000000      0.50000000      0.50000000      1.70248966      1.88940989     -1.85395928]]>
    <![CDATA[C               0.88991250      2.67838200      2.47481700       6      0.25000000      0.75000000      0.75000000     -1.70248966     -1.88940989      1.85395928]]>
    <![CDATA[8]]>
    <![CDATA[energy=-1261.94423700 config_type=bulk_cryst detailed_ct=dist_dia task=SinglePoint cut_off_energy="650 eV" spin_polarized=F opt_strategy=speed xc_functional=LDA elec_energy_tol=0.00000001 max_scf_cycles=200 fix_occupancy=F smearing_width="0.1 eV" mixing_scheme=Pulay calculate_stress=T finite_basis_corr=automatic popn_calculate=F pdos_calculate_weights=F write_checkpoint=none mix_charge_amp=0.15000000 mix_history_length=20 nextra_bands=8 kpoints_mp_grid="10      11      11" castep_file_name=5.castep castep_run_time=178.98000000 virial="23.95070178      -0.00000000      -3.11297940      -0.00000000      40.89587027      -0.00000000      -3.11297940      -0.00000000      44.32825103" cutoff=-1.00000000 nneightol=1.20000000 pbc="T T T" Lattice="3.41298100       0.00000000       0.00000000       0.00000000       3.21644000       0.00000000       0.05279400       0.00000000       3.16806600" Properties=species:S:1:pos:R:3:Z:I:1:frac_pos:R:3:forces:R:3]]>
    <![CDATA[C               0.00000000      0.00272111      0.00000000       6      0.00000000      0.00084600      0.00000000      0.00000000      0.01350676     -0.00000000]]>
    <![CDATA[C               0.86644375      0.80138889      0.79201650       6      0.25000000      0.24915400      0.25000000      0.00000000     -0.01350676     -0.00000000]]>
    <![CDATA[C               1.70649050      1.61094111      0.00000000       6      0.50000000      0.50084600      0.00000000      0.00000000      0.01350676      0.00000000]]>
    <![CDATA[C               2.57293425      2.40960889      0.79201650       6      0.75000000      0.74915400      0.25000000      0.00000000     -0.01350676      0.00000000]]>
    <![CDATA[C               1.73288750      0.00272111      1.58403300       6      0.50000000      0.00084600      0.50000000     -0.00000000      0.01350676     -0.00000000]]>
    <![CDATA[C               2.59933125      0.80138889      2.37604950       6      0.75000000      0.24915400      0.75000000     -0.00000000     -0.01350676     -0.00000000]]>
    <![CDATA[C               0.02639700      1.61094111      1.58403300       6      0.00000000      0.50084600      0.50000000     -0.00000000      0.01350676      0.00000000]]>
    <![CDATA[C               0.89284075      2.40960889      2.37604950       6      0.25000000      0.74915400      0.75000000     -0.00000000     -0.01350676     -0.00000000]]>
    <![CDATA[8]]>
    <![CDATA[energy=-1262.32382400 config_type=bulk_cryst detailed_ct=dist_dia task=SinglePoint cut_off_energy="650 eV" spin_polarized=F opt_strategy=speed xc_functional=LDA elec_energy_tol=0.00000001 max_scf_cycles=200 fix_occupancy=F smearing_width="0.1 eV" mixing_scheme=Pulay calculate_stress=T finite_basis_corr=automatic popn_calculate=F pdos_calculate_weights=F write_checkpoint=none mix_charge_amp=0.15000000 mix_history_length=20 nextra_bands=8 kpoints_mp_grid="11      11      11" castep_file_name=6.castep castep_run_time=392.60000000 virial="29.50745696      -3.18995246      -9.00671237      -3.18995246      32.11533034      19.42363146      -9.00671237      19.42363146      33.29753988" cutoff=-1.00000000 nneightol=1.20000000 pbc="T T T" Lattice="3.32027300       0.00000000       0.00000000       0.04727500       3.28502600       0.00000000       0.12867100      -0.28941400       3.30513100" Properties=species:S:1:pos:R:3:Z:I:1:frac_pos:R:3:forces:R:3]]>
    <![CDATA[C               0.00993363     -0.00276359      0.01295281       6      0.00284700     -0.00049600      0.00391900     -0.88786082      0.76881295     -0.38903713]]>
    <![CDATA[C               0.90451499      0.74422131      0.82159938       6      0.25925100      0.24845000      0.24858300      0.01856150     -0.07477446     -0.18046460]]>
    <![CDATA[C               1.71535931      1.65786161     -0.00938988       6      0.50956000      0.50442200     -0.00284100     -3.76627209     -0.18107683      0.49799731]]>
    <![CDATA[C               2.56867967      2.38214654      0.81696889       6      0.75342100      0.74693000      0.24718200      2.91818708     -1.52958000     -0.60191541]]>
    <![CDATA[C               1.72931146     -0.18297230      1.61806654       6      0.50204100     -0.01256800      0.48956200     -2.08244765      3.07372884      2.66464032]]>
    <![CDATA[C               2.58728196      0.58393866      2.48513461       6      0.74662500      0.24400100      0.75190200      2.07260721     -1.51348793     -1.27316219]]>
    <![CDATA[C               0.06981244      1.46956014      1.68187871       6     -0.00570200      0.49218300      0.50886900      0.20203465      0.68956331     -1.58505025]]>
    <![CDATA[C               0.95751190      2.24806114      2.45035141       6      0.24897900      0.74965200      0.74137800      1.52519012     -1.23318587      0.86699196]]>
    <![CDATA[8]]>
    <![CDATA[energy=-1263.79398500 config_type=bulk_cryst detailed_ct=dist_dia task=SinglePoint cut_off_energy="650 eV" spin_polarized=F opt_strategy=speed xc_functional=LDA elec_energy_tol=0.00000001 max_scf_cycles=200 fix_occupancy=F smearing_width="0.1 eV" mixing_scheme=Pulay calculate_stress=T finite_basis_corr=automatic popn_calculate=F pdos_calculate_weights=F write_checkpoint=none mix_charge_amp=0.15000000 mix_history_length=20 nextra_bands=8 kpoints_mp_grid="10      11      11" castep_file_name=7.castep castep_run_time=175.00000000 virial="22.12539087      15.29708260      -0.00000000      15.29708260      28.86082105      -0.00000000      -0.00000000      -0.00000000      26.69521606" cutoff=-1.00000000 nneightol=1.20000000 pbc="T T T" Lattice="3.37674200       0.00000000       0.00000000      -0.24643100       3.31111500       0.00000000       0.00000000       0.00000000       3.32027300" Properties=species:S:1:pos:R:3:Z:I:1:frac_pos:R:3:forces:R:3]]>
    <![CDATA[C               0.00000000      0.00000000      0.00000000       6      0.00000000      0.00000000      0.00000000     -0.00000000     -0.00000000     -1.16354669]]>
    <![CDATA[C               0.78257775      0.82777875      0.83006825       6      0.25000000      0.25000000      0.25000000      0.00000000      0.00000000      1.16354669]]>
    <![CDATA[C               1.56515550      1.65555750      0.00000000       6      0.50000000      0.50000000      0.00000000      0.00000000     -0.00000000     -1.16354669]]>
    <![CDATA[C               2.34773325      2.48333625      0.83006825       6      0.75000000      0.75000000      0.25000000     -0.00000000      0.00000000      1.16354669]]>
    <![CDATA[C               1.68837100      0.00000000      1.66013650       6      0.50000000      0.00000000      0.50000000     -0.00000000     -0.00000000     -1.16354669]]>
    <![CDATA[C               2.47094875      0.82777875      2.49020475       6      0.75000000      0.25000000      0.75000000      0.00000000      0.00000000      1.16354669]]>
    <![CDATA[C              -0.12321550      1.65555750      1.66013650       6     -0.00000000      0.50000000      0.50000000     -0.00000000     -0.00000000     -1.16354669]]>
    <![CDATA[C               0.65936225      2.48333625      2.49020475       6      0.25000000      0.75000000      0.75000000      0.00000000      0.00000000      1.16354669]]>
    <![CDATA[8]]>
    <![CDATA[energy=-1261.34821600 config_type=bulk_cryst detailed_ct=dist_dia task=SinglePoint cut_off_energy="650 eV" spin_polarized=F opt_strategy=speed xc_functional=LDA elec_energy_tol=0.00000001 max_scf_cycles=200 fix_occupancy=F smearing_width="0.1 eV" mixing_scheme=Pulay calculate_stress=T finite_basis_corr=automatic popn_calculate=F pdos_calculate_weights=F write_checkpoint=none mix_charge_amp=0.15000000 mix_history_length=20 nextra_bands=8 kpoints_mp_grid="11      11      11" castep_file_name=8.castep castep_run_time=99.20000000 virial="34.03323044      -0.00000000      -0.00000000      -0.00000000      46.05044473      -0.00000000      -0.00000000      -0.00000000      42.01496916" cutoff=-1.00000000 nneightol=1.20000000 pbc="T T T" Lattice="3.32027300       0.00000000       0.00000000       0.00000000       3.17176600       0.00000000       0.00000000       0.00000000       3.22614800" Properties=species:S:1:pos:R:3:Z:I:1:frac_pos:R:3:forces:R:3]]>
    <![CDATA[C               0.00000000      0.00000000      0.00000000       6      0.00000000      0.00000000      0.00000000      0.00000000      0.00000000      0.00000000]]>
    <![CDATA[C               0.83006825      0.79294150      0.80653700       6      0.25000000      0.25000000      0.25000000      0.00000000      0.00000000      0.00000000]]>
    <![CDATA[C               1.66013650      1.58588300      0.00000000       6      0.50000000      0.50000000      0.00000000      0.00000000      0.00000000      0.00000000]]>
    <![CDATA[C               2.49020475      2.37882450      0.80653700       6      0.75000000      0.75000000      0.25000000      0.00000000      0.00000000      0.00000000]]>
    <![CDATA[C               1.66013650      0.00000000      1.61307400       6      0.50000000      0.00000000      0.50000000      0.00000000      0.00000000      0.00000000]]>
    <![CDATA[C               2.49020475      0.79294150      2.41961100       6      0.75000000      0.25000000      0.75000000      0.00000000      0.00000000      0.00000000]]>
    <![CDATA[C               0.00000000      1.58588300      1.61307400       6      0.00000000      0.50000000      0.50000000      0.00000000      0.00000000      0.00000000]]>
    <![CDATA[C               0.83006825      2.37882450      2.41961100       6      0.25000000      0.75000000      0.75000000      0.00000000      0.00000000      0.00000000]]>
    <![CDATA[8]]>
    <![CDATA[energy=-1263.81544800 config_type=bulk_cryst detailed_ct=dist_dia task=SinglePoint cut_off_energy="650 eV" spin_polarized=F opt_strategy=speed xc_functional=LDA elec_energy_tol=0.00000001 max_scf_cycles=200 fix_occupancy=F smearing_width="0.1 eV" mixing_scheme=Pulay calculate_stress=T finite_basis_corr=automatic popn_calculate=F pdos_calculate_weights=F write_checkpoint=none mix_charge_amp=0.15000000 mix_history_length=20 nextra_bands=8 kpoints_mp_grid="10      11      11" castep_file_name=9.castep castep_run_time=354.24000000 virial="14.75910650       0.43301437      -9.78920823       0.43301437      31.75239646      -0.07674233      -9.78920823      -0.07674233      27.67402273" cutoff=-1.00000000 nneightol=1.20000000 pbc="T T T" Lattice="3.46363200       0.00000000       0.00000000       0.00000000       3.25014200       0.00000000       0.16099000       0.00000000       3.31636700" Properties=species:S:1:pos:R:3:Z:I:1:frac_pos:R:3:forces:R:3]]>
    <![CDATA[C               0.00993561     -0.00276587      0.01295373       6      0.00268700     -0.00085100      0.00390600      0.61160761      0.81681535     -1.05085557]]>
    <![CDATA[C               0.93661596      0.80785205      0.82440904       6      0.25886000      0.24855900      0.24858800     -1.26016110     -0.13835110      0.14431676]]>
    <![CDATA[C               1.76339883      1.64042142     -0.00938863       6      0.50925000      0.50472300     -0.00283100     -1.97608876     -0.28640831     -0.09994729]]>
    <![CDATA[C               2.64882457      2.42833710      0.81977608       6      0.75326400      0.74714800      0.24719100      0.86736201     -1.44545823      0.30078398]]>
    <![CDATA[C               1.81715147     -0.03826717      1.62368665       6      0.50188100     -0.01177400      0.48959800     -0.25445371      2.57875346      1.41600256]]>
    <![CDATA[C               2.70722036      0.79228062      2.49355977       6      0.74666500      0.24376800      0.75189500      0.39103299     -1.19345912     -0.18718557]]>
    <![CDATA[C               0.06233462      1.59682402      1.68749687       6     -0.00565400      0.49130900      0.50883900      1.64999487      1.12964530     -2.08740131]]>
    <![CDATA[C               0.98213615      2.43895856      2.45878102       6      0.24909600      0.75041600      0.74140800     -0.02929390     -1.46153734      1.56428644]]>
    <![CDATA[8]]>
    <![CDATA[energy=-1261.71829700 config_type=bulk_cryst detailed_ct=dist_dia task=SinglePoint cut_off_energy="650 eV" spin_polarized=F opt_strategy=speed xc_functional=LDA elec_energy_tol=0.00000001 max_scf_cycles=200 fix_occupancy=F smearing_width="0.1 eV" mixing_scheme=Pulay calculate_stress=T finite_basis_corr=automatic popn_calculate=F pdos_calculate_weights=F write_checkpoint=none mix_charge_amp=0.15000000 mix_history_length=20 nextra_bands=8 kpoints_mp_grid="11      10      11" castep_file_name=10.castep castep_run_time=382.31000000 virial="42.84357778       3.73056683     -12.08427788       3.73056683      25.34729034     -16.79822106     -12.08427788     -16.79822106      35.12550511" cutoff=-1.00000000 nneightol=1.20000000 pbc="T T T" Lattice="3.15985500       0.00000000       0.00000000      -0.04632000       3.39091500       0.00000000       0.16364500       0.26142400       3.30591700" Properties=species:S:1:pos:R:3:Z:I:1:frac_pos:R:3:forces:R:3]]>
    <![CDATA[C               0.00000000      0.00000000      0.00000000       6      0.00000000      0.00000000      0.00000000      1.63919489      1.05386186     -0.81048568]]>
    <![CDATA[C               0.81929500      0.91308475      0.82647925       6      0.25000000      0.25000000      0.25000000     -1.63919489     -1.05386186      0.81048568]]>
    <![CDATA[C               1.55676750      1.69545750      0.00000000       6      0.50000000      0.50000000      0.00000000      1.63919489      1.05386186     -0.81048568]]>
    <![CDATA[C               2.37606250      2.60854225      0.82647925       6      0.75000000      0.75000000      0.25000000     -1.63919489     -1.05386186      0.81048568]]>
    <![CDATA[C               1.66175000      0.13071200      1.65295850       6      0.50000000     -0.00000000      0.50000000      1.63919489      1.05386186     -0.81048568]]>
    <![CDATA[C               2.48104500      1.04379675      2.47943775       6      0.75000000      0.25000000      0.75000000     -1.63919489     -1.05386186      0.81048568]]>
    <![CDATA[C               0.05866250      1.82616950      1.65295850       6     -0.00000000      0.50000000      0.50000000      1.63919489      1.05386186     -0.81048568]]>
    <![CDATA[C               0.87795750      2.73925425      2.47943775       6      0.25000000      0.75000000      0.75000000     -1.63919489     -1.05386186      0.81048568]]>
    <![CDATA[8]]>
    <![CDATA[energy=-1261.64079600 config_type=bulk_cryst detailed_ct=dist_dia task=SinglePoint cut_off_energy="650 eV" spin_polarized=F opt_strategy=speed xc_functional=LDA elec_energy_tol=0.00000001 max_scf_cycles=200 fix_occupancy=F smearing_width="0.1 eV" mixing_scheme=Pulay calculate_stress=T finite_basis_corr=automatic popn_calculate=F pdos_calculate_weights=F write_checkpoint=none mix_charge_amp=0.15000000 mix_history_length=20 nextra_bands=8 kpoints_mp_grid="11      11      11" castep_file_name=11.castep castep_run_time=384.58000000 virial="31.67602457     -11.44138082     -14.28945577     -11.44138082      42.34937007      10.60592845     -14.28945577      10.60592845      34.27066353" cutoff=-1.00000000 nneightol=1.20000000 pbc="T T T" Lattice="3.32027300       0.00000000       0.00000000       0.15842100       3.19067000       0.00000000       0.20506400      -0.13346000       3.31124600" Properties=species:S:1:pos:R:3:Z:I:1:frac_pos:R:3:forces:R:3]]>
    <![CDATA[C               0.00000000      0.00000000      0.00000000       6      0.00000000      0.00000000      0.00000000     -1.05626732      1.51759018      1.35590984]]>
    <![CDATA[C               0.92093950      0.76430250      0.82781150       6      0.25000000      0.25000000      0.25000000      1.05626732     -1.51759018     -1.35590984]]>
    <![CDATA[C               1.73934700      1.59533500      0.00000000       6      0.50000000      0.50000000      0.00000000     -1.05626732      1.51759018      1.35590984]]>
    <![CDATA[C               2.66028650      2.35963750      0.82781150       6      0.75000000      0.75000000      0.25000000      1.05626732     -1.51759018     -1.35590984]]>
    <![CDATA[C               1.76266850     -0.06673000      1.65562300       6      0.50000000      0.00000000      0.50000000     -1.05626732      1.51759018      1.35590984]]>
    <![CDATA[C               2.68360800      0.69757250      2.48343450       6      0.75000000      0.25000000      0.75000000      1.05626732     -1.51759018     -1.35590984]]>
    <![CDATA[C               0.18174250      1.52860500      1.65562300       6     -0.00000000      0.50000000      0.50000000     -1.05626732      1.51759018      1.35590984]]>
    <![CDATA[C               1.10268200      2.29290750      2.48343450       6      0.25000000      0.75000000      0.75000000      1.05626732     -1.51759018     -1.35590984]]>
    <![CDATA[8]]>
    <![CDATA[energy=-1261.59858300 config_type=bulk_cryst detailed_ct=dist_dia task=SinglePoint cut_off_energy="650 eV" spin_polarized=F opt_strategy=speed xc_functional=LDA elec_energy_tol=0.00000001 max_scf_cycles=200 fix_occupancy=F smearing_width="0.1 eV" mixing_scheme=Pulay calculate_stress=T finite_basis_corr=automatic popn_calculate=F pdos_calculate_weights=F write_checkpoint=none mix_charge_amp=0.15000000 mix_history_length=20 nextra_bands=8 kpoints_mp_grid="11      11      11" castep_file_name=12.castep castep_run_time=430.20000000 virial="32.63540815      -1.22865353      -9.10291845      -1.22865353      44.89052461       9.07143253      -9.10291845       9.07143253      33.92289360" cutoff=-1.00000000 nneightol=1.20000000 pbc="T T T" Lattice="3.32027300       0.00000000       0.00000000       0.02187200       3.15793900       0.00000000       0.13049400      -0.12527800       3.31534100" Properties=species:S:1:pos:R:3:Z:I:1:frac_pos:R:3:forces:R:3]]>
    <![CDATA[C               0.00993361     -0.00276634      0.01295304       6      0.00284300     -0.00072100      0.00390700     -0.03732343      0.89618974     -0.78662492]]>
    <![CDATA[C               0.89862115      0.75348207      0.82415399       6      0.25924000      0.24846100      0.24858800     -0.75366236     -0.03952771     -0.02513516]]>
    <![CDATA[C               1.70265817      1.59431818     -0.00938905       6      0.50959300      0.50474800     -0.00283200     -3.09491548     -0.20302454      0.13186831]]>
    <![CDATA[C               2.55008468      2.32786757      0.81952246       6      0.75339900      0.74695400      0.24719100      2.05147927     -1.65861702     -0.08429548]]>
    <![CDATA[C               1.73022274     -0.10090433      1.62317106       6      0.50194900     -0.01253000      0.48959400     -1.12170972      3.05966900      2.15231050]]>
    <![CDATA[C               2.58229669      0.67527055      2.49279164       6      0.74658000      0.24366100      0.75189600      1.16420296     -1.56584116     -0.72949367]]>
    <![CDATA[C               0.05802409      1.48808346      1.68698475       6     -0.00576000      0.49140600      0.50884200      1.04369692      1.00103323     -2.03155085]]>
    <![CDATA[C               0.93982642      2.27584726      2.45801039       6      0.24897700      0.75008700      0.74140500      0.74823184     -1.48988154      1.37292128]]>
    <![CDATA[8]]>
    <![CDATA[energy=-1265.28670500 config_type=bulk_cryst detailed_ct=dist_dia task=SinglePoint cut_off_energy="650 eV" spin_polarized=F opt_strategy=speed xc_functional=LDA elec_energy_tol=0.00000001 max_scf_cycles=200 fix_occupancy=F smearing_width="0.1 eV" mixing_scheme=Pulay calculate_stress=T finite_basis_corr=automatic popn_calculate=F pdos_calculate_weights=F write_checkpoint=none mix_charge_amp=0.15000000 mix_history_length=20 nextra_bands=8 kpoints_mp_grid="11      10      10" castep_file_name=13.castep castep_run_time=251.34000000 virial="22.69609697      -2.36786859      -0.00000000      -2.36786859      18.26891919      -0.00000000      -0.00000000      -0.00000000      10.77469959" cutoff=-1.00000000 nneightol=1.20000000 pbc="T T T" Lattice="3.32027300       0.00000000       0.00000000       0.03926000       3.38195300       0.00000000       0.00000000       0.00000000       3.47302800" Properties=species:S:1:pos:R:3:Z:I:1:frac_pos:R:3:forces:R:3]]>
    <![CDATA[C               0.00000000      0.00000000      0.00000000       6      0.00000000      0.00000000      0.00000000      0.00000000      0.00000000      0.13035902]]>
    <![CDATA[C               0.83988325      0.84548825      0.86825700       6      0.25000000      0.25000000      0.25000000     -0.00000000      0.00000000     -0.13035902]]>
    <![CDATA[C               1.67976650      1.69097650      0.00000000       6      0.50000000      0.50000000      0.00000000      0.00000000      0.00000000      0.13035902]]>
    <![CDATA[C               2.51964975      2.53646475      0.86825700       6      0.75000000      0.75000000      0.25000000      0.00000000      0.00000000     -0.13035902]]>
    <![CDATA[C               1.66013650      0.00000000      1.73651400       6      0.50000000      0.00000000      0.50000000     -0.00000000      0.00000000      0.13035902]]>
    <![CDATA[C               2.50001975      0.84548825      2.60477100       6      0.75000000      0.25000000      0.75000000     -0.00000000      0.00000000     -0.13035902]]>
    <![CDATA[C               0.01963000      1.69097650      1.73651400       6     -0.00000000      0.50000000      0.50000000      0.00000000      0.00000000      0.13035902]]>
    <![CDATA[C               0.85951325      2.53646475      2.60477100       6      0.25000000      0.75000000      0.75000000      0.00000000      0.00000000     -0.13035902]]>
    <![CDATA[8]]>
    <![CDATA[energy=-1263.20768500 config_type=bulk_cryst detailed_ct=dist_dia task=SinglePoint cut_off_energy="650 eV" spin_polarized=F opt_strategy=speed xc_functional=LDA elec_energy_tol=0.00000001 max_scf_cycles=200 fix_occupancy=F smearing_width="0.1 eV" mixing_scheme=Pulay calculate_stress=T finite_basis_corr=automatic popn_calculate=F pdos_calculate_weights=F write_checkpoint=none mix_charge_amp=0.15000000 mix_history_length=20 nextra_bands=8 kpoints_mp_grid="11      10      11" castep_file_name=14.castep castep_run_time=539.93000000 virial="34.71311636     -10.46161313      -0.40284459     -10.46161313      24.97405827       0.23024039      -0.40284459       0.23024039      28.69318846" cutoff=-1.00000000 nneightol=1.20000000 pbc="T T T" Lattice="3.23812000       0.00000000       0.00000000       0.16722400       3.37295400       0.00000000       0.00000000       0.00000000       3.31943600" Properties=species:S:1:pos:R:3:Z:I:1:frac_pos:R:3:forces:R:3]]>
    <![CDATA[C               0.00993343     -0.00276582      0.01295244       6      0.00311000     -0.00082000      0.00390200      0.49413912      0.00924682     -0.26404413]]>
    <![CDATA[C               0.88179787      0.83855347      0.82517528       6      0.25947900      0.24861100      0.24858900     -1.39651742      0.78210196     -0.64661031]]>
    <![CDATA[C               1.73425670      1.70182731     -0.00938737       6      0.50951900      0.50455100     -0.00282800     -2.05738630     -0.77719088      0.51767187]]>
    <![CDATA[C               2.56485922      2.52044662      0.82054466       6      0.75349300      0.74725200      0.24719400      1.07490555     -0.86432879     -0.51521036]]>
    <![CDATA[C               1.62389813     -0.03826616      1.62521910       6      0.50208000     -0.01134500      0.48960700     -0.28722515      1.78709161      2.46664842]]>
    <![CDATA[C               2.45914948      0.82298054      2.49586069       6      0.74683700      0.24399400      0.75189300      0.48936867     -0.46342741     -1.08358425]]>
    <![CDATA[C               0.06545116      1.65823188      1.68903194       6     -0.00517600      0.49162600      0.50883100      1.49746228      0.25880837     -1.27549202]]>
    <![CDATA[C               0.93043295      2.53106468      2.46108296       6      0.24858500      0.75040000      0.74141600      0.18525325     -0.73230167      0.80062079]]>
    <![CDATA[8]]>
    <![CDATA[energy=-1262.03123400 config_type=bulk_cryst detailed_ct=dist_dia task=SinglePoint cut_off_energy="650 eV" spin_polarized=F opt_strategy=speed xc_functional=LDA elec_energy_tol=0.00000001 max_scf_cycles=200 fix_occupancy=F smearing_width="0.1 eV" mixing_scheme=Pulay calculate_stress=T finite_basis_corr=automatic popn_calculate=F pdos_calculate_weights=F write_checkpoint=none mix_charge_amp=0.15000000 mix_history_length=20 nextra_bands=8 kpoints_mp_grid="11      11      11" castep_file_name=15.castep castep_run_time=208.79000000 virial="39.93614034      11.08972076      -0.00000000      11.08972076      37.78016922      -0.00000000      -0.00000000      -0.00000000      31.64305583" cutoff=-1.00000000 nneightol=1.20000000 pbc="T T T" Lattice="3.21766000       0.00000000       0.00000000      -0.17941100       3.25729800       0.00000000       0.00000000       0.00000000       3.32027300" Properties=species:S:1:pos:R:3:Z:I:1:frac_pos:R:3:forces:R:3]]>
    <![CDATA[C               0.00000000      0.00000000     -0.01095026       6      0.00000000      0.00000000     -0.00329800      0.00000000      0.00000000      0.22975260]]>
    <![CDATA[C               0.75956225      0.81432450      0.84101851       6      0.25000000      0.25000000      0.25329800      0.00000000     -0.00000000     -0.22975260]]>
    <![CDATA[C               1.51912450      1.62864900     -0.01095026       6      0.50000000      0.50000000     -0.00329800      0.00000000     -0.00000000      0.22975260]]>
    <![CDATA[C               2.27868675      2.44297350      0.84101851       6      0.75000000      0.75000000      0.25329800      0.00000000      0.00000000     -0.22975260]]>
    <![CDATA[C               1.60883000      0.00000000      1.64918624       6      0.50000000      0.00000000      0.49670200      0.00000000     -0.00000000      0.22975260]]>
    <![CDATA[C               2.36839225      0.81432450      2.50115501       6      0.75000000      0.25000000      0.75329800      0.00000000      0.00000000     -0.22975260]]>
    <![CDATA[C              -0.08970550      1.62864900      1.64918624       6      0.00000000      0.50000000      0.49670200      0.00000000      0.00000000      0.22975260]]>
    <![CDATA[C               0.66985675      2.44297350      2.50115501       6      0.25000000      0.75000000      0.75329800      0.00000000     -0.00000000     -0.22975260]]>
    <![CDATA[8]]>
    <![CDATA[energy=-1261.02730500 config_type=bulk_cryst detailed_ct=dist_dia task=SinglePoint cut_off_energy="650 eV" spin_polarized=F opt_strategy=speed xc_functional=LDA elec_energy_tol=0.00000001 max_scf_cycles=200 fix_occupancy=F smearing_width="0.1 eV" mixing_scheme=Pulay calculate_stress=T finite_basis_corr=automatic popn_calculate=F pdos_calculate_weights=F write_checkpoint=none mix_charge_amp=0.15000000 mix_history_length=20 nextra_bands=8 kpoints_mp_grid="11      11      11" castep_file_name=17.castep castep_run_time=383.02000000 virial="34.27359203       0.77346507      -0.67558320       0.77346507      44.20244122      -7.71425893      -0.67558320      -7.71425893      44.61634214" cutoff=-1.00000000 nneightol=1.20000000 pbc="T T T" Lattice="3.32027300       0.00000000       0.00000000       0.00000000       3.19970200       0.00000000       0.00000000       0.10402700       3.19771500" Properties=species:S:1:pos:R:3:Z:I:1:frac_pos:R:3:forces:R:3]]>
    <![CDATA[C               0.00993426     -0.00276549      0.01295394       6      0.00299200     -0.00099600      0.00405100      1.27234668      0.18877808     -1.17198770]]>
    <![CDATA[C               0.86052843      0.82124918      0.79474730       6      0.25917400      0.24858400      0.24853600     -2.06942380      0.86057735     -0.06365979]]>
    <![CDATA[C               1.69172226      1.61519852     -0.00938849       6      0.50951300      0.50489200     -0.00293600     -1.71913588     -1.06400192     -0.42308063]]>
    <![CDATA[C               2.50105540      2.41651465      0.79011381       6      0.75326800      0.74719800      0.24708700      0.41884734     -0.76586403      0.64278610]]>
    <![CDATA[C               1.66497414      0.01374912      1.56436055       6      0.50145700     -0.01160800      0.48921200      0.75880011      1.87420728      1.59571491]]>
    <![CDATA[C               2.47895899      0.85768807      2.40456976       6      0.74661300      0.24360500      0.75196500     -0.44741329     -0.68078789     -0.14324643]]>
    <![CDATA[C              -0.01815857      1.62361764      1.62817095       6     -0.00546900      0.49087400      0.50916700      2.32385874      0.56833999     -2.32963807]]>
    <![CDATA[C               0.82555268      2.47914795      2.36979141       6      0.24864000      0.75071200      0.74108900     -0.53787990     -0.98124885      1.89311161]]>
    <![CDATA[8]]>
    <![CDATA[energy=-1265.13757800 config_type=bulk_cryst detailed_ct=dist_dia task=SinglePoint cut_off_energy="650 eV" spin_polarized=F opt_strategy=speed xc_functional=LDA elec_energy_tol=0.00000001 max_scf_cycles=200 fix_occupancy=F smearing_width="0.1 eV" mixing_scheme=Pulay calculate_stress=T finite_basis_corr=automatic popn_calculate=F pdos_calculate_weights=F write_checkpoint=none mix_charge_amp=0.15000000 mix_history_length=20 nextra_bands=8 kpoints_mp_grid="10      10      11" castep_file_name=18.castep castep_run_time=191.01000000 virial="14.26975169      11.91170283      -0.00000000      11.91170283      10.90680063      -0.00000000      -0.00000000      -0.00000000      21.79876955" cutoff=-1.00000000 nneightol=1.20000000 pbc="T T T" Lattice="3.42485900       0.00000000       0.00000000      -0.22102000       3.47727200       0.00000000       0.00000000       0.00000000       3.32027300" Properties=species:S:1:pos:R:3:Z:I:1:frac_pos:R:3:forces:R:3]]>
    <![CDATA[C               0.00000000      0.00000000      0.00000000       6      0.00000000      0.00000000      0.00000000     -0.00000000      0.00000000     -0.72640592]]>
    <![CDATA[C               0.80095975      0.86931800      0.83006825       6      0.25000000      0.25000000      0.25000000     -0.00000000      0.00000000      0.72640592]]>
    <![CDATA[C               1.60191950      1.73863600      0.00000000       6      0.50000000      0.50000000      0.00000000      0.00000000      0.00000000     -0.72640592]]>
    <![CDATA[C               2.40287925      2.60795400      0.83006825       6      0.75000000      0.75000000      0.25000000     -0.00000000     -0.00000000      0.72640592]]>
    <![CDATA[C               1.71242950      0.00000000      1.66013650       6      0.50000000      0.00000000      0.50000000      0.00000000      0.00000000     -0.72640592]]>
    <![CDATA[C               2.51338925      0.86931800      2.49020475       6      0.75000000      0.25000000      0.75000000      0.00000000     -0.00000000      0.72640592]]>
    <![CDATA[C              -0.11051000      1.73863600      1.66013650       6      0.00000000      0.50000000      0.50000000      0.00000000      0.00000000     -0.72640592]]>
    <![CDATA[C               0.69044975      2.60795400      2.49020475       6      0.25000000      0.75000000      0.75000000     -0.00000000      0.00000000      0.72640592]]>
    <![CDATA[8]]>
    <![CDATA[energy=-1262.24515900 config_type=bulk_cryst detailed_ct=dist_dia task=SinglePoint cut_off_energy="650 eV" spin_polarized=F opt_strategy=speed xc_functional=LDA elec_energy_tol=0.00000001 max_scf_cycles=200 fix_occupancy=F smearing_width="0.1 eV" mixing_scheme=Pulay calculate_stress=T finite_basis_corr=automatic popn_calculate=F pdos_calculate_weights=F write_checkpoint=none mix_charge_amp=0.15000000 mix_history_length=20 nextra_bands=8 kpoints_mp_grid="10      11      11" castep_file_name=19.castep castep_run_time=183.96000000 virial="21.72230023      -0.00000000      -0.00000000      -0.00000000      36.06472072       9.50109270      -0.00000000       9.50109270      43.44117988" cutoff=-1.00000000 nneightol=1.20000000 pbc="T T T" Lattice="3.42305000       0.00000000       0.00000000       0.00000000       3.26031900       0.00000000       0.00000000      -0.15470500       3.16391200" Properties=species:S:1:pos:R:3:Z:I:1:frac_pos:R:3:forces:R:3]]>
    <![CDATA[C              -0.01201833      0.00000000      0.00000000       6     -0.00351100      0.00000000      0.00000000      0.53132095      0.00000000      0.00000000]]>
    <![CDATA[C               0.86778083      0.77640350      0.79097800       6      0.25351100      0.25000000      0.25000000     -0.53132095     -0.00000000      0.00000000]]>
    <![CDATA[C               1.69950667      1.63015950      0.00000000       6      0.49648900      0.50000000      0.00000000      0.53132095     -0.00000000      0.00000000]]>
    <![CDATA[C               2.57930583      2.40656300      0.79097800       6      0.75351100      0.75000000      0.25000000     -0.53132095     -0.00000000     -0.00000000]]>
    <![CDATA[C               1.69950667     -0.07735250      1.58195600       6      0.49648900      0.00000000      0.50000000      0.53132095     -0.00000000      0.00000000]]>
    <![CDATA[C               2.57930583      0.69905100      2.37293400       6      0.75351100      0.25000000      0.75000000     -0.53132095      0.00000000      0.00000000]]>
    <![CDATA[C              -0.01201833      1.55280700      1.58195600       6     -0.00351100      0.50000000      0.50000000      0.53132095      0.00000000      0.00000000]]>
    <![CDATA[C               0.86778083      2.32921050      2.37293400       6      0.25351100      0.75000000      0.75000000     -0.53132095      0.00000000     -0.00000000]]>
    <![CDATA[8]]>
    <![CDATA[energy=-1261.10911900 config_type=bulk_cryst detailed_ct=dist_dia task=SinglePoint cut_off_energy="650 eV" spin_polarized=F opt_strategy=speed xc_functional=LDA elec_energy_tol=0.00000001 max_scf_cycles=200 fix_occupancy=F smearing_width="0.1 eV" mixing_scheme=Pulay calculate_stress=T finite_basis_corr=automatic popn_calculate=F pdos_calculate_weights=F write_checkpoint=none mix_charge_amp=0.15000000 mix_history_length=20 nextra_bands=8 kpoints_mp_grid="11      11      11" castep_file_name=20.castep castep_run_time=202.16000000 virial="44.63951838      -0.00000000      20.23553960      -0.00000000      35.35004513      -0.00000000      20.23553960      -0.00000000      36.36165292" cutoff=-1.00000000 nneightol=1.20000000 pbc="T T T" Lattice="3.16614600       0.00000000       0.00000000       0.00000000       3.29630000       0.00000000      -0.28161600       0.00000000       3.30830800" Properties=species:S:1:pos:R:3:Z:I:1:frac_pos:R:3:forces:R:3]]>
    <![CDATA[C               0.00000000      0.00000000      0.00000000       6      0.00000000      0.00000000      0.00000000      0.00000000     -1.77629591      0.00000000]]>
    <![CDATA[C               0.72113250      0.82407500      0.82707700       6      0.25000000      0.25000000      0.25000000      0.00000000      1.77629591      0.00000000]]>
    <![CDATA[C               1.58307300      1.64815000      0.00000000       6      0.50000000      0.50000000      0.00000000      0.00000000     -1.77629591     -0.00000000]]>
    <![CDATA[C               2.30420550      2.47222500      0.82707700       6      0.75000000      0.75000000      0.25000000      0.00000000      1.77629591     -0.00000000]]>
    <![CDATA[C               1.44226500      0.00000000      1.65415400       6      0.50000000      0.00000000      0.50000000      0.00000000     -1.77629591      0.00000000]]>
    <![CDATA[C               2.16339750      0.82407500      2.48123100       6      0.75000000      0.25000000      0.75000000      0.00000000      1.77629591      0.00000000]]>
    <![CDATA[C              -0.14080800      1.64815000      1.65415400       6      0.00000000      0.50000000      0.50000000      0.00000000     -1.77629591     -0.00000000]]>
    <![CDATA[C               0.58032450      2.47222500      2.48123100       6      0.25000000      0.75000000      0.75000000      0.00000000      1.77629591      0.00000000]]>
    <![CDATA[8]]>
    <![CDATA[energy=-1263.74156200 config_type=bulk_cryst detailed_ct=dist_dia task=SinglePoint cut_off_energy="650 eV" spin_polarized=F opt_strategy=speed xc_functional=LDA elec_energy_tol=0.00000001 max_scf_cycles=200 fix_occupancy=F smearing_width="0.1 eV" mixing_scheme=Pulay calculate_stress=T finite_basis_corr=automatic popn_calculate=F pdos_calculate_weights=F write_checkpoint=none mix_charge_amp=0.15000000 mix_history_length=20 nextra_bands=8 kpoints_mp_grid="11      11      11" castep_file_name=21.castep castep_run_time=108.84000000 virial="27.65044377     -10.31308985      -0.00000000     -10.31308985      28.64538039      -0.00000000      -0.00000000      -0.00000000      27.71437236" cutoff=-1.00000000 nneightol=1.20000000 pbc="T T T" Lattice="3.32027300       0.00000000       0.00000000       0.15997500       3.31641600       0.00000000       0.00000000       0.00000000       3.32027300" Properties=species:S:1:pos:R:3:Z:I:1:frac_pos:R:3:forces:R:3]]>
    <![CDATA[C               0.00000000      0.00000000      0.00000000       6      0.00000000      0.00000000      0.00000000     -0.00000000      0.00000000      0.80589324]]>
    <![CDATA[C               0.87006200      0.82910400      0.83006825       6      0.25000000      0.25000000      0.25000000      0.00000000     -0.00000000     -0.80589324]]>
    <![CDATA[C               1.74012400      1.65820800      0.00000000       6      0.50000000      0.50000000      0.00000000     -0.00000000      0.00000000      0.80589324]]>
    <![CDATA[C               2.61018600      2.48731200      0.83006825       6      0.75000000      0.75000000      0.25000000     -0.00000000     -0.00000000     -0.80589324]]>
    <![CDATA[C               1.66013650      0.00000000      1.66013650       6      0.50000000      0.00000000      0.50000000     -0.00000000     -0.00000000      0.80589324]]>
    <![CDATA[C               2.53019850      0.82910400      2.49020475       6      0.75000000      0.25000000      0.75000000     -0.00000000      0.00000000     -0.80589324]]>
    <![CDATA[C               0.07998750      1.65820800      1.66013650       6      0.00000000      0.50000000      0.50000000     -0.00000000     -0.00000000      0.80589324]]>
    <![CDATA[C               0.95004950      2.48731200      2.49020475       6      0.25000000      0.75000000      0.75000000      0.00000000      0.00000000     -0.80589324]]>
    <![CDATA[8]]>
    <![CDATA[energy=-1263.46486100 config_type=bulk_cryst detailed_ct=dist_dia task=SinglePoint cut_off_energy="650 eV" spin_polarized=F opt_strategy=speed xc_functional=LDA elec_energy_tol=0.00000001 max_scf_cycles=200 fix_occupancy=F smearing_width="0.1 eV" mixing_scheme=Pulay calculate_stress=T finite_basis_corr=automatic popn_calculate=F pdos_calculate_weights=F write_checkpoint=none mix_charge_amp=0.15000000 mix_history_length=20 nextra_bands=8 kpoints_mp_grid="11      11      11" castep_file_name=22.castep castep_run_time=451.51000000 virial="27.69369857       0.52739854      -0.42173985       0.52739854      32.62890142       0.10287368      -0.42173985       0.10287368      28.62081489" cutoff=-1.00000000 nneightol=1.20000000 pbc="T T T" Lattice="3.33224500       0.00000000       0.00000000       0.00000000       3.26933100       0.00000000       0.00000000       0.00000000       3.32027300" Properties=species:S:1:pos:R:3:Z:I:1:frac_pos:R:3:forces:R:3]]>
    <![CDATA[C               0.00993342     -0.00276585      0.01295238       6      0.00298100     -0.00084600      0.00390100      0.49969797      0.11172627     -1.05642773]]>
    <![CDATA[C               0.86352130      0.81265107      0.82538334       6      0.25914100      0.24856800      0.24858900     -1.30823708      0.64415957      0.06855653]]>
    <![CDATA[C               1.69770552      1.65001501     -0.00938973       6      0.50947800      0.50469500     -0.00282800     -2.14673563     -1.05724844     -0.36518515]]>
    <![CDATA[C               2.51003354      2.44272970      0.82075488       6      0.75325600      0.74716500      0.24719500      0.99945492     -0.62352567      0.50738334]]>
    <![CDATA[C               1.67096092     -0.03826752      1.62563886       6      0.50145200     -0.01170500      0.48961000     -0.07181265      1.82526903      1.52922701]]>
    <![CDATA[C               2.48793742      0.79707598      2.49649003       6      0.74662500      0.24380400      0.75189300      0.36760544     -0.52355155     -0.24353320]]>
    <![CDATA[C              -0.01816074      1.60641848      1.68944787       6     -0.00545000      0.49136000      0.50882800      1.50239553      0.38625113     -2.06988834]]>
    <![CDATA[C               0.82854606      2.45334848      2.46171017       6      0.24864500      0.75041300      0.74141800      0.15763150     -0.76308035      1.62986753]]>
    <![CDATA[8]]>
    <![CDATA[energy=-1263.65129500 config_type=bulk_cryst detailed_ct=dist_dia task=SinglePoint cut_off_energy="650 eV" spin_polarized=F opt_strategy=speed xc_functional=LDA elec_energy_tol=0.00000001 max_scf_cycles=200 fix_occupancy=F smearing_width="0.1 eV" mixing_scheme=Pulay calculate_stress=T finite_basis_corr=automatic popn_calculate=F pdos_calculate_weights=F write_checkpoint=none mix_charge_amp=0.15000000 mix_history_length=20 nextra_bands=8 kpoints_mp_grid="11      10      11" castep_file_name=23.castep castep_run_time=622.79000000 virial="26.41912048       0.61370056      -0.64656939       0.61370056      20.14730314     -16.21121532      -0.64656939     -16.21121532      28.89713584" cutoff=-1.00000000 nneightol=1.20000000 pbc="T T T" Lattice="3.32027300       0.00000000       0.00000000       0.00000000       3.39882900       0.00000000       0.00000000       0.26686200       3.30953100" Properties=species:S:1:pos:R:3:Z:I:1:frac_pos:R:3:forces:R:3]]>
    <![CDATA[C               0.00993426     -0.00276559      0.01295350       6      0.00299200     -0.00112100      0.00391400      1.63130999      0.19488663     -1.08488749]]>
    <![CDATA[C               0.86052843      0.91173882      0.82269976       6      0.25917400      0.24873300      0.24858500     -2.34594598      0.62450820     -0.19627520]]>
    <![CDATA[C               1.69172226      1.71476446     -0.00938914       6      0.50951300      0.50473900     -0.00283700     -0.79984035     -0.86858728     -0.23858868]]>
    <![CDATA[C               2.50105540      2.60656857      0.81806642       6      0.75326800      0.74749400      0.24718500     -0.55047616     -0.72511455      0.58680855]]>
    <![CDATA[C               1.66497414      0.09516546      1.62026695       6      0.50145700     -0.01044000      0.48957600      1.28600688      1.40574972      1.19381867]]>
    <![CDATA[C               2.47895899      1.02959707      2.48843305       6      0.74661300      0.24389100      0.75189900     -0.83835858     -0.39071275      0.04288680]]>
    <![CDATA[C              -0.01815857      1.80459924      1.68407802       6     -0.00546900      0.49099400      0.50885700      2.62337923      0.75405347     -1.99108218]]>
    <![CDATA[C               0.82555268      2.75061751      2.45365319       6      0.24864000      0.75107300      0.74139000     -1.00607504     -0.99478345      1.68731954]]>
    <![CDATA[8]]>
    <![CDATA[energy=-1264.46447700 config_type=bulk_cryst detailed_ct=dist_dia task=SinglePoint cut_off_energy="650 eV" spin_polarized=F opt_strategy=speed xc_functional=LDA elec_energy_tol=0.00000001 max_scf_cycles=200 fix_occupancy=F smearing_width="0.1 eV" mixing_scheme=Pulay calculate_stress=T finite_basis_corr=automatic popn_calculate=F pdos_calculate_weights=F write_checkpoint=none mix_charge_amp=0.15000000 mix_history_length=20 nextra_bands=8 kpoints_mp_grid="11      10      11" castep_file_name=24.castep castep_run_time=95.29000000 virial="26.06498664      -0.00000000      -0.00000000      -0.00000000      21.21541021      -0.00000000      -0.00000000      -0.00000000      26.06498664" cutoff=-1.00000000 nneightol=1.20000000 pbc="T T T" Lattice="3.32027300       0.00000000       0.00000000       0.00000000       3.38104900       0.00000000       0.00000000       0.00000000       3.32027300" Properties=species:S:1:pos:R:3:Z:I:1:frac_pos:R:3:forces:R:3]]>
    <![CDATA[C               0.00000000      0.00000000      0.00000000       6      0.00000000      0.00000000      0.00000000      0.00000000      0.00000000      0.00000000]]>
    <![CDATA[C               0.83006825      0.84526225      0.83006825       6      0.25000000      0.25000000      0.25000000      0.00000000      0.00000000     -0.00000000]]>
    <![CDATA[C               1.66013650      1.69052450      0.00000000       6      0.50000000      0.50000000      0.00000000      0.00000000      0.00000000      0.00000000]]>
    <![CDATA[C               2.49020475      2.53578675      0.83006825       6      0.75000000      0.75000000      0.25000000      0.00000000      0.00000000     -0.00000000]]>
    <![CDATA[C               1.66013650      0.00000000      1.66013650       6      0.50000000      0.00000000      0.50000000      0.00000000      0.00000000     -0.00000000]]>
    <![CDATA[C               2.49020475      0.84526225      2.49020475       6      0.75000000      0.25000000      0.75000000      0.00000000      0.00000000     -0.00000000]]>
    <![CDATA[C               0.00000000      1.69052450      1.66013650       6      0.00000000      0.50000000      0.50000000      0.00000000      0.00000000      0.00000000]]>
    <![CDATA[C               0.83006825      2.53578675      2.49020475       6      0.25000000      0.75000000      0.75000000      0.00000000      0.00000000     -0.00000000]]>
    <![CDATA[8]]>
    <![CDATA[energy=-1261.31013400 config_type=bulk_cryst detailed_ct=dist_dia task=SinglePoint cut_off_energy="650 eV" spin_polarized=F opt_strategy=speed xc_functional=LDA elec_energy_tol=0.00000001 max_scf_cycles=200 fix_occupancy=F smearing_width="0.1 eV" mixing_scheme=Pulay calculate_stress=T finite_basis_corr=automatic popn_calculate=F pdos_calculate_weights=F write_checkpoint=none mix_charge_amp=0.15000000 mix_history_length=20 nextra_bands=8 kpoints_mp_grid="11      10      11" castep_file_name=26.castep castep_run_time=337.93000000 virial="45.67801675      11.60250089      -0.00000000      11.60250089      26.20076084      -0.00000000      -0.00000000      -0.00000000      42.66745294" cutoff=-1.00000000 nneightol=1.20000000 pbc="T T T" Lattice="3.16030500       0.00000000       0.00000000      -0.19003300       3.40448100       0.00000000       0.00000000       0.00000000       3.20372200" Properties=species:S:1:pos:R:3:Z:I:1:frac_pos:R:3:forces:R:3]]>
    <![CDATA[C               0.00000000      0.00000000     -0.00926196       6      0.00000000      0.00000000     -0.00289100      0.00000000      0.00000000     -0.04889756]]>
    <![CDATA[C               0.74256800      0.85112025      0.81019246       6      0.25000000      0.25000000      0.25289100      0.00000000     -0.00000000      0.04889756]]>
    <![CDATA[C               1.48513600      1.70224050     -0.00926196       6      0.50000000      0.50000000     -0.00289100     -0.00000000      0.00000000     -0.04889756]]>
    <![CDATA[C               2.22770400      2.55336075      0.81019246       6      0.75000000      0.75000000      0.25289100      0.00000000     -0.00000000      0.04889756]]>
    <![CDATA[C               1.58015250      0.00000000      1.59259904       6      0.50000000      0.00000000      0.49710900      0.00000000      0.00000000     -0.04889756]]>
    <![CDATA[C               2.32272050      0.85112025      2.41205346       6      0.75000000      0.25000000      0.75289100     -0.00000000     -0.00000000      0.04889756]]>
    <![CDATA[C              -0.09501650      1.70224050      1.59259904       6     -0.00000000      0.50000000      0.49710900     -0.00000000      0.00000000     -0.04889756]]>
    <![CDATA[C               0.64755150      2.55336075      2.41205346       6      0.25000000      0.75000000      0.75289100      0.00000000     -0.00000000      0.04889756]]>
    <![CDATA[8]]>
    <![CDATA[energy=-1262.41912800 config_type=bulk_cryst detailed_ct=dist_dia task=SinglePoint cut_off_energy="650 eV" spin_polarized=F opt_strategy=speed xc_functional=LDA elec_energy_tol=0.00000001 max_scf_cycles=200 fix_occupancy=F smearing_width="0.1 eV" mixing_scheme=Pulay calculate_stress=T finite_basis_corr=automatic popn_calculate=F pdos_calculate_weights=F write_checkpoint=none mix_charge_amp=0.15000000 mix_history_length=20 nextra_bands=8 kpoints_mp_grid="11      11      11" castep_file_name=27.castep castep_run_time=111.33000000 virial="31.64940798      -0.00000000      -0.00000000      -0.00000000      40.55998292      -0.00000000      -0.00000000      -0.00000000      35.42876212" cutoff=-1.00000000 nneightol=1.20000000 pbc="T T T" Lattice="3.32027300       0.00000000       0.00000000       0.00000000       3.20762300       0.00000000       0.00000000       0.00000000       3.27517200" Properties=species:S:1:pos:R:3:Z:I:1:frac_pos:R:3:forces:R:3]]>
    <![CDATA[C               0.00000000      0.00000000      0.00000000       6      0.00000000      0.00000000      0.00000000      0.00000000      0.00000000     -0.00000000]]>
    <![CDATA[C               0.83006825      0.80190575      0.81879300       6      0.25000000      0.25000000      0.25000000      0.00000000      0.00000000      0.00000000]]>
    <![CDATA[C               1.66013650      1.60381150      0.00000000       6      0.50000000      0.50000000      0.00000000      0.00000000      0.00000000     -0.00000000]]>
    <![CDATA[C               2.49020475      2.40571725      0.81879300       6      0.75000000      0.75000000      0.25000000      0.00000000      0.00000000      0.00000000]]>
    <![CDATA[C               1.66013650      0.00000000      1.63758600       6      0.50000000      0.00000000      0.50000000      0.00000000      0.00000000     -0.00000000]]>
    <![CDATA[C               2.49020475      0.80190575      2.45637900       6      0.75000000      0.25000000      0.75000000      0.00000000      0.00000000      0.00000000]]>
    <![CDATA[C               0.00000000      1.60381150      1.63758600       6      0.00000000      0.50000000      0.50000000      0.00000000      0.00000000     -0.00000000]]>
    <![CDATA[C               0.83006825      2.40571725      2.45637900       6      0.25000000      0.75000000      0.75000000      0.00000000      0.00000000      0.00000000]]>
    <![CDATA[8]]>
    <![CDATA[energy=-1264.35505000 config_type=bulk_cryst detailed_ct=dist_dia task=SinglePoint cut_off_energy="650 eV" spin_polarized=F opt_strategy=speed xc_functional=LDA elec_energy_tol=0.00000001 max_scf_cycles=200 fix_occupancy=F smearing_width="0.1 eV" mixing_scheme=Pulay calculate_stress=T finite_basis_corr=automatic popn_calculate=F pdos_calculate_weights=F write_checkpoint=none mix_charge_amp=0.15000000 mix_history_length=20 nextra_bands=8 kpoints_mp_grid="10      11      11" castep_file_name=28.castep castep_run_time=103.03000000 virial="18.13850929      -0.00000000      -0.00000000      -0.00000000      25.55077353     -10.54568100      -0.00000000     -10.54568100      26.60814450" cutoff=-1.00000000 nneightol=1.20000000 pbc="T T T" Lattice="3.41352600       0.00000000       0.00000000       0.00000000       3.32027300       0.00000000       0.00000000       0.16624700       3.31610800" Properties=species:S:1:pos:R:3:Z:I:1:frac_pos:R:3:forces:R:3]]>
    <![CDATA[C               0.00000000      0.00000000      0.00000000       6      0.00000000      0.00000000      0.00000000      0.70490373     -0.00000000      0.00000000]]>
    <![CDATA[C               0.85338150      0.87163000      0.82902700       6      0.25000000      0.25000000      0.25000000     -0.70490373      0.00000000      0.00000000]]>
    <![CDATA[C               1.70676300      1.66013650      0.00000000       6      0.50000000      0.50000000      0.00000000      0.70490373      0.00000000      0.00000000]]>
    <![CDATA[C               2.56014450      2.53176650      0.82902700       6      0.75000000      0.75000000      0.25000000     -0.70490373     -0.00000000      0.00000000]]>
    <![CDATA[C               1.70676300      0.08312350      1.65805400       6      0.50000000      0.00000000      0.50000000      0.70490373      0.00000000      0.00000000]]>
    <![CDATA[C               2.56014450      0.95475350      2.48708100       6      0.75000000      0.25000000      0.75000000     -0.70490373      0.00000000      0.00000000]]>
    <![CDATA[C               0.00000000      1.74326000      1.65805400       6      0.00000000      0.50000000      0.50000000      0.70490373     -0.00000000      0.00000000]]>
    <![CDATA[C               0.85338150      2.61489000      2.48708100       6      0.25000000      0.75000000      0.75000000     -0.70490373      0.00000000      0.00000000]]>
    <![CDATA[8]]>
    <![CDATA[energy=-1263.18743100 config_type=bulk_cryst detailed_ct=dist_dia task=SinglePoint cut_off_energy="650 eV" spin_polarized=F opt_strategy=speed xc_functional=LDA elec_energy_tol=0.00000001 max_scf_cycles=200 fix_occupancy=F smearing_width="0.1 eV" mixing_scheme=Pulay calculate_stress=T finite_basis_corr=automatic popn_calculate=F pdos_calculate_weights=F write_checkpoint=none mix_charge_amp=0.15000000 mix_history_length=20 nextra_bands=8 kpoints_mp_grid="11      11      11" castep_file_name=29.castep castep_run_time=407.10000000 virial="29.41629983       0.54806194      -0.43897082       0.54806194      34.69608893       0.10534412      -0.43897082       0.10534412      29.36882484" cutoff=-1.00000000 nneightol=1.20000000 pbc="T T T" Lattice="3.32027300       0.00000000       0.00000000       0.00000000       3.25251700       0.00000000       0.00000000       0.00000000       3.32027300" Properties=species:S:1:pos:R:3:Z:I:1:frac_pos:R:3:forces:R:3]]>
    <![CDATA[C               0.00993426     -0.00276464      0.01295238       6      0.00299200     -0.00085000      0.00390100      0.51381332      0.11553898     -1.06717118]]>
    <![CDATA[C               0.86052843      0.80844563      0.82538334       6      0.25917400      0.24856000      0.24858900     -1.32836971      0.66898297      0.06812476]]>
    <![CDATA[C               1.69172226      1.64160713     -0.00938973       6      0.50951300      0.50471900     -0.00282800     -2.18555003     -1.06479471     -0.37667661]]>
    <![CDATA[C               2.50105540      2.43012133      0.82075488       6      0.75326800      0.74715100      0.24719500      1.03001866     -0.63917693      0.51756724]]>
    <![CDATA[C               1.66497414     -0.03826586      1.62563886       6      0.50145700     -0.01176500      0.48961000     -0.06793761      1.85230516      1.55330783]]>
    <![CDATA[C               2.47895899      0.79287257      2.49649003       6      0.74661300      0.24377200      0.75189300      0.35838693     -0.54774081     -0.24701249]]>
    <![CDATA[C              -0.01815857      1.59801364      1.68944787       6     -0.00546900      0.49131600      0.50882800      1.51958442      0.38484675     -2.10321046]]>
    <![CDATA[C               0.82555268      2.44073754      2.46171017       6      0.24864000      0.75041500      0.74141800      0.16005402     -0.76996141      1.65507092]]>
    <![CDATA[8]]>
    <![CDATA[energy=-1261.28966000 config_type=bulk_cryst detailed_ct=dist_dia task=SinglePoint cut_off_energy="650 eV" spin_polarized=F opt_strategy=speed xc_functional=LDA elec_energy_tol=0.00000001 max_scf_cycles=200 fix_occupancy=F smearing_width="0.1 eV" mixing_scheme=Pulay calculate_stress=T finite_basis_corr=automatic popn_calculate=F pdos_calculate_weights=F write_checkpoint=none mix_charge_amp=0.15000000 mix_history_length=20 nextra_bands=8 kpoints_mp_grid="11      11      11" castep_file_name=30.castep castep_run_time=362.28000000 virial="37.29241393      -4.07432378       0.81214603      -4.07432378      38.28170984      10.26212532       0.81214603      10.26212532      45.66496581" cutoff=-1.00000000 nneightol=1.20000000 pbc="T T T" Lattice="3.28006200       0.00000000       0.00000000       0.05848400       3.26834500       0.00000000      -0.01524900      -0.14016800       3.18006700" Properties=species:S:1:pos:R:3:Z:I:1:frac_pos:R:3:forces:R:3]]>
    <![CDATA[C               0.00000000      0.00000000      0.00000000       6      0.00000000      0.00000000      0.00000000     -0.96900131     -0.00840305      0.38968343]]>
    <![CDATA[C               0.83082425      0.78204425      0.79501675       6      0.25000000      0.25000000      0.25000000      0.96900131      0.00840305     -0.38968343]]>
    <![CDATA[C               1.66927300      1.63417250      0.00000000       6      0.50000000      0.50000000      0.00000000     -0.96900131     -0.00840305      0.38968343]]>
    <![CDATA[C               2.50009725      2.41621675      0.79501675       6      0.75000000      0.75000000      0.25000000      0.96900131      0.00840305     -0.38968343]]>
    <![CDATA[C               1.63240650     -0.07008400      1.59003350       6      0.50000000      0.00000000      0.50000000     -0.96900131     -0.00840305      0.38968343]]>
    <![CDATA[C               2.46323075      0.71196025      2.38505025       6      0.75000000      0.25000000      0.75000000      0.96900131      0.00840305     -0.38968343]]>
    <![CDATA[C               0.02161750      1.56408850      1.59003350       6      0.00000000      0.50000000      0.50000000     -0.96900131     -0.00840305      0.38968343]]>
    <![CDATA[C               0.85244175      2.34613275      2.38505025       6      0.25000000      0.75000000      0.75000000      0.96900131      0.00840305     -0.38968343]]>
    <![CDATA[8]]>
    <![CDATA[energy=-1262.20010800 config_type=bulk_cryst detailed_ct=dist_dia task=SinglePoint cut_off_energy="650 eV" spin_polarized=F opt_strategy=speed xc_functional=LDA elec_energy_tol=0.00000001 max_scf_cycles=200 fix_occupancy=F smearing_width="0.1 eV" mixing_scheme=Pulay calculate_stress=T finite_basis_corr=automatic popn_calculate=F pdos_calculate_weights=F write_checkpoint=none mix_charge_amp=0.15000000 mix_history_length=20 nextra_bands=8 kpoints_mp_grid="11      11      11" castep_file_name=31.castep castep_run_time=343.64000000 virial="31.22110629       0.72961560      -0.68467343       0.72961560      33.41323455     -12.65930140      -0.68467343     -12.65930140      39.87000883" cutoff=-1.00000000 nneightol=1.20000000 pbc="T T T" Lattice="3.32027300       0.00000000       0.00000000       0.00000000       3.29271100       0.00000000       0.00000000       0.18294300       3.22019400" Properties=species:S:1:pos:R:3:Z:I:1:frac_pos:R:3:forces:R:3]]>
    <![CDATA[C               0.00993426     -0.00276417      0.01295484       6      0.00299200     -0.00106300      0.00402300      1.58548940      0.20028131     -1.15099241]]>
    <![CDATA[C               0.86052843      0.86422868      0.80036634       6      0.25917400      0.24865800      0.24854600     -2.34144947      0.77572799     -0.13722887]]>
    <![CDATA[C               1.69172226      1.66170278     -0.00939009       6      0.50951300      0.50482300     -0.00291600     -1.17330862     -0.97678723     -0.33941151]]>
    <![CDATA[C               2.50105540      2.50600089      0.79573248       6      0.75326800      0.74734600      0.24710700     -0.17164649     -0.75981940      0.62615019]]>
    <![CDATA[C               1.66497414      0.05320620      1.57559906       6      0.50145700     -0.01102600      0.48928700      1.16395111      1.66094956      1.41471184]]>
    <![CDATA[C               2.47895899      0.94012973      2.42143132       6      0.74661300      0.24374000      0.75195200     -0.78467523     -0.56308947     -0.04420394]]>
    <![CDATA[C              -0.01815857      1.70958134      1.63941043       6     -0.00546900      0.49091600      0.50910300      2.62630564      0.67965546     -2.19929555]]>
    <![CDATA[C               0.82555268      2.60809166      2.38665000       6      0.24864000      0.75090200      0.74115100     -0.90466634     -1.01691823      1.83027026]]>
    <![CDATA[8]]>
    <![CDATA[energy=-1263.30036000 config_type=bulk_cryst detailed_ct=dist_dia task=SinglePoint cut_off_energy="650 eV" spin_polarized=F opt_strategy=speed xc_functional=LDA elec_energy_tol=0.00000001 max_scf_cycles=200 fix_occupancy=F smearing_width="0.1 eV" mixing_scheme=Pulay calculate_stress=T finite_basis_corr=automatic popn_calculate=F pdos_calculate_weights=F write_checkpoint=none mix_charge_amp=0.15000000 mix_history_length=20 nextra_bands=8 kpoints_mp_grid="11      10      11" castep_file_name=32.castep castep_run_time=170.74000000 virial="36.62764029       9.48978844      -0.00000000       9.48978844      22.57221630      -0.00000000      -0.00000000      -0.00000000      28.65918044" cutoff=-1.00000000 nneightol=1.20000000 pbc="T T T" Lattice="3.21130300       0.00000000       0.00000000      -0.16087700       3.39874600       0.00000000       0.00000000       0.00000000       3.32027300" Properties=species:S:1:pos:R:3:Z:I:1:frac_pos:R:3:forces:R:3]]>
    <![CDATA[C               0.00000000      0.00000000     -0.00815791       6      0.00000000      0.00000000     -0.00245700     -0.00000000     -0.00000000      0.11407911]]>
    <![CDATA[C               0.76260650      0.84968650      0.83822616       6      0.25000000      0.25000000      0.25245700      0.00000000      0.00000000     -0.11407911]]>
    <![CDATA[C               1.52521300      1.69937300     -0.00815791       6      0.50000000      0.50000000     -0.00245700      0.00000000     -0.00000000      0.11407911]]>
    <![CDATA[C               2.28781950      2.54905950      0.83822616       6      0.75000000      0.75000000      0.25245700      0.00000000     -0.00000000     -0.11407911]]>
    <![CDATA[C               1.60565150      0.00000000      1.65197859       6      0.50000000      0.00000000      0.49754300     -0.00000000     -0.00000000      0.11407911]]>
    <![CDATA[C               2.36825800      0.84968650      2.49836266       6      0.75000000      0.25000000      0.75245700      0.00000000      0.00000000     -0.11407911]]>
    <![CDATA[C              -0.08043850      1.69937300      1.65197859       6     -0.00000000      0.50000000      0.49754300     -0.00000000     -0.00000000      0.11407911]]>
    <![CDATA[C               0.68216800      2.54905950      2.49836266       6      0.25000000      0.75000000      0.75245700      0.00000000     -0.00000000     -0.11407911]]>
    <![CDATA[8]]>
    <![CDATA[energy=-1263.83969600 config_type=bulk_cryst detailed_ct=dist_dia task=SinglePoint cut_off_energy="650 eV" spin_polarized=F opt_strategy=speed xc_functional=LDA elec_energy_tol=0.00000001 max_scf_cycles=200 fix_occupancy=F smearing_width="0.1 eV" mixing_scheme=Pulay calculate_stress=T finite_basis_corr=automatic popn_calculate=F pdos_calculate_weights=F write_checkpoint=none mix_charge_amp=0.15000000 mix_history_length=20 nextra_bands=8 kpoints_mp_grid="11      11      11" castep_file_name=33.castep castep_run_time=421.37000000 virial="27.51730992       0.50187457      -1.00132576       0.50187457      27.64144529       0.08886039      -1.00132576       0.08886039      27.56908418" cutoff=-1.00000000 nneightol=1.20000000 pbc="T T T" Lattice="3.32141200       0.00000000       0.00000000       0.00000000       3.32027300       0.00000000       0.00945600       0.00000000       3.32025900" Properties=species:S:1:pos:R:3:Z:I:1:frac_pos:R:3:forces:R:3]]>
    <![CDATA[C               0.00993471     -0.00276579      0.01295565       6      0.00298000     -0.00083300      0.00390200      0.48553429      0.15199727     -1.05659154]]>
    <![CDATA[C               0.86317762      0.82538334      0.82538318       6      0.25917500      0.24858900      0.24859000     -1.28645846      0.57540841      0.08173804]]>
    <![CDATA[C               1.69228914      1.67548612     -0.00938969       6      0.50951700      0.50462300     -0.00282800     -2.09739422     -0.99047391     -0.32578950]]>
    <![CDATA[C               2.50427410      2.48093455      0.82075142       6      0.75327500      0.74720800      0.24719500      0.95018114     -0.66152692      0.47614292]]>
    <![CDATA[C               1.67027137     -0.03826615      1.62563201       6      0.50148600     -0.01152500      0.48961000     -0.09090526      1.83630912      1.49430576]]>
    <![CDATA[C               2.48690599      0.80981126      2.49647950       6      0.74660900      0.24389900      0.75189300      0.39031210     -0.54677024     -0.23253412]]>
    <![CDATA[C              -0.01343304      1.63189094      1.68944075       6     -0.00549300      0.49149300      0.50882800      1.50630798      0.42578694     -2.03434446]]>
    <![CDATA[C               0.83292976      2.49155610      2.46169979       6      0.24866500      0.75040700      0.74141800      0.14242242     -0.79073068      1.59707289]]>
    <![CDATA[8]]>
    <![CDATA[energy=-1263.93492800 config_type=bulk_cryst detailed_ct=dist_dia task=SinglePoint cut_off_energy="650 eV" spin_polarized=F opt_strategy=speed xc_functional=LDA elec_energy_tol=0.00000001 max_scf_cycles=200 fix_occupancy=F smearing_width="0.1 eV" mixing_scheme=Pulay calculate_stress=T finite_basis_corr=automatic popn_calculate=F pdos_calculate_weights=F write_checkpoint=none mix_charge_amp=0.15000000 mix_history_length=20 nextra_bands=8 kpoints_mp_grid="11      10      11" castep_file_name=34.castep castep_run_time=192.58000000 virial="33.71082268      -0.67354897      -0.00000000      -0.67354897      18.76854969      -0.00000000      -0.00000000      -0.00000000      27.53977309" cutoff=-1.00000000 nneightol=1.20000000 pbc="T T T" Lattice="3.23482200       0.00000000       0.00000000       0.01164300       3.42389900       0.00000000       0.00000000       0.00000000       3.32027300" Properties=species:S:1:pos:R:3:Z:I:1:frac_pos:R:3:forces:R:3]]>
    <![CDATA[C               0.00000000      0.00000000      0.00055449       6      0.00000000      0.00000000      0.00016700      0.00000000      0.00000000     -0.00615704]]>
    <![CDATA[C               0.81161625      0.85597475      0.82951376       6      0.25000000      0.25000000      0.24983300     -0.00000000     -0.00000000      0.00615704]]>
    <![CDATA[C               1.62323250      1.71194950      0.00055449       6      0.50000000      0.50000000      0.00016700      0.00000000      0.00000000     -0.00615704]]>
    <![CDATA[C               2.43484875      2.56792425      0.82951376       6      0.75000000      0.75000000      0.24983300      0.00000000      0.00000000      0.00615704]]>
    <![CDATA[C               1.61741100      0.00000000      1.66068767       6      0.50000000      0.00000000      0.50016600      0.00000000      0.00000000     -0.00615704]]>
    <![CDATA[C               2.42902725      0.85597475      2.48965026       6      0.75000000      0.25000000      0.74983300      0.00000000     -0.00000000      0.00615704]]>
    <![CDATA[C               0.00582150      1.71194950      1.66068767       6     -0.00000000      0.50000000      0.50016600      0.00000000      0.00000000     -0.00615704]]>
    <![CDATA[C               0.81743775      2.56792425      2.48965026       6      0.25000000      0.75000000      0.74983300      0.00000000      0.00000000      0.00615704]]>
    <![CDATA[8]]>
    <![CDATA[energy=-1263.75796700 config_type=bulk_cryst detailed_ct=dist_dia task=SinglePoint cut_off_energy="650 eV" spin_polarized=F opt_strategy=speed xc_functional=LDA elec_energy_tol=0.00000001 max_scf_cycles=200 fix_occupancy=F smearing_width="0.1 eV" mixing_scheme=Pulay calculate_stress=T finite_basis_corr=automatic popn_calculate=F pdos_calculate_weights=F write_checkpoint=none mix_charge_amp=0.15000000 mix_history_length=20 nextra_bands=8 kpoints_mp_grid="11      11      11" castep_file_name=35.castep castep_run_time=113.08000000 virial="28.23720751      -0.00000000       0.00000000      -0.00000000      28.23720751      -0.00000000       0.00000000      -0.00000000      30.59470344" cutoff=-1.00000000 nneightol=1.20000000 pbc="T T T" Lattice="3.32027300       0.00000000       0.00000000       0.00000000       3.32027300       0.00000000       0.00000000       0.00000000       3.29017400" Properties=species:S:1:pos:R:3:Z:I:1:frac_pos:R:3:forces:R:3]]>
    <![CDATA[C               0.00000000      0.00000000      0.00000000       6      0.00000000      0.00000000      0.00000000      0.00000000     -0.00000000      0.00000000]]>
    <![CDATA[C               0.83006825      0.83006825      0.82254350       6      0.25000000      0.25000000      0.25000000      0.00000000      0.00000000      0.00000000]]>
    <![CDATA[C               1.66013650      1.66013650      0.00000000       6      0.50000000      0.50000000      0.00000000      0.00000000      0.00000000      0.00000000]]>
    <![CDATA[C               2.49020475      2.49020475      0.82254350       6      0.75000000      0.75000000      0.25000000     -0.00000000      0.00000000      0.00000000]]>
    <![CDATA[C               1.66013650      0.00000000      1.64508700       6      0.50000000      0.00000000      0.50000000      0.00000000     -0.00000000      0.00000000]]>
    <![CDATA[C               2.49020475      0.83006825      2.46763050       6      0.75000000      0.25000000      0.75000000      0.00000000     -0.00000000      0.00000000]]>
    <![CDATA[C               0.00000000      1.66013650      1.64508700       6      0.00000000      0.50000000      0.50000000      0.00000000     -0.00000000      0.00000000]]>
    <![CDATA[C               0.83006825      2.49020475      2.46763050       6      0.25000000      0.75000000      0.75000000      0.00000000     -0.00000000      0.00000000]]>
    <![CDATA[8]]>
    <![CDATA[energy=-1261.86957300 config_type=bulk_cryst detailed_ct=dist_dia task=SinglePoint cut_off_energy="650 eV" spin_polarized=F opt_strategy=speed xc_functional=LDA elec_energy_tol=0.00000001 max_scf_cycles=200 fix_occupancy=F smearing_width="0.1 eV" mixing_scheme=Pulay calculate_stress=T finite_basis_corr=automatic popn_calculate=F pdos_calculate_weights=F write_checkpoint=none mix_charge_amp=0.15000000 mix_history_length=20 nextra_bands=8 kpoints_mp_grid="11      11      11" castep_file_name=36.castep castep_run_time=396.00000000 virial="32.62738980       0.66679817      -0.50621915       0.66679817      40.44612698       0.11236581      -0.50621915       0.11236581      40.19751843" cutoff=-1.00000000 nneightol=1.20000000 pbc="T T T" Lattice="3.32027300       0.00000000       0.00000000       0.00000000       3.22497800       0.00000000       0.00000000       0.00000000       3.22689100" Properties=species:S:1:pos:R:3:Z:I:1:frac_pos:R:3:forces:R:3]]>
    <![CDATA[C               0.00993426     -0.00276381      0.01295274       6      0.00299200     -0.00085700      0.00401400      0.55466480      0.13176064     -1.12804804]]>
    <![CDATA[C               0.86052843      0.80156183      0.80204053       6      0.25917400      0.24854800      0.24854900     -1.38602149      0.78677373      0.07241021]]>
    <![CDATA[C               1.69172226      1.62783667     -0.00939025       6      0.50951300      0.50475900     -0.00291000     -2.35589216     -1.09946713     -0.42773674]]>
    <![CDATA[C               2.50105540      2.40946491      0.79740672       6      0.75326800      0.74712600      0.24711300      1.16930765     -0.67865644      0.56838634]]>
    <![CDATA[C               1.66497414     -0.03826759      1.57894681       6      0.50145700     -0.01186600      0.48930900     -0.03943351      1.96629943      1.66486458]]>
    <![CDATA[C               2.47895899      0.78598841      2.42645423       6      0.74661300      0.24371900      0.75194800      0.30818598     -0.66713519     -0.26680468]]>
    <![CDATA[C              -0.01815857      1.58424142      1.64275858       6     -0.00546900      0.49124100      0.50908400      1.60423467      0.38388814     -2.25813769]]>
    <![CDATA[C               0.82555268      2.42008477      2.39167480       6      0.24864000      0.75041900      0.74117000      0.14495407     -0.82346318      1.77506602]]>
    <![CDATA[8]]>
    <![CDATA[energy=-1263.76900000 config_type=bulk_cryst detailed_ct=dist_dia task=SinglePoint cut_off_energy="650 eV" spin_polarized=F opt_strategy=speed xc_functional=LDA elec_energy_tol=0.00000001 max_scf_cycles=200 fix_occupancy=F smearing_width="0.1 eV" mixing_scheme=Pulay calculate_stress=T finite_basis_corr=automatic popn_calculate=F pdos_calculate_weights=F write_checkpoint=none mix_charge_amp=0.15000000 mix_history_length=20 nextra_bands=8 kpoints_mp_grid="11      10      11" castep_file_name=37.castep castep_run_time=357.37000000 virial="27.75492478       0.51796515      -0.38232991       0.51796515      23.12118865       0.09729881      -0.38232991       0.09729881      31.79209151" cutoff=-1.00000000 nneightol=1.20000000 pbc="T T T" Lattice="3.32027300       0.00000000       0.00000000       0.00000000       3.37702100       0.00000000       0.00000000       0.00000000       3.26566200" Properties=species:S:1:pos:R:3:Z:I:1:frac_pos:R:3:forces:R:3]]>
    <![CDATA[C               0.00993426     -0.00276578      0.01295488       6      0.00299200     -0.00081900      0.00396700      0.45966647      0.10559427     -1.07229825]]>
    <![CDATA[C               0.86052843      0.83957132      0.81173254       6      0.25917400      0.24861300      0.24856600     -1.27082966      0.62645538      0.08718173]]>
    <![CDATA[C               1.69172226      1.70385906     -0.00938878       6      0.50951300      0.50454500     -0.00287500     -2.09718470     -1.02812459     -0.32962990]]>
    <![CDATA[C               2.50105540      2.52349583      0.80710183       6      0.75326800      0.74725500      0.24714800      0.94359113     -0.59336143      0.48358370]]>
    <![CDATA[C               1.66497414     -0.03826502      1.59833255       6      0.50145700     -0.01133100      0.48943600     -0.07787641      1.77213097      1.49816691]]>
    <![CDATA[C               2.47895899      0.82399988      2.45552963       6      0.74661300      0.24400200      0.75192400      0.39595369     -0.50971112     -0.23545184]]>
    <![CDATA[C              -0.01815857      1.66026510      1.66214358       6     -0.00546900      0.49163600      0.50897600      1.50727030      0.37513230     -2.03110301]]>
    <![CDATA[C               0.82555268      2.53411656      2.42075033       6      0.24864000      0.75040000      0.74127400      0.13940916     -0.74811579      1.59955065]]>
    <![CDATA[8]]>
    <![CDATA[energy=-1260.56310800 config_type=bulk_cryst detailed_ct=dist_dia task=SinglePoint cut_off_energy="650 eV" spin_polarized=F opt_strategy=speed xc_functional=LDA elec_energy_tol=0.00000001 max_scf_cycles=200 fix_occupancy=F smearing_width="0.1 eV" mixing_scheme=Pulay calculate_stress=T finite_basis_corr=automatic popn_calculate=F pdos_calculate_weights=F write_checkpoint=none mix_charge_amp=0.15000000 mix_history_length=20 nextra_bands=8 kpoints_mp_grid="11      11      11" castep_file_name=38.castep castep_run_time=357.74000000 virial="38.30034898      15.16521256      -7.70599051      15.16521256      46.68353056       6.03276759      -7.70599051       6.03276759      38.84723535" cutoff=-1.00000000 nneightol=1.20000000 pbc="T T T" Lattice="3.26746400       0.00000000       0.00000000      -0.24083700       3.17999000       0.00000000       0.12960500      -0.10040100       3.26713100" Properties=species:S:1:pos:R:3:Z:I:1:frac_pos:R:3:forces:R:3]]>
    <![CDATA[C              -0.00638255      0.00632642     -0.01432637       6     -0.00164300      0.00185100     -0.00438500      0.13802289      0.00386656      0.22982393]]>
    <![CDATA[C               0.79544079      0.76356765      0.83110912       6      0.25164300      0.24814800      0.25438500     -0.13802289     -0.00386656     -0.22982393]]>
    <![CDATA[C               1.50693095      1.59632142     -0.01432637       6      0.49835700      0.50185100     -0.00438500      0.13802289      0.00386656      0.22982393]]>
    <![CDATA[C               2.30875405      2.35356583      0.83110912       6      0.75164300      0.74814900      0.25438500     -0.13802289     -0.00386656     -0.22982393]]>
    <![CDATA[C               1.69215171     -0.04387090      1.61923913       6      0.49835700      0.00185200      0.49561500      0.13802289      0.00386656      0.22982393]]>
    <![CDATA[C               2.49397505      0.71337033      2.46467462       6      0.75164300      0.24814900      0.75438500     -0.13802289     -0.00386656     -0.22982393]]>
    <![CDATA[C              -0.06199879      1.54612410      1.61923913       6     -0.00164300      0.50185200      0.49561500      0.13802289      0.00386656      0.22982393]]>
    <![CDATA[C               0.73982455      2.30336533      2.46467462       6      0.25164300      0.74814900      0.75438500     -0.13802289     -0.00386656     -0.22982393]]>
    <![CDATA[8]]>
    <![CDATA[energy=-1264.62769200 config_type=bulk_cryst detailed_ct=dist_dia task=SinglePoint cut_off_energy="650 eV" spin_polarized=F opt_strategy=speed xc_functional=LDA elec_energy_tol=0.00000001 max_scf_cycles=200 fix_occupancy=F smearing_width="0.1 eV" mixing_scheme=Pulay calculate_stress=T finite_basis_corr=automatic popn_calculate=F pdos_calculate_weights=F write_checkpoint=none mix_charge_amp=0.15000000 mix_history_length=20 nextra_bands=8 kpoints_mp_grid="10      11      11" castep_file_name=39.castep castep_run_time=63.40000000 virial="18.35241986      -0.00000000      -0.00000000      -0.00000000      25.47028943      -0.00000000      -0.00000000      -0.00000000      25.47028943" cutoff=-1.00000000 nneightol=1.20000000 pbc="T T T" Lattice="3.40902100       0.00000000       0.00000000       0.00000000       3.32027300       0.00000000       0.00000000       0.00000000       3.32027300" Properties=species:S:1:pos:R:3:Z:I:1:frac_pos:R:3:forces:R:3]]>
    <![CDATA[C               0.00000000      0.00000000      0.00000000       6      0.00000000      0.00000000      0.00000000      0.00000000      0.00000000     -0.00000000]]>
    <![CDATA[C               0.85225525      0.83006825      0.83006825       6      0.25000000      0.25000000      0.25000000      0.00000000      0.00000000      0.00000000]]>
    <![CDATA[C               1.70451050      1.66013650      0.00000000       6      0.50000000      0.50000000      0.00000000      0.00000000      0.00000000     -0.00000000]]>
    <![CDATA[C               2.55676575      2.49020475      0.83006825       6      0.75000000      0.75000000      0.25000000      0.00000000     -0.00000000      0.00000000]]>
    <![CDATA[C               1.70451050      0.00000000      1.66013650       6      0.50000000      0.00000000      0.50000000      0.00000000      0.00000000     -0.00000000]]>
    <![CDATA[C               2.55676575      0.83006825      2.49020475       6      0.75000000      0.25000000      0.75000000      0.00000000      0.00000000     -0.00000000]]>
    <![CDATA[C               0.00000000      1.66013650      1.66013650       6      0.00000000      0.50000000      0.50000000      0.00000000      0.00000000      0.00000000]]>
    <![CDATA[C               0.85225525      2.49020475      2.49020475       6      0.25000000      0.75000000      0.75000000      0.00000000      0.00000000      0.00000000]]>
    <![CDATA[8]]>
    <![CDATA[energy=-1265.00480200 config_type=bulk_cryst detailed_ct=dist_dia task=SinglePoint cut_off_energy="650 eV" spin_polarized=F opt_strategy=speed xc_functional=LDA elec_energy_tol=0.00000001 max_scf_cycles=200 fix_occupancy=F smearing_width="0.1 eV" mixing_scheme=Pulay calculate_stress=T finite_basis_corr=automatic popn_calculate=F pdos_calculate_weights=F write_checkpoint=none mix_charge_amp=0.15000000 mix_history_length=20 nextra_bands=8 kpoints_mp_grid="10      10      11" castep_file_name=40.castep castep_run_time=172.18000000 virial="14.22148386      -2.28878093      -0.00000000      -2.28878093      20.55333522      -0.00000000      -0.00000000      -0.00000000      24.81751790" cutoff=-1.00000000 nneightol=1.20000000 pbc="T T T" Lattice="3.44353500       0.00000000       0.00000000       0.04004800       3.36667500       0.00000000       0.00000000       0.00000000       3.30805100" Properties=species:S:1:pos:R:3:Z:I:1:frac_pos:R:3:forces:R:3]]>
